FANN_FLO_2.1
num_layers=3
learning_rate=0.300000
connection_rate=1.000000
network_type=0
learning_momentum=0.000000
training_algorithm=2
train_error_function=1
train_stop_function=0
cascade_output_change_fraction=0.010000
quickprop_decay=-0.000100
quickprop_mu=1.750000
rprop_increase_factor=1.200000
rprop_decrease_factor=0.500000
rprop_delta_min=0.000000
rprop_delta_max=50.000000
rprop_delta_zero=0.100000
cascade_output_stagnation_epochs=12
cascade_candidate_change_fraction=0.010000
cascade_candidate_stagnation_epochs=12
cascade_max_out_epochs=150
cascade_max_cand_epochs=150
cascade_num_candidate_groups=2
bit_fail_limit=3.49999999999999980000e-001
cascade_candidate_limit=1.00000000000000000000e+003
cascade_weight_multiplier=4.00000000000000020000e-001
cascade_activation_functions_count=10
cascade_activation_functions=3 5 7 8 10 11 14 15 16 17 
cascade_activation_steepnesses_count=4
cascade_activation_steepnesses=2.50000000000000000000e-001 5.00000000000000000000e-001 7.50000000000000000000e-001 1.00000000000000000000e+000 
layer_sizes=321 107 11 
scale_included=0
neurons (num_inputs, activation_function, activation_steepness)=(0, 0, 0.00000000000000000000e+000) (0, 0, 0.00000000000000000000e+000) (0, 0, 0.00000000000000000000e+000) (0, 0, 0.00000000000000000000e+000) (0, 0, 0.00000000000000000000e+000) (0, 0, 0.00000000000000000000e+000) (0, 0, 0.00000000000000000000e+000) (0, 0, 0.00000000000000000000e+000) (0, 0, 0.00000000000000000000e+000) (0, 0, 0.00000000000000000000e+000) (0, 0, 0.00000000000000000000e+000) (0, 0, 0.00000000000000000000e+000) (0, 0, 0.00000000000000000000e+000) (0, 0, 0.00000000000000000000e+000) (0, 0, 0.00000000000000000000e+000) (0, 0, 0.00000000000000000000e+000) (0, 0, 0.00000000000000000000e+000) (0, 0, 0.00000000000000000000e+000) (0, 0, 0.00000000000000000000e+000) (0, 0, 0.00000000000000000000e+000) (0, 0, 0.00000000000000000000e+000) (0, 0, 0.00000000000000000000e+000) (0, 0, 0.00000000000000000000e+000) (0, 0, 0.00000000000000000000e+000) (0, 0, 0.00000000000000000000e+000) (0, 0, 0.00000000000000000000e+000) (0, 0, 0.00000000000000000000e+000) (0, 0, 0.00000000000000000000e+000) (0, 0, 0.00000000000000000000e+000) (0, 0, 0.00000000000000000000e+000) (0, 0, 0.00000000000000000000e+000) (0, 0, 0.00000000000000000000e+000) (0, 0, 0.00000000000000000000e+000) (0, 0, 0.00000000000000000000e+000) (0, 0, 0.00000000000000000000e+000) (0, 0, 0.00000000000000000000e+000) (0, 0, 0.00000000000000000000e+000) (0, 0, 0.00000000000000000000e+000) (0, 0, 0.00000000000000000000e+000) (0, 0, 0.00000000000000000000e+000) (0, 0, 0.00000000000000000000e+000) (0, 0, 0.00000000000000000000e+000) (0, 0, 0.00000000000000000000e+000) (0, 0, 0.00000000000000000000e+000) (0, 0, 0.00000000000000000000e+000) (0, 0, 0.00000000000000000000e+000) (0, 0, 0.00000000000000000000e+000) (0, 0, 0.00000000000000000000e+000) (0, 0, 0.00000000000000000000e+000) (0, 0, 0.00000000000000000000e+000) (0, 0, 0.00000000000000000000e+000) (0, 0, 0.00000000000000000000e+000) (0, 0, 0.00000000000000000000e+000) (0, 0, 0.00000000000000000000e+000) (0, 0, 0.00000000000000000000e+000) (0, 0, 0.00000000000000000000e+000) (0, 0, 0.00000000000000000000e+000) (0, 0, 0.00000000000000000000e+000) (0, 0, 0.00000000000000000000e+000) (0, 0, 0.00000000000000000000e+000) (0, 0, 0.00000000000000000000e+000) (0, 0, 0.00000000000000000000e+000) (0, 0, 0.00000000000000000000e+000) (0, 0, 0.00000000000000000000e+000) (0, 0, 0.00000000000000000000e+000) (0, 0, 0.00000000000000000000e+000) (0, 0, 0.00000000000000000000e+000) (0, 0, 0.00000000000000000000e+000) (0, 0, 0.00000000000000000000e+000) (0, 0, 0.00000000000000000000e+000) (0, 0, 0.00000000000000000000e+000) (0, 0, 0.00000000000000000000e+000) (0, 0, 0.00000000000000000000e+000) (0, 0, 0.00000000000000000000e+000) (0, 0, 0.00000000000000000000e+000) (0, 0, 0.00000000000000000000e+000) (0, 0, 0.00000000000000000000e+000) (0, 0, 0.00000000000000000000e+000) (0, 0, 0.00000000000000000000e+000) (0, 0, 0.00000000000000000000e+000) (0, 0, 0.00000000000000000000e+000) (0, 0, 0.00000000000000000000e+000) (0, 0, 0.00000000000000000000e+000) (0, 0, 0.00000000000000000000e+000) (0, 0, 0.00000000000000000000e+000) (0, 0, 0.00000000000000000000e+000) (0, 0, 0.00000000000000000000e+000) (0, 0, 0.00000000000000000000e+000) (0, 0, 0.00000000000000000000e+000) (0, 0, 0.00000000000000000000e+000) (0, 0, 0.00000000000000000000e+000) (0, 0, 0.00000000000000000000e+000) (0, 0, 0.00000000000000000000e+000) (0, 0, 0.00000000000000000000e+000) (0, 0, 0.00000000000000000000e+000) (0, 0, 0.00000000000000000000e+000) (0, 0, 0.00000000000000000000e+000) (0, 0, 0.00000000000000000000e+000) (0, 0, 0.00000000000000000000e+000) (0, 0, 0.00000000000000000000e+000) (0, 0, 0.00000000000000000000e+000) (0, 0, 0.00000000000000000000e+000) (0, 0, 0.00000000000000000000e+000) (0, 0, 0.00000000000000000000e+000) (0, 0, 0.00000000000000000000e+000) (0, 0, 0.00000000000000000000e+000) (0, 0, 0.00000000000000000000e+000) (0, 0, 0.00000000000000000000e+000) (0, 0, 0.00000000000000000000e+000) (0, 0, 0.00000000000000000000e+000) (0, 0, 0.00000000000000000000e+000) (0, 0, 0.00000000000000000000e+000) (0, 0, 0.00000000000000000000e+000) (0, 0, 0.00000000000000000000e+000) (0, 0, 0.00000000000000000000e+000) (0, 0, 0.00000000000000000000e+000) (0, 0, 0.00000000000000000000e+000) (0, 0, 0.00000000000000000000e+000) (0, 0, 0.00000000000000000000e+000) (0, 0, 0.00000000000000000000e+000) (0, 0, 0.00000000000000000000e+000) (0, 0, 0.00000000000000000000e+000) (0, 0, 0.00000000000000000000e+000) (0, 0, 0.00000000000000000000e+000) (0, 0, 0.00000000000000000000e+000) (0, 0, 0.00000000000000000000e+000) (0, 0, 0.00000000000000000000e+000) (0, 0, 0.00000000000000000000e+000) (0, 0, 0.00000000000000000000e+000) (0, 0, 0.00000000000000000000e+000) (0, 0, 0.00000000000000000000e+000) (0, 0, 0.00000000000000000000e+000) (0, 0, 0.00000000000000000000e+000) (0, 0, 0.00000000000000000000e+000) (0, 0, 0.00000000000000000000e+000) (0, 0, 0.00000000000000000000e+000) (0, 0, 0.00000000000000000000e+000) (0, 0, 0.00000000000000000000e+000) (0, 0, 0.00000000000000000000e+000) (0, 0, 0.00000000000000000000e+000) (0, 0, 0.00000000000000000000e+000) (0, 0, 0.00000000000000000000e+000) (0, 0, 0.00000000000000000000e+000) (0, 0, 0.00000000000000000000e+000) (0, 0, 0.00000000000000000000e+000) (0, 0, 0.00000000000000000000e+000) (0, 0, 0.00000000000000000000e+000) (0, 0, 0.00000000000000000000e+000) (0, 0, 0.00000000000000000000e+000) (0, 0, 0.00000000000000000000e+000) (0, 0, 0.00000000000000000000e+000) (0, 0, 0.00000000000000000000e+000) (0, 0, 0.00000000000000000000e+000) (0, 0, 0.00000000000000000000e+000) (0, 0, 0.00000000000000000000e+000) (0, 0, 0.00000000000000000000e+000) (0, 0, 0.00000000000000000000e+000) (0, 0, 0.00000000000000000000e+000) (0, 0, 0.00000000000000000000e+000) (0, 0, 0.00000000000000000000e+000) (0, 0, 0.00000000000000000000e+000) (0, 0, 0.00000000000000000000e+000) (0, 0, 0.00000000000000000000e+000) (0, 0, 0.00000000000000000000e+000) (0, 0, 0.00000000000000000000e+000) (0, 0, 0.00000000000000000000e+000) (0, 0, 0.00000000000000000000e+000) (0, 0, 0.00000000000000000000e+000) (0, 0, 0.00000000000000000000e+000) (0, 0, 0.00000000000000000000e+000) (0, 0, 0.00000000000000000000e+000) (0, 0, 0.00000000000000000000e+000) (0, 0, 0.00000000000000000000e+000) (0, 0, 0.00000000000000000000e+000) (0, 0, 0.00000000000000000000e+000) (0, 0, 0.00000000000000000000e+000) (0, 0, 0.00000000000000000000e+000) (0, 0, 0.00000000000000000000e+000) (0, 0, 0.00000000000000000000e+000) (0, 0, 0.00000000000000000000e+000) (0, 0, 0.00000000000000000000e+000) (0, 0, 0.00000000000000000000e+000) (0, 0, 0.00000000000000000000e+000) (0, 0, 0.00000000000000000000e+000) (0, 0, 0.00000000000000000000e+000) (0, 0, 0.00000000000000000000e+000) (0, 0, 0.00000000000000000000e+000) (0, 0, 0.00000000000000000000e+000) (0, 0, 0.00000000000000000000e+000) (0, 0, 0.00000000000000000000e+000) (0, 0, 0.00000000000000000000e+000) (0, 0, 0.00000000000000000000e+000) (0, 0, 0.00000000000000000000e+000) (0, 0, 0.00000000000000000000e+000) (0, 0, 0.00000000000000000000e+000) (0, 0, 0.00000000000000000000e+000) (0, 0, 0.00000000000000000000e+000) (0, 0, 0.00000000000000000000e+000) (0, 0, 0.00000000000000000000e+000) (0, 0, 0.00000000000000000000e+000) (0, 0, 0.00000000000000000000e+000) (0, 0, 0.00000000000000000000e+000) (0, 0, 0.00000000000000000000e+000) (0, 0, 0.00000000000000000000e+000) (0, 0, 0.00000000000000000000e+000) (0, 0, 0.00000000000000000000e+000) (0, 0, 0.00000000000000000000e+000) (0, 0, 0.00000000000000000000e+000) (0, 0, 0.00000000000000000000e+000) (0, 0, 0.00000000000000000000e+000) (0, 0, 0.00000000000000000000e+000) (0, 0, 0.00000000000000000000e+000) (0, 0, 0.00000000000000000000e+000) (0, 0, 0.00000000000000000000e+000) (0, 0, 0.00000000000000000000e+000) (0, 0, 0.00000000000000000000e+000) (0, 0, 0.00000000000000000000e+000) (0, 0, 0.00000000000000000000e+000) (0, 0, 0.00000000000000000000e+000) (0, 0, 0.00000000000000000000e+000) (0, 0, 0.00000000000000000000e+000) (0, 0, 0.00000000000000000000e+000) (0, 0, 0.00000000000000000000e+000) (0, 0, 0.00000000000000000000e+000) (0, 0, 0.00000000000000000000e+000) (0, 0, 0.00000000000000000000e+000) (0, 0, 0.00000000000000000000e+000) (0, 0, 0.00000000000000000000e+000) (0, 0, 0.00000000000000000000e+000) (0, 0, 0.00000000000000000000e+000) (0, 0, 0.00000000000000000000e+000) (0, 0, 0.00000000000000000000e+000) (0, 0, 0.00000000000000000000e+000) (0, 0, 0.00000000000000000000e+000) (0, 0, 0.00000000000000000000e+000) (0, 0, 0.00000000000000000000e+000) (0, 0, 0.00000000000000000000e+000) (0, 0, 0.00000000000000000000e+000) (0, 0, 0.00000000000000000000e+000) (0, 0, 0.00000000000000000000e+000) (0, 0, 0.00000000000000000000e+000) (0, 0, 0.00000000000000000000e+000) (0, 0, 0.00000000000000000000e+000) (0, 0, 0.00000000000000000000e+000) (0, 0, 0.00000000000000000000e+000) (0, 0, 0.00000000000000000000e+000) (0, 0, 0.00000000000000000000e+000) (0, 0, 0.00000000000000000000e+000) (0, 0, 0.00000000000000000000e+000) (0, 0, 0.00000000000000000000e+000) (0, 0, 0.00000000000000000000e+000) (0, 0, 0.00000000000000000000e+000) (0, 0, 0.00000000000000000000e+000) (0, 0, 0.00000000000000000000e+000) (0, 0, 0.00000000000000000000e+000) (0, 0, 0.00000000000000000000e+000) (0, 0, 0.00000000000000000000e+000) (0, 0, 0.00000000000000000000e+000) (0, 0, 0.00000000000000000000e+000) (0, 0, 0.00000000000000000000e+000) (0, 0, 0.00000000000000000000e+000) (0, 0, 0.00000000000000000000e+000) (0, 0, 0.00000000000000000000e+000) (0, 0, 0.00000000000000000000e+000) (0, 0, 0.00000000000000000000e+000) (0, 0, 0.00000000000000000000e+000) (0, 0, 0.00000000000000000000e+000) (0, 0, 0.00000000000000000000e+000) (0, 0, 0.00000000000000000000e+000) (0, 0, 0.00000000000000000000e+000) (0, 0, 0.00000000000000000000e+000) (0, 0, 0.00000000000000000000e+000) (0, 0, 0.00000000000000000000e+000) (0, 0, 0.00000000000000000000e+000) (0, 0, 0.00000000000000000000e+000) (0, 0, 0.00000000000000000000e+000) (0, 0, 0.00000000000000000000e+000) (0, 0, 0.00000000000000000000e+000) (0, 0, 0.00000000000000000000e+000) (0, 0, 0.00000000000000000000e+000) (0, 0, 0.00000000000000000000e+000) (0, 0, 0.00000000000000000000e+000) (0, 0, 0.00000000000000000000e+000) (0, 0, 0.00000000000000000000e+000) (0, 0, 0.00000000000000000000e+000) (0, 0, 0.00000000000000000000e+000) (0, 0, 0.00000000000000000000e+000) (0, 0, 0.00000000000000000000e+000) (0, 0, 0.00000000000000000000e+000) (0, 0, 0.00000000000000000000e+000) (0, 0, 0.00000000000000000000e+000) (0, 0, 0.00000000000000000000e+000) (0, 0, 0.00000000000000000000e+000) (0, 0, 0.00000000000000000000e+000) (0, 0, 0.00000000000000000000e+000) (0, 0, 0.00000000000000000000e+000) (0, 0, 0.00000000000000000000e+000) (0, 0, 0.00000000000000000000e+000) (0, 0, 0.00000000000000000000e+000) (0, 0, 0.00000000000000000000e+000) (0, 0, 0.00000000000000000000e+000) (0, 0, 0.00000000000000000000e+000) (0, 0, 0.00000000000000000000e+000) (0, 0, 0.00000000000000000000e+000) (0, 0, 0.00000000000000000000e+000) (0, 0, 0.00000000000000000000e+000) (0, 0, 0.00000000000000000000e+000) (0, 0, 0.00000000000000000000e+000) (0, 0, 0.00000000000000000000e+000) (0, 0, 0.00000000000000000000e+000) (0, 0, 0.00000000000000000000e+000) (0, 0, 0.00000000000000000000e+000) (0, 0, 0.00000000000000000000e+000) (0, 0, 0.00000000000000000000e+000) (0, 0, 0.00000000000000000000e+000) (0, 0, 0.00000000000000000000e+000) (0, 0, 0.00000000000000000000e+000) (0, 0, 0.00000000000000000000e+000) (0, 0, 0.00000000000000000000e+000) (0, 0, 0.00000000000000000000e+000) (0, 0, 0.00000000000000000000e+000) (321, 6, 5.00000000000000000000e-001) (321, 6, 5.00000000000000000000e-001) (321, 6, 5.00000000000000000000e-001) (321, 6, 5.00000000000000000000e-001) (321, 6, 5.00000000000000000000e-001) (321, 6, 5.00000000000000000000e-001) (321, 6, 5.00000000000000000000e-001) (321, 6, 5.00000000000000000000e-001) (321, 6, 5.00000000000000000000e-001) (321, 6, 5.00000000000000000000e-001) (321, 6, 5.00000000000000000000e-001) (321, 6, 5.00000000000000000000e-001) (321, 6, 5.00000000000000000000e-001) (321, 6, 5.00000000000000000000e-001) (321, 6, 5.00000000000000000000e-001) (321, 6, 5.00000000000000000000e-001) (321, 6, 5.00000000000000000000e-001) (321, 6, 5.00000000000000000000e-001) (321, 6, 5.00000000000000000000e-001) (321, 6, 5.00000000000000000000e-001) (321, 6, 5.00000000000000000000e-001) (321, 6, 5.00000000000000000000e-001) (321, 6, 5.00000000000000000000e-001) (321, 6, 5.00000000000000000000e-001) (321, 6, 5.00000000000000000000e-001) (321, 6, 5.00000000000000000000e-001) (321, 6, 5.00000000000000000000e-001) (321, 6, 5.00000000000000000000e-001) (321, 6, 5.00000000000000000000e-001) (321, 6, 5.00000000000000000000e-001) (321, 6, 5.00000000000000000000e-001) (321, 6, 5.00000000000000000000e-001) (321, 6, 5.00000000000000000000e-001) (321, 6, 5.00000000000000000000e-001) (321, 6, 5.00000000000000000000e-001) (321, 6, 5.00000000000000000000e-001) (321, 6, 5.00000000000000000000e-001) (321, 6, 5.00000000000000000000e-001) (321, 6, 5.00000000000000000000e-001) (321, 6, 5.00000000000000000000e-001) (321, 6, 5.00000000000000000000e-001) (321, 6, 5.00000000000000000000e-001) (321, 6, 5.00000000000000000000e-001) (321, 6, 5.00000000000000000000e-001) (321, 6, 5.00000000000000000000e-001) (321, 6, 5.00000000000000000000e-001) (321, 6, 5.00000000000000000000e-001) (321, 6, 5.00000000000000000000e-001) (321, 6, 5.00000000000000000000e-001) (321, 6, 5.00000000000000000000e-001) (321, 6, 5.00000000000000000000e-001) (321, 6, 5.00000000000000000000e-001) (321, 6, 5.00000000000000000000e-001) (321, 6, 5.00000000000000000000e-001) (321, 6, 5.00000000000000000000e-001) (321, 6, 5.00000000000000000000e-001) (321, 6, 5.00000000000000000000e-001) (321, 6, 5.00000000000000000000e-001) (321, 6, 5.00000000000000000000e-001) (321, 6, 5.00000000000000000000e-001) (321, 6, 5.00000000000000000000e-001) (321, 6, 5.00000000000000000000e-001) (321, 6, 5.00000000000000000000e-001) (321, 6, 5.00000000000000000000e-001) (321, 6, 5.00000000000000000000e-001) (321, 6, 5.00000000000000000000e-001) (321, 6, 5.00000000000000000000e-001) (321, 6, 5.00000000000000000000e-001) (321, 6, 5.00000000000000000000e-001) (321, 6, 5.00000000000000000000e-001) (321, 6, 5.00000000000000000000e-001) (321, 6, 5.00000000000000000000e-001) (321, 6, 5.00000000000000000000e-001) (321, 6, 5.00000000000000000000e-001) (321, 6, 5.00000000000000000000e-001) (321, 6, 5.00000000000000000000e-001) (321, 6, 5.00000000000000000000e-001) (321, 6, 5.00000000000000000000e-001) (321, 6, 5.00000000000000000000e-001) (321, 6, 5.00000000000000000000e-001) (321, 6, 5.00000000000000000000e-001) (321, 6, 5.00000000000000000000e-001) (321, 6, 5.00000000000000000000e-001) (321, 6, 5.00000000000000000000e-001) (321, 6, 5.00000000000000000000e-001) (321, 6, 5.00000000000000000000e-001) (321, 6, 5.00000000000000000000e-001) (321, 6, 5.00000000000000000000e-001) (321, 6, 5.00000000000000000000e-001) (321, 6, 5.00000000000000000000e-001) (321, 6, 5.00000000000000000000e-001) (321, 6, 5.00000000000000000000e-001) (321, 6, 5.00000000000000000000e-001) (321, 6, 5.00000000000000000000e-001) (321, 6, 5.00000000000000000000e-001) (321, 6, 5.00000000000000000000e-001) (321, 6, 5.00000000000000000000e-001) (321, 6, 5.00000000000000000000e-001) (321, 6, 5.00000000000000000000e-001) (321, 6, 5.00000000000000000000e-001) (321, 6, 5.00000000000000000000e-001) (321, 6, 5.00000000000000000000e-001) (321, 6, 5.00000000000000000000e-001) (321, 6, 5.00000000000000000000e-001) (321, 6, 5.00000000000000000000e-001) (321, 6, 5.00000000000000000000e-001) (0, 6, 0.00000000000000000000e+000) (107, 6, 5.00000000000000000000e-001) (107, 6, 5.00000000000000000000e-001) (107, 6, 5.00000000000000000000e-001) (107, 6, 5.00000000000000000000e-001) (107, 6, 5.00000000000000000000e-001) (107, 6, 5.00000000000000000000e-001) (107, 6, 5.00000000000000000000e-001) (107, 6, 5.00000000000000000000e-001) (107, 6, 5.00000000000000000000e-001) (107, 6, 5.00000000000000000000e-001) (0, 6, 0.00000000000000000000e+000) 
connections (connected_to_neuron, weight)=(0, -1.99660341074951620000e-001) (1, -1.31209412320578260000e-001) (2, -1.34908142844443630000e-001) (3, -1.75765077047009440000e-001) (4, -2.56001534166590610000e-001) (5, -2.27046455610126400000e-001) (6, -1.06532537798704130000e-001) (7, -9.50213071584234260000e-002) (8, -1.34352362432001850000e-001) (9, -2.45033516425029440000e-001) (10, -1.97755683689285010000e-001) (11, -2.72902169184054690000e-001) (12, -1.85133973670991880000e-001) (13, -1.26387634904978170000e-001) (14, -1.07491150248398590000e-001) (15, -1.45003357838624110000e-001) (16, -2.03737489573205870000e-001) (17, -2.72432558956216990000e-001) (18, -1.55153143991957700000e-001) (19, -2.66212715959374070000e-001) (20, -2.66871895656696610000e-001) (21, 1.12787558623355140000e-001) (22, 9.19245842980789370000e-001) (23, 1.87271800154971830000e-002) (24, -3.50053999951046190000e-001) (25, -4.05924702451331660000e-001) (26, -3.94443989389630600000e-001) (27, -9.45696469954431660000e-002) (28, -2.65492861587182440000e-001) (29, -1.72676698094739010000e-001) (30, -1.36226502239088720000e-001) (31, -2.66896670201850820000e-001) (32, -2.80953066895682450000e-001) (33, -1.91280611761101780000e-001) (34, -2.70805354233334910000e-001) (35, -1.10330736257886820000e-002) (36, 8.63628362439111670000e-001) (37, 5.17967079663767090000e-001) (38, 1.10797550951546970000e+000) (39, 1.43959673531747370000e+000) (40, 1.47177027908376610000e+000) (41, -2.07670577575545440000e-001) (42, 1.56360568153473960000e-001) (43, 9.36477147074598060000e-002) (44, -3.70424676817091070000e-001) (45, -1.98286689556572610000e-001) (46, -2.59609072437007150000e-001) (47, -1.03188171668654210000e-001) (48, -1.19526922757960580000e-001) (49, -2.64882580700608330000e-001) (50, 6.70844329423255360000e-002) (51, 9.97572337076772510000e-001) (52, 7.13174923144137910000e+000) (53, 1.27960816577698600000e+000) (54, 1.01683007581400920000e+000) (55, 9.38758598724159010000e-001) (56, 1.20145567488519390000e+000) (57, 8.05687327877673410000e-002) (58, -1.24199096373619080000e+000) (59, 1.08416705042900560000e-001) (60, 1.37531620984259330000e-001) (61, -3.37886825285962530000e-001) (62, -2.54377998986148050000e-001) (63, -2.41127626849112210000e-001) (64, -2.11128771895200550000e-001) (65, 1.90450046337300340000e-001) (66, 1.52433827942519300000e+000) (67, 3.10056790143051590000e+000) (68, 6.39648588183582830000e-001) (69, 7.10550968672991280000e-001) (70, 7.15045314208614720000e-001) (71, 9.04183769973952670000e-001) (72, 6.67671870826356150000e-001) (73, 7.36019989686985680000e-001) (74, -7.55983943744145680000e-001) (75, 1.53445750802901460000e+000) (76, 3.43470068029522070000e-001) (77, 6.93370398899558760000e-002) (78, -3.17552317894169210000e-001) (79, -1.78084052536779860000e-001) (80, -2.88063587494743530000e-001) (81, 1.90071628362911470000e-001) (82, 5.00434827213178780000e-001) (83, 1.98502727782021130000e-001) (84, 7.20023949143087870000e-001) (85, 3.86256128534330500000e-001) (86, 5.57145698840812220000e-001) (87, -1.00389426776372430000e-001) (88, 1.82200893997896050000e-001) (89, 4.91015241885844780000e-001) (90, 7.52992004242398980000e-001) (91, 2.18678230145268190000e-001) (92, -7.81846030969906010000e-002) (93, 2.36289446029684740000e-001) (94, -2.48814523901146200000e-001) (95, -9.82561704878766460000e-002) (96, -2.63482069362818650000e-001) (97, 9.33100476425084150000e-002) (98, 3.21056944957278210000e+000) (99, 8.35274638697018010000e-001) (100, -1.14212764281582050000e+000) (101, 1.77139694833154280000e-001) (102, 1.91873204670123200000e-001) (103, 4.77050118228001470000e-001) (104, -1.19554733429746960000e-001) (105, 7.73527470121532890000e-001) (106, 8.35586954944230300000e-001) (107, 4.12532300654793880000e-002) (108, -5.72037268208927750000e-001) (109, -6.08862434222403380000e-003) (110, 8.31192708187640930000e-002) (111, -2.49960848569164900000e-001) (112, -2.89968357372288820000e-001) (113, 5.18317243411416500000e-001) (114, -1.27131679811760980000e-002) (115, 1.75035730314259760000e-001) (116, 8.41218386847467300000e-001) (117, 3.05806381700268790000e+000) (118, -1.41577503163578160000e+000) (119, -4.31329202245044450000e-001) (120, -8.65488743149234810000e+000) (121, 2.81105165043086290000e+000) (122, 1.10711166636567350000e+000) (123, 1.16066038165760710000e+000) (124, 2.47483387820795570000e-001) (125, -1.84981824534693420000e-001) (126, -2.56881038494671190000e-002) (127, -9.85006715988050170000e-002) (128, -2.22649626327811350000e-001) (129, 8.91928488821401990000e-002) (130, 3.29420075384368670000e-002) (131, -4.08009188014469060000e-001) (132, -2.57383032233517110000e-001) (133, -1.56886856598434980000e+000) (134, -3.02232140904513060000e-001) (135, -2.57141546596125150000e-001) (136, -6.63672341343914510000e-001) (137, -3.19423829422726010000e-001) (138, 2.31110090429611640000e+000) (139, 2.03521695033475190000e+000) (140, 2.95616044577232120000e-001) (141, -4.30308686551227170000e-001) (142, -7.49715493938866020000e-002) (143, -1.47566834439322890000e-001) (144, -1.74416838901541190000e-001) (145, 8.27638635319951910000e-002) (146, -1.29934335001562400000e-001) (147, -5.32597937679771040000e-001) (148, -1.34039103083855450000e+000) (149, -1.38441579765041880000e+000) (150, 1.55036745391297470000e-001) (151, 3.24347297267127520000e-001) (152, -1.86360656724231350000e-001) (153, 9.46840239716527310000e-001) (154, 1.09292516702323720000e+000) (155, 4.41331229090888790000e-001) (156, -5.12567339583667620000e-001) (157, -2.07102640359234840000e-001) (158, -3.95434450069628090000e-002) (159, -2.67836251139816630000e-001) (160, -3.20058930915527450000e-001) (161, -2.79960691853800630000e-001) (162, 1.32222078274800910000e-002) (163, 1.36544419696129600000e-001) (164, -1.34217892479426130000e+000) (165, -1.21165067532600660000e+000) (166, -2.04960997170201160000e-001) (167, 7.47210388094061150000e-001) (168, 1.51340291035943760000e-001) (169, 5.40895227582095180000e-001) (170, 3.93091308696562170000e-001) (171, -3.54670092363546910000e-001) (172, -1.77330325580439170000e+000) (173, -1.13265035107960210000e-001) (174, -4.79762147266958390000e-002) (175, -9.62420103016133200000e-002) (176, -1.51368964248069030000e-001) (177, -2.46100181807232590000e-001) (178, -1.37449269685978110000e-002) (179, -7.41826313729131990000e-001) (180, -1.05094326051117950000e+000) (181, -1.01242934763181400000e+000) (182, -1.95236550670826460000e+000) (183, -2.09924347881006000000e+000) (184, 4.75611511472456450000e-001) (185, 9.94165202568153220000e-001) (186, 7.82633014675288010000e-001) (187, 1.41434110795099330000e+000) (188, -9.03547562487859170000e-002) (189, 4.93152140713652270000e-001) (190, 4.47789689671792060000e-001) (191, -2.03981269719553470000e-001) (192, -8.95952816869443470000e-002) (193, -2.37732841686672270000e-001) (194, 2.20827102840255900000e-002) (195, -1.28750644388802500000e+000) (196, -4.05815382134654350000e-001) (197, -4.43139136259838200000e-001) (198, -5.63907807900250970000e-001) (199, -2.09400726803691840000e-001) (200, 9.16928784301134500000e-002) (201, 9.32110063966458900000e-001) (202, 5.87303977644254900000e-001) (203, 8.80332721648543370000e-001) (204, 8.33754172269262180000e-001) (205, 8.67083108054962360000e-001) (206, 3.60443068197884130000e-001) (207, -2.73231759032715960000e-001) (208, -2.85786690860424130000e-001) (209, -3.35810235726264280000e-001) (210, 7.15822227403757340000e-002) (211, 1.25682373971050840000e-001) (212, 6.89308152829097960000e-001) (213, 6.97519107413154820000e-001) (214, 1.11775346944946420000e+000) (215, 4.50877869062949300000e-001) (216, -4.66503626892796790000e-001) (217, 3.74195044811391590000e+000) (218, 8.00085458099674910000e-001) (219, 1.15490896037923800000e+000) (220, 1.12043690623205870000e+000) (221, 1.16894777753230910000e+001) (222, 3.51373243843983220000e-001) (223, -2.71699776588012640000e-001) (224, -2.80537667344707480000e-001) (225, -3.65141010437357080000e-001) (226, 1.27333718591108420000e-001) (227, 2.53962640259861280000e+000) (228, 1.07440253813176260000e+000) (229, 6.93937945164814330000e-001) (230, 5.63608699212593490000e-001) (231, -2.89261464051363060000e+000) (232, -5.60500996288327520000e+000) (233, 1.28143417027628350000e+000) (234, 1.10425047121575950000e+000) (235, 7.00782857893595960000e-001) (236, 2.51594668308203720000e+000) (237, 4.24217956528103460000e+000) (238, 5.72660798022874280000e-001) (239, -2.28084413764128190000e-001) (240, -2.32795967414550800000e-001) (241, -2.25447334492547640000e-001) (242, 2.17146864846115420000e-001) (243, 1.09826481376969840000e+000) (244, 2.20179927916740730000e+000) (245, 1.11648649655743440000e+000) (246, 7.54432554012930630000e-001) (247, 2.59900450515895830000e-001) (248, 8.96099300377821930000e-001) (249, 1.45224886167633250000e+000) (250, 5.03225523473476710000e-001) (251, 9.77015987159717820000e-001) (252, 5.88307706463041980000e-001) (253, 3.45438665831571570000e-001) (254, -2.32512830620091120000e-001) (255, -2.05348817722216530000e-001) (256, -1.95314637885195600000e-001) (257, -2.56441347780429370000e-001) (258, -9.04561406017865550000e-002) (259, -3.51724782823688510000e-002) (260, 2.04115494152130950000e+000) (261, 1.08527557528855120000e+000) (262, 1.11211639592972510000e+000) (263, 4.61729879218692190000e-002) (264, 9.50434531177434930000e-001) (265, 7.08814708648385920000e-001) (266, -6.50005003319535040000e-001) (267, -3.57054377102412110000e-001) (268, 1.61891378306223870000e+000) (269, 2.04322788653280320000e-001) (270, -1.44278473947499990000e-001) (271, -2.78267519980664680000e-001) (272, -1.87898866290316990000e-001) (273, -1.43068543356668130000e-001) (274, -1.48897040383109500000e-001) (275, 9.25124842528019800000e-002) (276, 6.83219405517828120000e-001) (277, 1.46890738285563920000e+000) (278, 1.13958960635650190000e+000) (279, 1.19021496262303250000e+000) (280, 1.32817040020732930000e+000) (281, 6.08893029009900500000e-001) (282, 6.09728464878163230000e-001) (283, -1.78530003728215370000e-001) (284, -2.97002275239089060000e-001) (285, -2.92492079560726480000e-001) (286, -2.74202578513842330000e-001) (287, -1.06758728362484650000e-001) (288, -2.75014346104063610000e-001) (289, -1.62410584660512000000e-001) (290, -2.53902285242594390000e-001) (291, -2.27443184131663120000e-001) (292, -8.78849464295913400000e-002) (293, 2.10322544602058600000e-001) (294, 1.14887669431353270000e+000) (295, 4.80391284901547810000e-001) (296, 6.42747269597912510000e-001) (297, 4.89834561624306280000e-001) (298, 4.68206287817448940000e-002) (299, -1.91603700329898320000e-001) (300, -1.22853699305443430000e-001) (301, -1.57454529899161030000e-001) (302, -1.15993347640716230000e-001) (303, -1.11269226476571340000e-001) (304, -2.39052431505689390000e-001) (305, -2.36049501773442250000e-001) (306, -2.40425722541778020000e-001) (307, -1.31947937722208140000e-001) (308, -1.71248475417206840000e-001) (309, -1.28218689619763020000e-001) (310, -2.83168643100572100000e-001) (311, -9.37169497565744910000e-002) (312, -1.16849274320023010000e-001) (313, -2.59744784261831900000e-001) (314, -2.83731601025513310000e-001) (315, -2.85098788545885990000e-001) (316, -2.66965243353800120000e-001) (317, -2.41182558490555750000e-001) (318, -1.86134950248407590000e-001) (319, -2.47792666010928920000e-001) (320, 6.35170521249448730000e-001) (0, 2.11563536634545380000e-001) (1, 3.88950770303349500000e-002) (2, 5.03391689977402070000e-002) (3, 5.16209072980895950000e-002) (4, 9.32041598708532870000e-002) (5, 7.54246185902925080000e-002) (6, 1.78067442385414690000e-001) (7, 1.11606259754440940000e-001) (8, 1.18509336029179790000e-001) (9, 1.79422422874355470000e-001) (10, 1.39212461337680370000e-001) (11, 1.70035215703225190000e-001) (12, 3.35911218731748530000e-002) (13, 2.14999815982624940000e-001) (14, 1.34152646809158250000e-001) (15, 1.47781797402873420000e-001) (16, 2.09927794422670930000e-001) (17, 1.65481992979126890000e-001) (18, 2.19632384411030580000e-001) (19, 1.54385801407530800000e-001) (20, 1.55294702938368170000e-001) (21, 1.24963285247478810000e-001) (22, 1.46540547317076830000e-001) (23, 2.30636089006929260000e-002) (24, 9.54712768041748700000e-003) (25, 3.89782804627258620000e-002) (26, 1.80069364231338240000e-001) (27, 9.62009860873844770000e-002) (28, 1.97824522757943130000e-001) (29, 6.44504973330153470000e-002) (30, 4.83982510000682610000e-002) (31, 1.50040098217774780000e-001) (32, 1.69730039917427720000e-001) (33, 1.81656309626392980000e-001) (34, 9.51863777205228660000e-003) (35, 4.47502596509936290000e-003) (36, 5.27121521620831990000e-002) (37, -4.03599025718978030000e-002) (38, -1.73839084594420710000e-001) (39, -3.31892633745871470000e-001) (40, -3.85746588064052880000e-001) (41, 1.37038487920900070000e-001) (42, -1.39109632356329820000e-002) (43, 6.21994553753195470000e-002) (44, 7.91448314939630430000e-003) (45, 4.38938564016975660000e-002) (46, 1.99350401686930500000e-001) (47, 6.22105070652619120000e-002) (48, 3.97251551677040780000e-002) (49, 1.98068770565430070000e-002) (50, 9.88863148849844500000e-002) (51, 7.47394747698775230000e-002) (52, -3.17367558835759570000e-001) (53, 2.37098143339954130000e-001) (54, 3.31715152129332170000e-001) (55, 3.25875058276085430000e-001) (56, -3.86804223767994610000e-001) (57, -4.74253050644460050000e-001) (58, -1.82642939917181890000e-001) (59, 2.37798245826348600000e-003) (60, 9.95231871893487020000e-002) (61, 1.74442597674390330000e-001) (62, 1.17959988305836470000e-001) (63, 1.85117003037336330000e-001) (64, 4.68842094824879900000e-002) (65, -6.21012222794950150000e-003) (66, 3.15796113225254170000e-002) (67, 1.90979826294882040000e-002) (68, 3.43120007305531490000e-001) (69, 4.07695434200695870000e-001) (70, 8.28847888551636490000e-002) (71, 1.92795210709933050000e-001) (72, 3.32565424100710470000e-002) (73, -6.94829892978288120000e-001) (74, 5.74261743678155800000e-002) (75, -4.53560026302122280000e-001) (76, -4.34352693553089410000e-002) (77, 1.47403568504603570000e-001) (78, 1.86555070535687350000e-001) (79, 5.12058682294050310000e-002) (80, 1.02961175170638600000e-001) (81, 1.44080438534218880000e-002) (82, -6.42999491535927860000e-002) (83, 7.90326935627863160000e-001) (84, 2.02549226405520470000e+000) (85, 1.28531577193279790000e-001) (86, -1.05995615032665350000e+000) (87, -1.66552955351510530000e+000) (88, -6.95653749939012190000e-001) (89, -1.34366145345842080000e+000) (90, 2.00295017608566080000e-001) (91, 4.78877294313420280000e-003) (92, 1.70765454549226370000e-001) (93, 1.09508773770208690000e-001) (94, 1.41291397986206070000e-001) (95, 1.49570127507646670000e-001) (96, 1.21705071934319430000e-001) (97, 2.74830484834022030000e-002) (98, 1.07441944930389010000e+000) (99, 4.33423387018504580000e-001) (100, 1.38913653198150720000e-001) (101, 5.46326051959791450000e-001) (102, 4.95646636645480310000e-001) (103, 3.14342298798513890000e-001) (104, -3.20088592489847500000e-001) (105, -3.65232732765698230000e-001) (106, -4.58232662841310810000e-001) (107, 9.47002036330275510000e-003) (108, 1.33470704069727970000e-001) (109, 1.35020082536805670000e-001) (110, 1.76697892654428950000e-001) (111, 5.09434170536192040000e-002) (112, 9.63632746816972250000e-002) (113, 1.81048364177534950000e-001) (114, 1.68296717994622250000e+000) (115, 6.93012247901715340000e-001) (116, 4.17847043555416020000e-001) (117, 5.04196457336741450000e-001) (118, 6.09336698978206190000e-001) (119, -1.05875471619473790000e-001) (120, -6.66252371809176180000e-002) (121, 1.18235934294229650000e+000) (122, -4.74375968773379290000e-001) (123, 4.30959448165278590000e-001) (124, 1.19409692689217280000e+000) (125, 1.34718369718407590000e-001) (126, 9.88476661204741450000e-002) (127, 1.32700010068762280000e-001) (128, 5.18646783067027720000e-002) (129, 1.13427661779239800000e-001) (130, 4.46902132360319120000e-001) (131, 2.35733149094809800000e+000) (132, 5.57711089755322460000e-001) (133, 6.42503095191587990000e-001) (134, 2.31152491790198940000e+000) (135, 3.67800301485418040000e-001) (136, -4.06598681620847950000e-001) (137, -9.73701050512831570000e-002) (138, 6.04225397038755320000e-002) (139, 5.28486208841530520000e-001) (140, 1.16010292684686260000e+000) (141, -2.29520985849277540000e-003) (142, -3.60766522963047870000e-002) (143, 1.03860898310901060000e-001) (144, 1.42636533654328020000e-001) (145, 1.30958063366635100000e-001) (146, 3.73537581257999910000e-001) (147, 1.97399401101375330000e+000) (148, 4.87274964153495250000e-001) (149, 5.82271577181760810000e-001) (150, 7.16837981528535620000e-001) (151, 1.18167677465275900000e+000) (152, 5.28931139343187140000e-001) (153, 1.38774795329573820000e-001) (154, 1.39479318491504830000e-001) (155, 5.13996152209227340000e-001) (156, -6.83765054985221890000e-001) (157, 9.20753753447664800000e-002) (158, -1.80956949971176690000e-002) (159, 1.30069394795188060000e-001) (160, 2.25107238008237260000e-001) (161, 1.90446047190517720000e-001) (162, 5.06994056240676820000e-002) (163, 1.23823559998478160000e+000) (164, 6.92203018079767810000e-001) (165, 3.90268529299647780000e-001) (166, 4.44041443006742250000e-001) (167, 5.53911237913967510000e-003) (168, -1.92920072644159470000e-001) (169, 1.01004639753009870000e-001) (170, 5.49134006406295840000e-001) (171, 5.33527533182963310000e-001) (172, 4.09147461343649710000e-001) (173, 1.60243113175911470000e-001) (174, -3.50865529336154000000e-002) (175, 1.57990648293951760000e-001) (176, 1.90463682804508070000e-001) (177, 4.16575249265784330000e-002) (178, 2.01805609896266390000e-001) (179, 8.90892014704153250000e-001) (180, 1.95243201443766430000e+000) (181, 4.74629533536452930000e-001) (182, 2.35452933715933620000e-001) (183, -6.86375208249327270000e-002) (184, 6.62243496283390350000e-002) (185, -3.25763035043422060000e+000) (186, 7.22786928715587810000e-001) (187, 8.40852852979481650000e-001) (188, 5.68219855863155600000e-001) (189, 1.15092525001175190000e+000) (190, 8.43557590547141380000e-002) (191, 2.19920798022577720000e-002) (192, 2.08151671349329630000e-001) (193, 1.74050351370794910000e-001) (194, 1.25705595738984020000e-001) (195, 2.35487538651574590000e+000) (196, 2.08411501684883850000e+000) (197, 1.18477205145446600000e+000) (198, 1.26141211410880330000e+000) (199, 4.31609522966409200000e-001) (200, -2.24033207378572050000e-001) (201, -1.54796062500891480000e+000) (202, 1.38367006037117470000e+000) (203, 1.42870678109120770000e+000) (204, 6.05842922509966520000e-001) (205, 1.97362812061079570000e+000) (206, 2.74353241513957120000e-002) (207, 6.95568090855598620000e-002) (208, 1.52682920522780900000e-001) (209, 1.61727353140292990000e-001) (210, 2.13134317750858950000e-001) (211, 2.66407518000399790000e+000) (212, 8.37729054910211990000e-001) (213, 5.12251446978850500000e-001) (214, 1.59944900951595880000e+000) (215, 3.25946822421592180000e-001) (216, -3.04652387647377290000e-001) (217, 3.02537210360510120000e-001) (218, 1.14029096763972500000e+000) (219, 1.18511733220901740000e+000) (220, 7.36584915620612570000e-001) (221, 4.82799782886647650000e-001) (222, 4.25812554206182190000e-002) (223, 8.03539283870744750000e-002) (224, 2.28659484154919850000e-001) (225, 2.01493087916170270000e-001) (226, 1.35531007318292350000e-001) (227, 8.03412009213730350000e-001) (228, 6.16511175629344770000e-001) (229, 6.10311946431038250000e-001) (230, 3.08869417867494790000e-002) (231, 1.48096044433739670000e-001) (232, 2.84340573739449760000e-001) (233, -4.91122614761482060000e-001) (234, 6.84625467367756530000e-001) (235, 6.80369794513087430000e-001) (236, 3.44109638241019980000e-001) (237, 5.79784578075581700000e-001) (238, 1.60361410497054050000e-001) (239, 1.99734923177035310000e-001) (240, 1.95755430930236260000e-001) (241, 2.17325255470401680000e-001) (242, 7.07530769499573190000e-002) (243, 5.12804057686571450000e-001) (244, 3.79144160449664150000e-001) (245, 4.66349966128257130000e-001) (246, 3.97849932933057260000e-001) (247, 7.01774164995747770000e-002) (248, 1.37943655128943470000e-001) (249, 1.53947049718599380000e-001) (250, 4.97541473556021190000e-001) (251, 4.62032454120936080000e-001) (252, -2.69279685892729190000e-002) (253, 9.34243403934887360000e-001) (254, 3.70651487936801140000e-002) (255, 1.56912656913933880000e-001) (256, 1.93716856681109130000e-001) (257, 2.10245177239900300000e-001) (258, 1.46073578926279450000e-001) (259, -2.38521882873034480000e-002) (260, 4.00647616336972820000e-001) (261, -8.79683484072007680000e-003) (262, 1.20158836373174520000e-001) (263, -8.85642220843104770000e-003) (264, -6.05156645518417150000e-002) (265, 2.61596238129051920000e-001) (266, 2.88943267281992270000e-001) (267, 4.82625737572799420000e-001) (268, -4.52121636152396510000e-003) (269, 1.13170721719484280000e-001) (270, 1.65103543695830140000e-001) (271, 2.14676329649679610000e-001) (272, 1.67374082851071220000e-001) (273, 1.43741269998914870000e-001) (274, 1.37671053210015710000e-001) (275, -2.21593877137046290000e-002) (276, 1.33954201260522900000e-001) (277, -7.67542234546870480000e-002) (278, 9.67987940846912890000e-003) (279, 1.98339459487163060000e-002) (280, 1.83763419221074390000e-001) (281, 7.78492152257169450000e-002) (282, 9.06815400722407180000e-002) (283, -2.75975929115053230000e-002) (284, 2.64415429753529670000e-002) (285, 1.05821991950505610000e-001) (286, 9.86790134680599620000e-002) (287, 9.18003512561849090000e-002) (288, 9.16477633632861720000e-002) (289, 9.93442966810984540000e-002) (290, 9.92160915421556460000e-002) (291, 9.01223277613844540000e-003) (292, 1.10831500154394220000e-001) (293, -1.99727488104149280000e-002) (294, 1.13589684244706720000e-001) (295, 8.33716373509533480000e-002) (296, 1.98949519902829260000e-002) (297, 8.72910084835877560000e-002) (298, -5.60514687715145820000e-002) (299, 7.19127348430084610000e-002) (300, 1.64173478405300640000e-001) (301, 1.37002957339598800000e-001) (302, 2.11490294445953990000e-001) (303, 8.86997652724826060000e-002) (304, 1.96506163363298040000e-001) (305, 1.93332335191004320000e-001) (306, 1.26401181849902460000e-001) (307, 2.03732725970982210000e-001) (308, 1.00638242012879740000e-001) (309, 2.68650162452906400000e-002) (310, 9.87339138005956380000e-002) (311, 1.11481438823223340000e-001) (312, 1.08594475889579210000e-001) (313, 1.20032464341268500000e-001) (314, 7.40146751510002840000e-002) (315, 3.39695085386558310000e-002) (316, 7.87266205926211720000e-002) (317, 1.17117734445943310000e-001) (318, 1.07437558520447450000e-001) (319, 2.12448546413358060000e-001) (320, 2.36381497166411190000e-001) (0, 2.77186553877047690000e-002) (1, 5.60511753411421930000e-002) (2, 8.92481973201913750000e-002) (3, -3.76988260558416830000e-002) (4, 1.43447416877822670000e-001) (5, 1.44295805562339650000e-001) (6, -2.67613258928601950000e-002) (7, 9.88917521513915100000e-002) (8, 6.36927770175109290000e-002) (9, 1.06417387029157210000e-001) (10, -2.03587379068292070000e-002) (11, 1.74281278906139660000e-002) (12, 4.68165560629106440000e-002) (13, 8.49879433504586170000e-002) (14, 2.76881378091250220000e-002) (15, 1.92958036996945010000e-002) (16, 1.11428373431951720000e-001) (17, -4.40769999790088520000e-002) (18, -5.58212635851553650000e-003) (19, 5.89930699162298370000e-002) (20, 1.37081449986087370000e-001) (21, 1.63177793975656040000e-001) (22, 8.95716455185435470000e-002) (23, 9.52146987591377670000e-003) (24, 1.40139273225184960000e-001) (25, -9.14524293302838160000e-003) (26, 1.33927743336560070000e-001) (27, 4.15003938743186560000e-002) (28, 1.26510160766062860000e-001) (29, 7.92201209988863950000e-002) (30, 7.78712440256615620000e-002) (31, -2.83604470104389590000e-002) (32, 1.40999907075726930000e-001) (33, 2.14442412317087210000e-002) (34, 1.04809873184031180000e-001) (35, -8.75338543446224910000e-002) (36, -1.49790329235268830000e-001) (37, -7.67762043115056280000e-002) (38, 1.91778236729126180000e-002) (39, 9.11115054316514460000e-002) (40, 1.23570592464503760000e-001) (41, -4.84503310089371070000e-002) (42, -9.11989089015211720000e-002) (43, -3.85283050600787320000e-002) (44, -6.36707224197773370000e-002) (45, 4.79191415243753610000e-002) (46, -3.40733377205676840000e-002) (47, 7.53077674249627850000e-002) (48, 2.17799345960859420000e-002) (49, 1.13198271518460290000e-001) (50, 6.57010925839631300000e-002) (51, 8.86074700700247020000e-003) (52, -1.30156126781046180000e-001) (53, 2.24186627985948960000e-001) (54, 1.81163472731733430000e-003) (55, 1.34051380184183740000e+000) (56, 1.66874477771324110000e+000) (57, 1.38757799244078740000e+000) (58, -1.66713889160972790000e-001) (59, -8.47405814824231160000e-001) (60, -1.01182957726710790000e-001) (61, 7.11308117921312100000e-002) (62, -1.74043608955730780000e-002) (63, 1.06776395087738520000e-002) (64, 1.14278593800183350000e-001) (65, 1.42749326874373170000e-001) (66, 7.09257020368158630000e-002) (67, 4.57464725514842570000e-002) (68, -1.15393468564396920000e-002) (69, -4.83996353776658950000e+000) (70, 3.64038103996118690000e-001) (71, 2.38936034239339760000e-001) (72, 3.22549206189100380000e-001) (73, 8.04438411682984690000e-001) (74, -1.80117222841014860000e+000) (75, 8.85825939623661960000e-001) (76, 6.60517200545866590000e-004) (77, 8.17590603009550050000e-002) (78, 1.28909117847167580000e-001) (79, 6.31983922445190220000e-002) (80, -5.95673002901976610000e-003) (81, 3.19972387808151530000e-002) (82, 6.08500832697861160000e-002) (83, 2.70042086972320750000e+000) (84, 5.40569903775152570000e-001) (85, 2.72097932643681210000e-001) (86, -8.51112651967126650000e-002) (87, 4.99885859232004830000e-002) (88, 1.42510960290845870000e-001) (89, 2.93395124714944780000e-001) (90, 4.81012477593966080000e-002) (91, 4.17656779012641140000e-001) (92, 2.48060915703395560000e-001) (93, 8.42290814084525610000e-002) (94, 8.55619838368449070000e-002) (95, 1.48409575154889590000e-001) (96, 8.32278416124338780000e-002) (97, 2.02764446415115180000e-001) (98, 1.17186970663240180000e+000) (99, 2.33228745962455090000e+000) (100, 1.06162882775758490000e+000) (101, 5.16907766928987540000e-001) (102, 3.32043188728114020000e+000) (103, -1.38719552261458330000e+000) (104, 9.78106157634433760000e-001) (105, 3.26194579712055450000e-001) (106, 3.07988857012109210000e-001) (107, -3.02529492881763230000e+000) (108, 1.40627830177378410000e-002) (109, 4.21998791425598350000e-002) (110, 1.02761691124390510000e-001) (111, 4.40275247854583360000e-002) (112, 7.55349549545571430000e-002) (113, 6.84044996183055120000e-002) (114, 3.77571663919930470000e-001) (115, 3.65234030450571900000e+000) (116, 1.64231915916770220000e+000) (117, 6.89596770626990100000e+000) (118, 7.87158251137888840000e-002) (119, -6.03294149109772420000e-001) (120, -9.91053137977460970000e-001) (121, 5.35311697770755930000e-001) (122, 4.70384298886179610000e-001) (123, 5.62385519783892620000e-001) (124, 3.14781065401868560000e-001) (125, -2.30454603306731630000e-002) (126, 1.72903964939796260000e-001) (127, -1.34736967745016250000e-002) (128, 6.01587199468594310000e-002) (129, 8.39233535281148390000e-003) (130, 7.14826771615618830000e-002) (131, 4.11665857616150540000e-001) (132, 1.37312748927538150000e+000) (133, 2.79970090846801420000e+000) (134, 1.20065699516418390000e+000) (135, -2.12951878503244600000e-001) (136, -2.34509759405611000000e-001) (137, 3.14760430791775960000e-001) (138, 3.36035213268072340000e-001) (139, 8.66535103105541940000e-001) (140, -5.11724039509064530000e-001) (141, 1.05191409299347700000e-001) (142, -3.81179679180317960000e-003) (143, 1.38784606275573820000e-001) (144, -3.79063455901839650000e-002) (145, 1.41737103308713780000e-001) (146, -1.89485989431432860000e-002) (147, -1.88686127676984960000e+000) (148, -1.52110498679832680000e+001) (149, 1.72870448962151600000e+000) (150, 8.11209263686504120000e+000) (151, 1.48587767741822160000e+000) (152, 4.81964426206644260000e-001) (153, -4.70556784241202560000e-002) (154, 4.24913205671764990000e-001) (155, 8.10675957887573070000e-001) (156, -3.48372884687568800000e+000) (157, -1.09006939234663690000e-001) (158, -2.56552724881703270000e-002) (159, -2.04686011897162980000e-002) (160, 1.21535795457564040000e-001) (161, -4.98923333962056760000e-002) (162, -4.13233189151626170000e-002) (163, -3.77704606413898070000e+000) (164, -5.14213519335829970000e+000) (165, 9.30998531355930250000e-001) (166, 4.10686165769224500000e+000) (167, -1.36077935535305230000e+000) (168, -1.13911702998735540000e-001) (169, 2.05164950473036400000e-001) (170, 3.71475658940403960000e-001) (171, 4.22288619732594290000e-001) (172, -2.72620073923655460000e+000) (173, -4.57266167145043350000e-002) (174, -9.59568759975797800000e-003) (175, -3.60813943911150740000e-002) (176, 2.65711944331062690000e-002) (177, -2.55148916267034890000e-002) (178, 8.18412684826029800000e-002) (179, -4.21537130321335510000e+000) (180, -8.56892851865293850000e-001) (181, 8.88927230292461790000e-001) (182, -1.30879440454953850000e+000) (183, -1.66420432877513110000e+000) (184, -8.02148710958250020000e-001) (185, 1.53711088232210410000e-001) (186, 4.43043435557178620000e-001) (187, 1.27506037512412500000e+000) (188, -1.86740591492426280000e-001) (189, 1.58217751286362670000e-001) (190, 3.97697596611215830000e-002) (191, 1.05831449520426060000e-001) (192, 2.04432646542930040000e-002) (193, -5.19309076453327720000e-002) (194, 9.45211158316738020000e-002) (195, 3.41380411161197050000e-002) (196, 5.37817876555056620000e+000) (197, 5.53431222260546820000e+000) (198, -1.00729749379652400000e+000) (199, -3.50424705340940350000e+000) (200, -2.62984846763736350000e+000) (201, -9.17327694144100650000e+000) (202, -8.57922992184412670000e-002) (203, 9.84497105042322910000e-001) (204, 4.74560843513577080000e+000) (205, 4.23518630246620820000e+000) (206, 6.92663006717275510000e-002) (207, 3.13563507544106500000e-002) (208, 3.11671417672162200000e-002) (209, 7.34060822526144550000e-002) (210, -5.24055346811473230000e-002) (211, 2.61217729353096840000e-001) (212, 2.84160382606939880000e+000) (213, 2.16772782414776670000e+000) (214, 5.56185701331513790000e-001) (215, -1.32687840518128450000e+000) (216, -3.71436811356270980000e+000) (217, -1.04964202397396720000e+000) (218, 1.02035292428019920000e+000) (219, 1.22236985019981080000e+000) (220, 6.22160000591290400000e-001) (221, 3.56025598205584770000e-001) (222, 1.21959080330710750000e-001) (223, -3.34823960647803120000e-003) (224, 9.65052775064552670000e-002) (225, 3.67719801700764700000e-002) (226, 8.16536948068198320000e-002) (227, 1.42355369788943790000e+000) (228, 1.73636134701878040000e+000) (229, 1.23030227769486270000e+000) (230, -1.30474706727207890000e+000) (231, -3.49768131213732510000e-001) (232, -1.93024837036396150000e+000) (233, 1.82686367659787800000e-001) (234, 1.44080746401144630000e+000) (235, 1.43568778722916400000e+000) (236, 6.65154045853554640000e-001) (237, 2.49836451004126350000e-001) (238, 2.35916662855262280000e-002) (239, 1.20059020059040840000e-001) (240, 8.90162637229852950000e-002) (241, 1.75595185019793040000e-001) (242, -5.30720925539300650000e-003) (243, 3.58031878037291750000e-001) (244, 1.88396719215307140000e+000) (245, 1.27050125341697110000e+000) (246, 1.28421284089571050000e+000) (247, 1.36063956115551440000e+000) (248, 2.06778602895229650000e+000) (249, 2.02123191000964830000e+000) (250, 9.36645748538365130000e-001) (251, 1.15986836207128090000e+000) (252, 1.05460207873877750000e+000) (253, 1.84800395894168350000e-002) (254, 2.34408682741290950000e-002) (255, -2.84397927147463020000e-002) (256, 4.09876985541789000000e-002) (257, 1.01321780335435750000e-001) (258, 1.10209189294220770000e-001) (259, -1.66737049359404860000e-002) (260, 2.09156649172173140000e-001) (261, 8.84425391489929380000e-001) (262, 1.63965966672338270000e+000) (263, 9.53893119339735640000e-001) (264, 2.53718505219318000000e+000) (265, 6.54034595352983310000e-002) (266, -1.40138634929735350000e+000) (267, 6.96465751889513760000e-001) (268, 1.38246932363949580000e-001) (269, -7.37820335652300120000e-002) (270, -2.68215321209233950000e-002) (271, 6.88868688917839420000e-002) (272, 6.95033239790948390000e-002) (273, -1.38768042164908630000e-002) (274, 9.62116651415036990000e-002) (275, 9.41130093548901150000e-002) (276, -3.94895751997078460000e-002) (277, 1.75154200141991820000e-001) (278, 2.34138576020927520000e-001) (279, 2.00375303088529220000e+000) (280, 1.92892998140672270000e+000) (281, 1.91302330325208710000e-001) (282, 1.85578480233041410000e-001) (283, 4.75017391202120570000e-002) (284, 8.00217540170388990000e-002) (285, -4.65603019463039640000e-002) (286, 1.00765531476188000000e-001) (287, 3.13990753644222960000e-002) (288, 1.01394193594930790000e-001) (289, 1.46242827075727530000e-001) (290, 2.56251494971341010000e-002) (291, 1.15717735209043840000e-001) (292, 6.19804721726203290000e-002) (293, 9.03805132842556700000e-002) (294, -4.53860903013243310000e-002) (295, 8.20076987183449010000e-002) (296, -8.45084170441885160000e-002) (297, -5.70972359936997780000e-002) (298, -2.08330011570546400000e-002) (299, 9.19960964524716430000e-002) (300, 2.95801062099525810000e-002) (301, 1.26430815061755520000e-001) (302, -1.66844214458276190000e-002) (303, 4.06459016740857300000e-002) (304, -1.73691145746737110000e-003) (305, -4.09897203953981610000e-003) (306, 1.13668363699705180000e-001) (307, -3.81932108288335900000e-002) (308, 1.17884483288205900000e-001) (309, -1.85351964789806540000e-002) (310, 1.38612022659570320000e-001) (311, 3.66649996560663370000e-002) (312, 1.10924307631308960000e-001) (313, -1.62158605069198690000e-002) (314, 6.63539098696649120000e-002) (315, 3.24966088246334690000e-003) (316, 8.74110390896905840000e-002) (317, -3.87974588847125880000e-002) (318, 2.84815948521984530000e-002) (319, 5.82423374831680520000e-002) (320, 3.53289220526589730000e-001) (0, 2.71838818763639800000e-001) (1, 1.04114206889348350000e-001) (2, 1.75909862256061890000e-001) (3, 2.47900830125685980000e-001) (4, 8.99662574597774740000e-002) (5, 1.29028758041854040000e-001) (6, 1.98029003210662830000e-001) (7, 8.66642554574488110000e-002) (8, 2.71240674223476750000e-001) (9, 2.53833447401588860000e-001) (10, 1.33716258111703230000e-001) (11, 2.01245555992968200000e-001) (12, 2.06714306074458930000e-001) (13, 7.73747045377737170000e-002) (14, 1.70514354363162560000e-001) (15, 1.76782665003442670000e-001) (16, 1.97699413362001560000e-001) (17, 2.25458202838139750000e-001) (18, 1.41663035573869440000e-001) (19, 8.16288549917904980000e-002) (20, 2.32540864680377190000e-001) (21, 7.06637371863710060000e-002) (22, 2.04379063598227710000e-002) (23, 3.94974296390103190000e-003) (24, 1.05799109715949890000e-001) (25, 1.35257319833915840000e-003) (26, -1.07154904381571110000e-002) (27, 7.95107465896601330000e-002) (28, 4.10647010948943510000e-002) (29, 2.68945752314279750000e-001) (30, 1.35028513990632370000e-001) (31, 2.60864697506362650000e-001) (32, 2.26636181371318000000e-001) (33, 2.52899609497048590000e-001) (34, 1.41114051648433520000e-001) (35, 7.17252279832508580000e-002) (36, 2.30021719010516460000e-001) (37, 6.62277712572965220000e-002) (38, 1.72997087786262520000e-001) (39, -4.03248265274800890000e-002) (40, 1.09583512433469570000e-001) (41, -1.46476966800266120000e-001) (42, 1.53880262052688590000e-001) (43, 3.82239855901274490000e-002) (44, 8.08330191322267490000e-002) (45, 8.25932104749105140000e-002) (46, 1.23254832174565900000e-001) (47, 1.03992136575029360000e-001) (48, 1.87909374153618550000e-001) (49, 1.27520734639957060000e-001) (50, 3.82723792818271400000e-002) (51, 2.44557427126132650000e-001) (52, -3.26192951948173750000e+000) (53, -1.09482562938546630000e+000) (54, -3.45173759387044420000e-001) (55, -4.65845937060260840000e-001) (56, -1.35319875464886570000e+000) (57, -1.16290163271082280000e+000) (58, 3.13917021831686740000e-001) (59, 2.68076438395392640000e-001) (60, 3.21749749612767960000e-002) (61, 1.03134448674905320000e-001) (62, 2.67126904630926810000e-001) (63, 1.16602000044180960000e-001) (64, 2.31464062302634030000e-001) (65, 1.10878372074264940000e-001) (66, 1.86100558218063120000e-001) (67, -1.15300819351032110000e+000) (68, -3.35029730763776310000e+000) (69, -4.98401647834708580000e-001) (70, -4.27065079255069470000e-002) (71, 2.17480440722821660000e-001) (72, 4.67523262332391960000e-002) (73, -7.22468672737565990000e-001) (74, 2.60784446207083690000e-001) (75, 3.21084231225047030000e+000) (76, 2.49330878732736600000e-001) (77, 3.38765694518543990000e-001) (78, 1.01003261226582040000e-001) (79, 1.93878612523817190000e-001) (80, 2.25561507585253450000e-001) (81, 3.36637290231210380000e-003) (82, 1.21521044796219630000e-001) (83, -6.69241762649111280000e-001) (84, -3.44303109572753250000e+000) (85, -1.19481093005176130000e+000) (86, 1.18357652161306950000e-001) (87, 3.07081306139090000000e-002) (88, 9.33752989331710780000e-002) (89, -4.31607879480977800000e-002) (90, -5.92707650731105430000e-001) (91, 4.63588386632962150000e-001) (92, 2.89269381339930690000e-001) (93, 2.72673922108264130000e-001) (94, -2.03170243772944840000e-003) (95, 2.40802441348036720000e-001) (96, 9.13818180858203130000e-002) (97, -5.60086279824443260000e-002) (98, 1.57598411573620920000e-001) (99, -5.88730055727410990000e-001) (100, -4.00076260122029570000e-001) (101, -3.24556643816110020000e-002) (102, 1.32877033263084640000e+000) (103, 8.57672316971426980000e-001) (104, 9.64876581209946460000e-001) (105, 9.16809554357434910000e-002) (106, -5.28964938347178480000e+000) (107, -5.87270320074675060000e-001) (108, -7.02585927787045090000e-001) (109, 1.80400971514540100000e-001) (110, -2.37907359650893110000e-002) (111, 9.70829567845745560000e-002) (112, 6.35864075153864120000e-002) (113, 1.22729767874945560000e-001) (114, 1.14510672685735910000e-001) (115, -6.86270880769568880000e-001) (116, -5.22015257159455070000e-001) (117, -1.03465012421060990000e+000) (118, 3.87905570575010740000e-001) (119, 1.00880401797377270000e+000) (120, 3.56334636259038450000e+000) (121, 2.70888883871056810000e-001) (122, -1.61350017615863870000e+000) (123, -1.11944440288636370000e+000) (124, -6.30759020500310960000e-001) (125, 2.04958319477783950000e-001) (126, 1.38642127783473980000e-001) (127, 2.62219677995303440000e-001) (128, 2.52344189566897190000e-001) (129, -3.44876315680064940000e-002) (130, 1.68209403954659330000e-001) (131, -5.16315920639720320000e-001) (132, -8.93341211361993960000e-001) (133, -8.06522516742265160000e-001) (134, 3.95992062097566040000e-001) (135, 2.63142166507166400000e+000) (136, 3.45877656773176900000e+000) (137, 5.74935180227643560000e-001) (138, -2.66344110554686260000e-001) (139, -9.88148857971601460000e-001) (140, -2.30880471375131100000e-001) (141, 2.21751739411907040000e-001) (142, -8.07266813315099010000e-003) (143, 2.20477734013924980000e-001) (144, 1.31317576435335090000e-001) (145, -9.03243496392349200000e-003) (146, 1.37450706195271670000e-001) (147, 7.32552792417595770000e-002) (148, -5.27761411135159730000e-001) (149, -5.94868533486119340000e-001) (150, -5.18077451792874570000e-001) (151, 9.87283673198993680000e-001) (152, 4.73352865390926470000e-001) (153, 3.60815146616325240000e-001) (154, -4.65471147280186460000e-002) (155, -6.33393624538073240000e-001) (156, -5.60694674125782670000e-001) (157, 9.71629050463125170000e-002) (158, 2.22350763941414480000e-001) (159, 1.65875682419040970000e-001) (160, 1.27087840044182110000e-001) (161, 6.49131727981727830000e-002) (162, 2.43014092569336090000e-001) (163, 1.73385034710370030000e-001) (164, -5.25807253160151090000e-001) (165, -8.17103621709736490000e-001) (166, -9.63885940754011660000e-002) (167, 8.01322916608275370000e+000) (168, 3.81061257039648720000e-001) (169, 2.42983015573566640000e-001) (170, 1.21491025076699760000e-001) (171, -9.34395435681434350000e-002) (172, -4.31590224943678550000e-001) (173, 1.32874538958981440000e-001) (174, 1.26641533999610870000e-001) (175, 1.27209910358501100000e-001) (176, 1.34534129217640460000e-001) (177, 2.60703987818703580000e-002) (178, 3.01397756460966340000e-001) (179, 3.01428544261295450000e-001) (180, -5.06039099837980120000e-001) (181, -1.19701701356980080000e+000) (182, 6.14911266234045780000e-002) (183, 1.58372484233040910000e+000) (184, 7.91080580714073390000e-001) (185, 1.11549458361072840000e+000) (186, 8.78587951385917110000e-002) (187, 2.25866235580571590000e-001) (188, -2.39323663327448120000e-001) (189, 1.76143239595347030000e-001) (190, 1.24914239051997140000e-001) (191, 9.30241188334681580000e-002) (192, 1.69238719578529120000e-001) (193, 8.37062581698716080000e-002) (194, 1.72345020162930850000e-001) (195, 3.76666592770742660000e-001) (196, -8.54905253959084230000e-001) (197, -8.33328702419992020000e-001) (198, 3.63230751671606840000e-001) (199, 2.03671456981856870000e+000) (200, 3.17659242595106850000e+000) (201, 3.02869565583591170000e+000) (202, 1.85634475737017970000e-001) (203, 2.28368677024110870000e-001) (204, -1.92558557336086650000e-001) (205, 1.35292408908497220000e-001) (206, 1.29018369060257400000e-001) (207, 1.36652049171074930000e-001) (208, 1.92493114456296660000e-001) (209, 9.36543674960704610000e-003) (210, 2.37300476007148570000e-001) (211, 3.95376189991864800000e-001) (212, -8.39337331862597510000e-001) (213, 1.05263709292698100000e-001) (214, -5.19319472000377540000e-001) (215, 1.00260017087883460000e+000) (216, 9.59887570206222840000e-001) (217, 4.76113975240008480000e-001) (218, 1.18560524898713880000e-001) (219, 2.30669065245676620000e-001) (220, -8.27974122941803340000e-002) (221, 3.19426021081866300000e-001) (222, 3.46406313170790010000e-001) (223, 1.41174754316593490000e-001) (224, 1.36279734712402010000e-001) (225, 6.33262587120259070000e-002) (226, 1.43465025390141420000e-001) (227, 3.78663239852689180000e-001) (228, -1.55555113785159130000e-001) (229, -2.65101981276413930000e-001) (230, -2.76942780462958450000e-001) (231, 1.77976457742811590000e-001) (232, 1.73289897549473440000e-001) (233, 8.50728983941767550000e-002) (234, 1.25347842802960050000e-001) (235, 9.58549620777538610000e-002) (236, -8.93883584899849740000e-003) (237, 4.72257274478092900000e-001) (238, 2.42903139036912520000e-001) (239, 1.24451121254891990000e-001) (240, 1.28284129124508210000e-001) (241, 2.22284374665846020000e-001) (242, 4.05378240777945540000e-001) (243, 2.59288361064996250000e-001) (244, -6.18138759201185440000e-001) (245, -6.65883457361826750000e-001) (246, -5.24787713222528660000e+000) (247, -9.40185441739826710000e-002) (248, 1.57230588960868310000e-001) (249, 3.48472441985205380000e-001) (250, 3.35396324873263260000e-001) (251, -8.22817432715405860000e-002) (252, 7.72634742584953900000e-001) (253, 4.30072519111863950000e-001) (254, 4.13823822977465780000e-001) (255, 1.64093455829983720000e-001) (256, 1.16919382861410330000e-001) (257, 9.15531715459243360000e-002) (258, 4.17990929482647380000e-001) (259, 1.63439990733360570000e-001) (260, 3.18006582115260780000e-001) (261, -1.38962293789828520000e-001) (262, -3.10943033793640960000e-002) (263, 1.48504246985699530000e-002) (264, -2.80764533736567510000e-001) (265, 7.56759378494646030000e-001) (266, -1.87733232806384040000e-001) (267, 3.17653838085693200000e-001) (268, 3.44732913612903870000e-001) (269, 3.29764609808597790000e-001) (270, 3.23198821627048050000e-001) (271, 1.22485789194356260000e-001) (272, 9.62650856786373270000e-002) (273, 2.47748242232787240000e-001) (274, 1.45795115713567210000e-001) (275, 3.28283709616117410000e-001) (276, 3.76538534115465010000e-001) (277, 2.78910426262429960000e-001) (278, 3.38645534574427480000e-001) (279, 2.03792718428481260000e-001) (280, 3.04518362380488410000e-001) (281, 2.29265167258240840000e-001) (282, 4.42299374642134200000e-001) (283, 3.44378967479500640000e-001) (284, 3.81914642814481950000e-001) (285, 2.65528626418743640000e-001) (286, 9.66984352944697400000e-002) (287, 1.71777782116364100000e-001) (288, 1.31134470963856610000e-001) (289, 1.52722606051169860000e-001) (290, 1.28729685771772520000e-001) (291, 5.64720105630146520000e-002) (292, 1.47682949422163560000e-001) (293, 2.01141046828490070000e-001) (294, 2.64190364174248020000e-001) (295, 2.74762013876562900000e-001) (296, 1.22963316100267170000e-001) (297, 2.26313282520162860000e-001) (298, 2.53789973394270230000e-001) (299, 1.76300487261882660000e-001) (300, 1.82770213920789100000e-001) (301, 1.36200389008094670000e-001) (302, 1.61200389380623670000e-001) (303, 1.18884714921946060000e-001) (304, 1.82019481487727310000e-001) (305, 1.81207713897506030000e-001) (306, 1.26373728705416050000e-001) (307, 2.37213574107058430000e-001) (308, 1.39492031331359370000e-001) (309, 1.85541210055830160000e-001) (310, 2.68903027704268100000e-001) (311, 2.13739452663516770000e-001) (312, 8.81413062607085820000e-002) (313, 1.57220897133824620000e-001) (314, 1.15991648472586010000e-001) (315, 1.13031443350350520000e-001) (316, 8.77140601605921190000e-002) (317, 2.08734569776438200000e-001) (318, 1.83014354549427080000e-001) (319, 1.30493601813681910000e-001) (320, 1.96218539224324330000e-001) (0, 1.09829229821582670000e+000) (1, 1.08455938785494020000e+000) (2, 1.09399542315179810000e+000) (3, 1.05622076438578680000e+000) (4, 1.21230597178976260000e+000) (5, 1.07269415330313440000e+000) (6, 1.03479132070708820000e+000) (7, 1.03109259018322290000e+000) (8, 1.15719732839045510000e+000) (9, 1.04547857672571580000e+000) (10, 1.04599127204585550000e+000) (11, 1.15297979903073400000e+000) (12, 1.09268927078858490000e+000) (13, 1.03286260974084820000e+000) (14, 1.21050543465355750000e+000) (15, 1.15485968187124640000e+000) (16, 1.17458014114947920000e+000) (17, 1.20305914548009920000e+000) (18, 1.21673102068382600000e+000) (19, 1.09235357742420770000e+000) (20, 1.09162866262932350000e+000) (21, 9.92065095420292750000e-001) (22, 1.03950772308036840000e+000) (23, 1.07023892471017380000e+000) (24, 9.65386628225877620000e-001) (25, 9.14205308557081820000e-001) (26, 1.06028710942792270000e+000) (27, 1.05670434570266040000e+000) (28, 1.04410528568962710000e+000) (29, 1.05416998310522780000e+000) (30, 1.11521124378043850000e+000) (31, 1.14887823646961600000e+000) (32, 1.22593512238347800000e+000) (33, 1.25837478942452340000e+000) (34, 1.05905419925330090000e+000) (35, 8.78415780487999730000e-001) (36, 9.23837608947495560000e-001) (37, 8.72943543104107600000e-001) (38, 1.23488529744417210000e-001) (39, 3.40664346992300580000e-001) (40, 1.31181847421392110000e-001) (41, 5.53469571259418760000e-001) (42, 6.12783944948396940000e-001) (43, 9.93862272457716860000e-001) (44, 9.76028074969240380000e-001) (45, 1.20282721188289310000e+000) (46, 1.19305548322165800000e+000) (47, 1.05796026636483240000e+000) (48, 1.12866339241839090000e+000) (49, 1.10379156587589720000e+000) (50, 1.00483442573156450000e+000) (51, 8.07450204119894650000e-001) (52, 5.58392689159680770000e-001) (53, 3.10521758727871360000e-001) (54, -4.64321718772074900000e-001) (55, -6.32186035436150930000e-001) (56, -6.11376366128144500000e-001) (57, 9.00166761673397010000e-002) (58, -4.98409913018424970000e-002) (59, 7.20251544992042140000e-001) (60, 1.02760557347633610000e+000) (61, 9.62165640140995370000e-001) (62, 1.09977545253480250000e+000) (63, 1.09613775716809660000e+000) (64, 1.09694952475831790000e+000) (65, 9.15668164637258750000e-001) (66, 8.64300453538683010000e-001) (67, 5.72228057748065950000e-001) (68, -6.24418037926319670000e-001) (69, -3.17888990523358670000e-001) (70, -5.49743434611976610000e-001) (71, -3.02149505221755450000e+000) (72, -1.35741614434011690000e+000) (73, -1.03247974541722680000e+000) (74, -2.82731817595457800000e+000) (75, 1.44960910015727530000e-001) (76, 7.10705646412297170000e-001) (77, 1.11316769415738140000e+000) (78, 1.07588018850686010000e+000) (79, 1.12312750366402490000e+000) (80, 1.10855403817073060000e+000) (81, 1.04767401840504480000e+000) (82, 8.95227600329662860000e-001) (83, 1.41772980069837050000e-001) (84, -2.16424832632352790000e+000) (85, -2.52673514930629260000e+000) (86, -5.30856033133835310000e+000) (87, -3.19230580845172440000e+000) (88, -7.82121555637329660000e-001) (89, -5.80293006488828870000e-001) (90, -4.75770601609007080000e-001) (91, -6.82130785162149760000e-001) (92, 2.48773601783547630000e-001) (93, 7.14736968462726500000e-001) (94, 7.58115949325385510000e-001) (95, 1.06935553020651010000e+000) (96, 1.04038965148889240000e+000) (97, 9.57886465995737120000e-001) (98, 7.22590200019446630000e-001) (99, -1.96135968370569620000e-001) (100, -6.57555848519406630000e-001) (101, -1.14127452278442210000e+000) (102, 8.15226437096704280000e-001) (103, 7.28652360144528390000e-001) (104, -6.20378206260860580000e-002) (105, -6.98598414839717630000e-001) (106, -7.94922065533920200000e-001) (107, -1.02345330597702660000e+000) (108, 1.14596965223290370000e+000) (109, 7.89090186813225070000e-001) (110, 6.76562175904182330000e-001) (111, 1.16095709407148020000e+000) (112, 9.10229204643203890000e-001) (113, 6.64342732032552230000e-001) (114, 3.09246467714544280000e-001) (115, 1.16849634987044590000e-001) (116, -2.10574543539037370000e-001) (117, 8.46231453125613990000e-001) (118, 1.82369889803335710000e+000) (119, 1.01018132411607890000e+000) (120, 3.91570157829534030000e-001) (121, -5.98544427173069550000e-001) (122, -1.42166497601441750000e+000) (123, -1.48309962763706090000e-001) (124, 1.23559906848309460000e+000) (125, 7.20616672931500110000e-001) (126, 8.26537764076492710000e-001) (127, 1.14475225984563410000e+000) (128, 1.13568243549173300000e+000) (129, 1.01762546902706920000e+000) (130, 9.75239894495914640000e-001) (131, 1.19934936740010960000e-001) (132, -2.47099639675273150000e-001) (133, 2.10940055572221620000e-001) (134, -3.25821944395916330000e-001) (135, 2.05095229832985590000e-001) (136, -7.14694410890258090000e-001) (137, -2.82351236334259200000e+000) (138, -1.00031926733777770000e+000) (139, -2.72108496667212150000e-001) (140, 1.20187789092145030000e+000) (141, 7.59709299257811610000e-001) (142, 7.55590497394296070000e-001) (143, 1.11328863632991440000e+000) (144, 1.22080206566636430000e+000) (145, 1.45590793884421290000e+000) (146, 2.28737979663348810000e+000) (147, 9.49736546183424620000e-001) (148, 9.89620150841124950000e-002) (149, 1.80524915471641710000e-001) (150, -3.00071528055094240000e-001) (151, -2.14558760168378220000e-001) (152, -2.49071715707902620000e-001) (153, -3.13733520836303850000e-001) (154, -3.88863614272630280000e-001) (155, -2.20023417306238260000e-001) (156, 1.87164373915357260000e-001) (157, 7.91615682297248210000e-001) (158, 6.62096587932075710000e-001) (159, 1.12979864634155750000e+000) (160, 1.15232672284912740000e+000) (161, 1.44472019453687750000e+000) (162, 8.27255280686254980000e-001) (163, 2.61469438478312000000e-002) (164, 7.10461192188187600000e-002) (165, -3.84790318688784160000e-001) (166, -6.75973309280666900000e-002) (167, -6.66594519263403960000e-001) (168, -9.18151920288141190000e-001) (169, -1.18071727516169940000e+000) (170, -2.14042342798936270000e-001) (171, -1.87990659034183080000e-001) (172, 1.63507414013839280000e-001) (173, 4.41184684539236870000e-001) (174, 6.43047771107903790000e-001) (175, 1.05322393816925560000e+000) (176, 1.20968756354762030000e+000) (177, 1.29057159230632680000e+000) (178, 8.30261220105779410000e-001) (179, 2.52378998325532680000e-001) (180, -2.10811020907808490000e-002) (181, -4.61991370257752330000e-001) (182, 5.51459246359228050000e-001) (183, 5.05792234544519940000e-001) (184, -4.21144885627802890000e-001) (185, -8.44556179818018340000e-001) (186, -2.91729631705611720000e-001) (187, 2.57753869245816560000e-001) (188, -1.80574173619007790000e-001) (189, 1.05963730392999920000e-001) (190, 8.47494814233871300000e-001) (191, 1.08118554723933390000e+000) (192, 1.21019415535204410000e+000) (193, 1.12440454202397190000e+000) (194, 1.10369114413767270000e+000) (195, 1.54618138572286230000e+000) (196, 4.58565437959607970000e-001) (197, 4.07845423646322900000e-002) (198, 1.37693271097958670000e-001) (199, 6.84670096032044980000e-001) (200, 6.95597518948840700000e-001) (201, 5.88531235809183240000e-003) (202, -2.81479036763491340000e-001) (203, 2.70680055623549910000e-001) (204, -5.32199196878719190000e-001) (205, -1.75137393811237190000e-001) (206, 7.88580093201835970000e-001) (207, 1.10308496162816060000e+000) (208, 1.03405279530545830000e+000) (209, 1.01072656181441300000e+000) (210, 1.40485382057176440000e+000) (211, 3.81883880242457610000e+000) (212, 4.60621460462695810000e-001) (213, -5.61405324601350400000e-001) (214, 1.22333703517060940000e-001) (215, 3.47555464344017960000e-001) (216, 5.43050374325641410000e-001) (217, 3.03152863836882890000e-001) (218, -6.66931037405850690000e-002) (219, -1.58294698449276180000e-001) (220, -4.36742997694836430000e-001) (221, -1.23503204146935010000e+000) (222, 7.42008290017203590000e-001) (223, 1.03294335902046910000e+000) (224, 1.14936651772689190000e+000) (225, 1.07669946318811130000e+000) (226, 9.42679083201505730000e-001) (227, 4.49121118500069580000e-001) (228, -1.76285534919446980000e-001) (229, -2.77548847889874050000e-001) (230, -6.56778066331089150000e-001) (231, -7.30302850546855730000e-001) (232, -5.57438457718557380000e-001) (233, -2.14588368594063940000e+000) (234, -2.62702718063170300000e-001) (235, -2.44557013278573380000e-001) (236, -5.14682982543905960000e+000) (237, 1.93964064407758680000e-001) (238, 1.02241954728884870000e+000) (239, 1.04453863530545950000e+000) (240, 1.13711676168498110000e+000) (241, 1.01060449150009400000e+000) (242, 1.11882592865959410000e+000) (243, 4.37622076559823210000e-001) (244, 1.52937263760968330000e-001) (245, -5.45479587485850280000e+000) (246, -5.05977665622447840000e-001) (247, -6.08580566464782540000e-001) (248, -5.07726222764769860000e-001) (249, -4.76740421345722980000e-001) (250, -7.74535684417019140000e-001) (251, -4.59641059127632090000e-001) (252, 1.05138782904440950000e-001) (253, 7.03986980053580740000e-001) (254, 1.02148706002163190000e+000) (255, 1.18628058077695430000e+000) (256, 1.21618780778510650000e+000) (257, 1.06908697551500830000e+000) (258, 9.68758787751544560000e-001) (259, 8.41093131039079120000e-001) (260, 4.26802212635503050000e-001) (261, -2.89927043517838980000e+000) (262, -7.91405435805409760000e+000) (263, -1.17024053379618780000e+001) (264, -7.56966646534532270000e-001) (265, -5.40046919968900150000e+000) (266, -4.66060566197664560000e-001) (267, 2.06699550220925190000e-002) (268, 4.30930885488379930000e-001) (269, 8.45190351874655300000e-001) (270, 1.15164923260465700000e+000) (271, 1.09835333337298620000e+000) (272, 1.16834234808777880000e+000) (273, 1.17404303176647560000e+000) (274, 1.17196173290733690000e+000) (275, 9.65090574806258930000e-001) (276, 1.00508005706393240000e+000) (277, 5.36547294601905870000e-001) (278, -2.43548810945215770000e-001) (279, 3.90543426465929930000e-001) (280, 1.78562320845212790000e-002) (281, 2.19643532411135070000e-001) (282, 4.66563215470956190000e-001) (283, 6.57599944976701160000e-001) (284, 8.97206520300241510000e-001) (285, 9.99789061651431670000e-001) (286, 1.08445562808776910000e+000) (287, 1.10962652690034490000e+000) (288, 1.06323980745912870000e+000) (289, 1.02976812727286180000e+000) (290, 1.20382208494459290000e+000) (291, 1.09347662431594240000e+000) (292, 1.05745243039373580000e+000) (293, 9.60162389881501040000e-001) (294, 9.69830861496608470000e-001) (295, 9.53234277933635580000e-001) (296, 8.75805077561100600000e-001) (297, 9.29574834959362220000e-001) (298, 1.11986352633130550000e+000) (299, 1.00213281168635620000e+000) (300, 1.19317755353597700000e+000) (301, 1.17745489705169140000e+000) (302, 1.05416998310522780000e+000) (303, 1.14466070710989490000e+000) (304, 1.18343634245332190000e+000) (305, 1.21986212424610810000e+000) (306, 1.10182013029964550000e+000) (307, 1.03371710194108110000e+000) (308, 1.15032476969429600000e+000) (309, 1.22679571809942690000e+000) (310, 1.04696313462000500000e+000) (311, 1.01421777280393610000e+000) (312, 1.06701178017158550000e+000) (313, 1.15496954515413350000e+000) (314, 1.13668341206914870000e+000) (315, 1.21562018082352320000e+000) (316, 1.12404303102141730000e+000) (317, 1.21060309090501270000e+000) (318, 1.07277960252315770000e+000) (319, 1.14872564857671720000e+000) (320, -6.38426385335248760000e-001) (0, 4.31685643901165080000e-002) (1, -8.66859458544233350000e-003) (2, 8.86092388953603200000e-002) (3, 6.08077248092104770000e-002) (4, -1.59317782874222080000e-002) (5, 9.89424910024627740000e-002) (6, -1.22330477635568310000e-002) (7, 5.87264259500717080000e-002) (8, 2.01461031095551100000e-002) (9, 1.53166124622957810000e-001) (10, -1.81656650394597140000e-002) (11, 7.38631449256264010000e-002) (12, -1.99967197542445550000e-002) (13, 6.59651955891878000000e-002) (14, 4.17098241340045850000e-002) (15, -2.67166905575049150000e-002) (16, 2.31063082317906030000e-002) (17, -2.29874424550597960000e-002) (18, -5.87318438753747870000e-003) (19, 3.94087987090916340000e-002) (20, 1.14396592795246830000e-001) (21, 5.31723645724205550000e-002) (22, 3.92706433813440270000e-002) (23, 2.57589087971952720000e-002) (24, -3.34669726144327450000e-002) (25, 8.30563807029971180000e-002) (26, 1.29112169186401000000e-001) (27, 1.28581163319113400000e-001) (28, 1.27744981666028320000e-001) (29, 8.24080669279556590000e-002) (30, 2.74581149372625680000e-002) (31, 6.85713967998982380000e-002) (32, 1.06181260641578850000e-001) (33, 4.12764745181721720000e-002) (34, -6.26374259535821830000e-005) (35, 5.92837061360480200000e-003) (36, 2.48982211495773800000e-002) (37, -1.01859635118651550000e-001) (38, -1.52635862225100840000e-001) (39, -3.57510647754256880000e-002) (40, 2.85397402573043140000e-001) (41, -1.11065750910645940000e-002) (42, 1.05574694011550470000e-001) (43, 1.32064096185658290000e-001) (44, 1.35306226694494320000e-001) (45, -7.67372152374256890000e-003) (46, -7.72865316518611420000e-003) (47, 1.48258897987334440000e-001) (48, -2.86881261337565940000e-002) (49, 5.36299903272539000000e-002) (50, -2.11650845016289790000e-002) (51, -5.09173658806439060000e-001) (52, -5.55009295595297210000e-001) (53, -4.37235124568336090000e+000) (54, -7.02587170464306300000e-001) (55, -3.66597896493910610000e-001) (56, -2.03689003117946130000e-001) (57, 3.69545875012783630000e-001) (58, -5.82727833273322120000e-001) (59, -3.31540265963867600000e-001) (60, 3.72496253002690540000e-002) (61, 9.53671035010177910000e-002) (62, 1.42256928650841290000e-002) (63, 3.43550876962854590000e-002) (64, -1.62796786832313280000e-002) (65, 2.44255962765047920000e-002) (66, -6.82650759847502760000e-002) (67, -1.11190682971848820000e+000) (68, -3.37464365893970000000e-001) (69, -2.15164056421521630000e+000) (70, -1.64051045811355270000e-001) (71, 1.84118281994527180000e-001) (72, 2.35152736102979130000e-001) (73, 2.25118616772888410000e-001) (74, 2.12446819805453160000e-001) (75, -2.36067549195098870000e-001) (76, 2.01282977400017880000e-001) (77, -2.14892064200390320000e-002) (78, 1.17106553773128400000e-001) (79, 1.11747666974524760000e-001) (80, 3.08849131592761930000e-002) (81, 3.39908563863026430000e-002) (82, -2.51702803375923110000e-002) (83, 9.51774225886997340000e-001) (84, -2.71212534211462850000e-001) (85, 6.05166568669678950000e-002) (86, -3.08865661033924990000e-001) (87, 1.15854133362402050000e-001) (88, 2.69328912372371780000e-001) (89, 2.91473652425884630000e-001) (90, 3.85662052876959090000e-001) (91, 1.87555408638118190000e+000) (92, 8.08937880916938130000e-002) (93, 4.08539167700037450000e-002) (94, 9.29966557515326670000e-002) (95, 5.32271582900012350000e-002) (96, 9.30220807579917870000e-002) (97, 1.60103323069319850000e-001) (98, 4.54068221067268630000e-001) (99, 7.21652097429192670000e-001) (100, 8.24510403038592800000e-001) (101, 7.72698644615916420000e-001) (102, 3.20626918252371220000e-001) (103, -5.91638240921848360000e-001) (104, -1.25539342767103900000e+000) (105, 4.73367452328288430000e-003) (106, 3.22656036576026480000e-001) (107, 8.78242147972153500000e-001) (108, 3.16964962273678030000e-002) (109, 8.84919461363231460000e-003) (110, 1.01217004709684780000e-001) (111, 1.44462511212013870000e-001) (112, -2.38478048619835750000e-002) (113, 1.89344678093095350000e-001) (114, 1.50982723518403720000e-001) (115, 8.88583808861600160000e-001) (116, 1.27444030507706940000e+000) (117, 4.06590559292700430000e+000) (118, 5.25705876451950770000e-001) (119, -1.26728020169205700000e+000) (120, -7.79971114931105820000e-001) (121, -1.18272168512804980000e+000) (122, 6.97572703117976590000e-001) (123, 7.11435799261971650000e-001) (124, 6.36947250656670350000e-001) (125, 3.05436685073028010000e-001) (126, 2.16210562579877590000e-002) (127, 9.01939395937922940000e-003) (128, 3.25606540757963220000e-002) (129, 5.08974575680789660000e-002) (130, 2.29960201141498550000e-002) (131, 6.06248250892063690000e-001) (132, 7.36083945382345450000e-001) (133, 2.67888062838289720000e+000) (134, 2.72330367571111020000e+000) (135, 3.42581747319057050000e-002) (136, 8.46081583694788140000e-001) (137, 3.19344869542126870000e-001) (138, 2.83901816683825640000e-001) (139, 5.90759465223645530000e-001) (140, -5.82970895426307640000e-001) (141, -3.28013492977464180000e-002) (142, 1.32673395886894770000e-002) (143, 1.33360216124701780000e-001) (144, 3.15169528883689700000e-002) (145, 4.62707167397855700000e-002) (146, 1.62331479760603660000e-001) (147, -6.90668410551714240000e-001) (148, -5.46805757149931740000e-001) (149, 1.25245710118354080000e+000) (150, 3.05021776281888090000e+000) (151, 2.46909032324720810000e+000) (152, 4.13834623153675420000e-001) (153, 3.39660698253201330000e-001) (154, 4.37307878991120450000e-001) (155, 7.94528726267351600000e-001) (156, -5.97268136900944930000e-001) (157, -7.90028182914069700000e-002) (158, -7.57481347440720350000e-002) (159, -8.17420981245042640000e-003) (160, -1.79154208951057860000e-002) (161, 3.90670018289984640000e-002) (162, 3.96591641413324420000e-002) (163, -2.32972161755150960000e+000) (164, -1.01265740865544870000e+000) (165, 9.38226544049267200000e-001) (166, 1.25172097805784130000e+000) (167, 2.40272638040068990000e-001) (168, 7.28330533717428120000e-002) (169, 4.18421846538766240000e-001) (170, 4.48263712142644540000e-001) (171, 3.92391962256911160000e-002) (172, -4.10949741985268700000e+000) (173, -3.45135239241803560000e-001) (174, -6.98049476945605820000e-002) (175, -2.83402257379474740000e-002) (176, 1.53819200804564400000e-001) (177, 1.10502549768471070000e-001) (178, 1.05284928154698000000e-001) (179, -3.00213504784065170000e-001) (180, 1.43532894554288970000e+000) (181, 7.77763663046977190000e-001) (182, 1.73307103604215800000e+000) (183, -1.54725834733164520000e+000) (184, 4.27715235994306220000e-001) (185, 2.58606706343059600000e-001) (186, 3.03172270199271010000e-001) (187, 9.14107868986523410000e-001) (188, -6.82136929736501530000e-002) (189, -1.88718399762650250000e-002) (190, 1.24918873669272750000e-002) (191, 9.70004936601461120000e-002) (192, 1.02580186369168660000e-001) (193, 1.01353379710262810000e-001) (194, -1.69710093103922450000e-002) (195, 1.81269049921670700000e-001) (196, 3.93014460842584650000e+000) (197, 1.78534751361791510000e+000) (198, 4.52629092784906590000e-001) (199, -3.80717679170952730000e-001) (200, 4.06499608148445050000e-001) (201, -7.73894594820831340000e-001) (202, 1.45402834595350750000e-001) (203, 8.34653234573540350000e-001) (204, 7.53989952007056870000e-001) (205, 1.47115689963999180000e-001) (206, -3.34653602959347830000e-002) (207, -4.21657681792177370000e-002) (208, 9.55550397801108180000e-002) (209, 1.16282579151475220000e-001) (210, 9.59721111164330530000e-003) (211, 9.25236082197400830000e-001) (212, 4.40803563795627800000e+000) (213, 4.34446561664729550000e+000) (214, 5.47979334515595080000e+000) (215, 1.43221872102353440000e+000) (216, 4.46191486558691620000e-002) (217, 5.71843685830479180000e-001) (218, 3.19924233089534220000e-001) (219, 6.61707884757524730000e-001) (220, 3.08771385605691670000e-001) (221, 4.98517340259769580000e-002) (222, 1.02903021470446140000e-001) (223, 2.90866742887763530000e-002) (224, 1.36271593121209680000e-001) (225, 5.09749609908158800000e-002) (226, 1.49882166706212520000e-001) (227, 9.22865403435261470000e-001) (228, 2.90488463197276570000e+000) (229, 1.32654785858822220000e+000) (230, 6.28111512665948220000e-001) (231, 3.38050496939233450000e-001) (232, 4.29163854064373320000e+000) (233, 9.22844498646422710000e-001) (234, 6.21832722819182670000e-001) (235, 1.01005586377354510000e+000) (236, -3.40179335066175810000e-001) (237, 1.47687861612569780000e-001) (238, 6.42868070690107430000e-002) (239, 5.53817661357314030000e-004) (240, -1.04203035959198310000e-002) (241, 1.17143174867424090000e-001) (242, 1.12192957160224620000e-001) (243, 1.43613444152422220000e-001) (244, 1.78628468715581190000e-001) (245, 1.10992504382548800000e+000) (246, 1.09249927884531360000e+000) (247, 8.36930759770398440000e-001) (248, 1.13996189803476740000e+000) (249, 1.45667904571667540000e+000) (250, 9.03927728515416920000e-001) (251, 6.42073804964753080000e-001) (252, 3.36003233245400050000e-001) (253, -2.34826853864164790000e-003) (254, 1.14980659248657260000e-001) (255, 9.69405378476313470000e-002) (256, 6.65733337730678180000e-003) (257, -3.25150304876569220000e-002) (258, 3.06182965242156890000e-003) (259, 2.16420493860176590000e-001) (260, 1.21974120006393640000e-001) (261, -1.76537749993352830000e+000) (262, -1.04274104361003120000e-001) (263, -2.30557867552015660000e-001) (264, 1.63772246992879020000e+000) (265, 8.55188271495090140000e-001) (266, 9.37460140992685150000e-001) (267, 1.09814720470793900000e+000) (268, 2.29371160719693520000e-001) (269, -3.23966492611180780000e-002) (270, 6.69395447160247860000e-003) (271, 8.82408145646884460000e-003) (272, 1.50010606997811930000e-001) (273, 2.07442476497181580000e-002) (274, 3.86764355978666400000e-002) (275, 6.48396879030448260000e-002) (276, 6.56975999807084680000e-002) (277, -2.84918574011434330000e-001) (278, -2.56584085597735990000e-001) (279, -1.96696290541984620000e-001) (280, 1.32526368760886110000e-001) (281, -5.40163118860133350000e-001) (282, -2.36284165936774370000e-001) (283, 1.11491087062486480000e-001) (284, -2.81123279848679570000e-002) (285, 4.57455179757828080000e-002) (286, 1.21031114378483910000e-001) (287, 1.36702729349327270000e-002) (288, 1.84676362876690130000e-002) (289, -1.33316805924277360000e-002) (290, 1.41996690862770280000e-001) (291, 1.50039626221383070000e-002) (292, 9.99526943567229930000e-002) (293, -2.28251083251374070000e-002) (294, 1.76128776258716210000e-002) (295, -4.49023514730317600000e-002) (296, 3.85302167167999310000e-002) (297, 5.59433539886467490000e-002) (298, 1.45848621816662140000e-001) (299, 1.31943510153618580000e-002) (300, 1.37144454643279460000e-001) (301, 1.31541427216037840000e-001) (302, 1.48118517125867600000e-001) (303, 1.01847764483254720000e-001) (304, 7.22029886508881720000e-002) (305, -8.98597740267170590000e-003) (306, 7.13973245763828420000e-002) (307, 4.03853612236435500000e-002) (308, 4.12154393610126780000e-002) (309, 7.79647742847443780000e-004) (310, 7.95821391514710540000e-002) (311, 1.39707872469289230000e-001) (312, 6.06660908044200090000e-002) (313, 1.04495610959332060000e-001) (314, 7.79769145181763430000e-002) (315, 1.47708328429575320000e-001) (316, -1.03104403130327410000e-002) (317, 1.36704942737042090000e-001) (318, 9.72884382434404670000e-002) (319, 1.01603623854616740000e-001) (320, 3.14685769930468260000e-001) (0, -6.54546135335735880000e-003) (1, -2.33911647293779010000e-002) (2, -1.43807426289345040000e-001) (3, -6.27588410972519520000e-002) (4, 1.38891092636414630000e-002) (5, -1.13009085986663940000e-001) (6, -1.28682914345222190000e-001) (7, -1.26711363891165190000e-001) (8, 4.30396152008213490000e-002) (9, -1.04744925707268360000e-001) (10, -3.49451199796702510000e-002) (11, -7.04492708993482850000e-002) (12, -5.95667023778104070000e-002) (13, 1.64647928957721390000e-002) (14, -1.03029837791086560000e-001) (15, -7.43433139261240470000e-002) (16, -5.89990754162271060000e-002) (17, -4.52783720867726970000e-002) (18, -5.76196808644225260000e-002) (19, -2.32124786576806160000e-002) (20, 6.07641246864736680000e-004) (21, -8.93470107441588220000e-002) (22, 1.30455689066094620000e-002) (23, -4.47791389862957910000e-002) (24, -1.10477382152775890000e-001) (25, -4.24374306843723970000e-002) (26, 1.74606262615918800000e-002) (27, -9.20101853293140010000e-002) (28, -1.10254083084375620000e-001) (29, 4.56151839551467850000e-002) (30, -1.87891138795520000000e-002) (31, -1.15542045008782970000e-001) (32, -1.49642387313792730000e-001) (33, 5.79394548948703860000e-003) (34, 1.59685061879747850000e-002) (35, -8.56992302887722300000e-002) (36, -1.43591162837361880000e-003) (37, 1.10618601725850520000e-001) (38, 6.83946085073181550000e-002) (39, 1.96294031944531430000e-001) (40, 1.28123288310351080000e-001) (41, 1.44601499033305630000e-001) (42, -1.74967213253665430000e-002) (43, -4.85467248930971170000e-002) (44, -2.13538456684817350000e-002) (45, -9.42433926115746270000e-004) (46, -6.08667512253076370000e-002) (47, -1.75439966734983010000e-002) (48, -3.44262062660092990000e-002) (49, -9.72566972467337200000e-002) (50, -3.24487662222232020000e-002) (51, 2.58415211723617320000e-002) (52, 1.27443287343353200000e+000) (53, 9.89912458999538950000e-001) (54, -1.20762326471913140000e+000) (55, -2.02107367871510120000e-001) (56, 2.85052022984147780000e-001) (57, 4.28608773889011860000e-001) (58, 7.16943184470977050000e-001) (59, 2.85475617185823040000e-001) (60, 1.65345187392191840000e-001) (61, 2.35224659830683800000e-002) (62, 5.59030940007822960000e-004) (63, -3.85339872206485330000e-002) (64, -3.31487764877039790000e-002) (65, -8.32134096202088170000e-002) (66, 1.35564631614760370000e-002) (67, 3.92796978182785420000e-001) (68, 1.29799754919764650000e+000) (69, 5.04075212588418030000e-001) (70, -6.97332850307814600000e-003) (71, 3.21606071588807500000e-001) (72, -1.09635097979983810000e+000) (73, 2.44541523234620810000e-001) (74, -3.11074130335103340000e-001) (75, 1.96058194740474550000e+000) (76, 4.71075864075880090000e-001) (77, -8.09402541109454500000e-002) (78, -1.41811576650229560000e-001) (79, -2.53931178842093270000e-002) (80, -1.10695837700695350000e-001) (81, -1.05239014935602180000e-001) (82, -3.86652118039970750000e-002) (83, 7.63606239581175040000e-002) (84, 2.27885165071547170000e+000) (85, 1.40085219361426350000e+000) (86, 5.06901541822411540000e-001) (87, 1.50518773766704140000e-002) (88, -4.55310454848002420000e-001) (89, 1.50216429431630690000e-001) (90, 2.84432199521750140000e-001) (91, 3.70846118032775560000e-001) (92, 4.97370375471643200000e-001) (93, -1.17237235147803240000e-001) (94, -9.03189942958500590000e-003) (95, 1.13439432100905370000e-002) (96, -1.28573278311053920000e-001) (97, -3.66181163912513780000e-002) (98, 1.92051886260217500000e-002) (99, 8.87184860548468230000e-001) (100, 6.65533389049278950000e-001) (101, 7.90994937479777450000e-001) (102, 5.76204845845231680000e-001) (103, 1.96193411921463280000e-001) (104, 4.87550797713495240000e-001) (105, 7.54328437620391400000e-002) (106, 4.17698087626470980000e-001) (107, 5.92232727243708230000e-001) (108, 4.41212669706946780000e-001) (109, -5.86578784324125050000e-002) (110, -4.65146918738670090000e-003) (111, -7.75354526455656200000e-002) (112, -1.17483190255173830000e-001) (113, -6.47254101172203830000e-002) (114, -1.24491674244768270000e-001) (115, 1.17194407471686550000e+000) (116, 7.22973497852066550000e-001) (117, 1.47288537195780190000e-001) (118, -7.68171526770149440000e-001) (119, 9.59300469476871860000e-001) (120, 4.01019595323190590000e-001) (121, 2.79347583426997230000e-001) (122, 3.78555749021713130000e-001) (123, -2.21896085320690430000e+000) (124, 8.87909174919679580000e-001) (125, -4.52508774911181760000e-002) (126, -9.86980833964726250000e-002) (127, 4.50841780878591810000e-002) (128, 3.10839857446927210000e-003) (129, -1.62241225207322110000e-002) (130, -7.43523730870497420000e-002) (131, 1.94520084999847450000e+000) (132, 1.13105792457903730000e+000) (133, -2.71303176018800790000e-003) (134, -1.44992064413978250000e+000) (135, -1.69426771905905690000e+000) (136, -5.15057095891660040000e-001) (137, 3.95890825146993860000e-001) (138, 1.19066766847799930000e+000) (139, 1.49319036829081740000e+000) (140, 8.89660461957217150000e-001) (141, -1.06854087034165480000e-001) (142, -9.59295467194109660000e-002) (143, 2.76464336873915620000e-002) (144, 9.75702912394367520000e-003) (145, -5.97687136502461010000e-002) (146, 2.04978763213970560000e-003) (147, 3.55931741869173760000e-001) (148, 1.97121788714233800000e+000) (149, 7.42510837369595890000e-001) (150, -2.33621363569629500000e+000) (151, -5.27706047783556100000e+000) (152, 2.45321751332085720000e-001) (153, 4.77393697826982770000e-001) (154, 2.93613255815847700000e+000) (155, 6.82830068913673370000e-001) (156, 1.33111412440824760000e+000) (157, -1.42637389306849850000e-002) (158, -9.97702942954504930000e-002) (159, -1.40853209805020200000e-001) (160, 4.26000471914677460000e-002) (161, 2.84737100890686090000e-002) (162, 1.09363776966740270000e-001) (163, 4.66804081066307440000e-001) (164, 1.91138002384189100000e+000) (165, 1.74240678662764470000e+000) (166, 9.33164216861121610000e-001) (167, -5.23570378947308160000e+000) (168, 3.17575010563487410000e-001) (169, 4.61886379115862940000e-001) (170, 8.19618313637992980000e-001) (171, 3.13369150949946880000e-001) (172, 9.40126791450460630000e-001) (173, -5.77713121128398880000e-002) (174, -4.78948704574378990000e-002) (175, -1.13259064027698820000e-001) (176, -2.77612819819977210000e-002) (177, -7.18814317539107490000e-002) (178, 3.47788149178377620000e-002) (179, -5.83121389204893160000e-002) (180, 3.52902769643451630000e-001) (181, 2.40218149903465060000e+000) (182, 1.01885410362438060000e+000) (183, 1.00112112057443970000e+000) (184, 3.44986088278661780000e-001) (185, 5.67208984272314920000e-001) (186, 4.63720058618676930000e-001) (187, 2.87133340178840960000e-001) (188, -1.38785865530269860000e+000) (189, -3.25714208304030880000e-004) (190, -6.33007977093213020000e-002) (191, 2.80678423751111360000e-002) (192, -9.23547888038909330000e-002) (193, -1.35339868481195030000e-002) (194, 5.50512668911206790000e-002) (195, 2.42385533784741920000e-001) (196, -4.08855433977620200000e-001) (197, 4.87995469944695000000e-001) (198, 6.09988738855377190000e-001) (199, 3.80579685653414380000e-001) (200, 2.45949047210104200000e+000) (201, 1.59340208314156980000e+000) (202, 3.41372624312405500000e-001) (203, 3.30133289889310680000e-001) (204, -4.00606411577289770000e-001) (205, 5.86810137123104910000e-003) (206, -1.26231396538922710000e-001) (207, 3.63930378116661960000e-002) (208, -7.61987827037726860000e-002) (209, -1.46309867732884320000e-001) (210, -1.08483922939857790000e-002) (211, 2.61685715249096510000e-001) (212, -8.83743048923876780000e-001) (213, -1.05967170220160180000e+000) (214, -1.30651829607154990000e-001) (215, 4.86169878236968240000e+000) (216, 1.11996242919263820000e+000) (217, 1.85751803233327940000e+000) (218, 3.75611846344264870000e-001) (219, 2.21685185032062220000e-001) (220, 2.06312666597253310000e-001) (221, 2.72321779251775920000e-001) (222, -7.94085830427349730000e-002) (223, -1.08199249499176710000e-001) (224, -1.33020532509134230000e-002) (225, -8.32788609342740710000e-002) (226, 3.63597283049563670000e-002) (227, 4.16702568759160510000e-001) (228, 4.93232355779641580000e-001) (229, -1.49347588276348330000e+000) (230, 4.04643028155405760000e-001) (231, 3.01709426795234490000e-001) (232, 5.24388711500976060000e-002) (233, -3.98117469860196920000e-001) (234, 1.73048360411344390000e-001) (235, 2.41911370525720090000e-001) (236, 6.28293810268801160000e-001) (237, 2.65646815685942840000e-001) (238, 5.24185546497403860000e-002) (239, 2.61939118248008320000e-002) (240, -1.21651664240448390000e-001) (241, -8.92358922730407540000e-002) (242, 2.69008352523166790000e-002) (243, 2.96312270852753910000e-001) (244, 1.21893036180723780000e-001) (245, 8.04659743498040040000e-001) (246, 5.12972040185680700000e-002) (247, -1.50444803772916390000e-001) (248, -1.55390328457186430000e+000) (249, -2.23603535997220690000e-001) (250, -6.14030873190901880000e-001) (251, -1.62501509669624540000e-001) (252, 1.74530076262404910000e-001) (253, 1.48577239658380770000e-001) (254, -8.62220106975926940000e-002) (255, -1.79041041007393200000e-002) (256, -7.82129428900360110000e-002) (257, -5.20166534371809130000e-002) (258, 1.46061825156069120000e-003) (259, 8.37091176486559760000e-002) (260, 8.70609066216056720000e-001) (261, 2.05867313998225330000e-001) (262, -7.08431267900472280000e-002) (263, 2.40094263883661170000e-001) (264, -1.18679662937484490000e+000) (265, -2.79520438280712160000e+000) (266, -3.94520303166639440000e-001) (267, 2.31220454316637850000e-001) (268, 2.50714941711402740000e-001) (269, 8.77139997268311100000e-002) (270, 4.91755425372039780000e-002) (271, -2.46831285510311450000e-003) (272, -9.39417028900377950000e-002) (273, -5.74976105501035370000e-002) (274, -1.44753471225317200000e-001) (275, 3.61087130641813140000e-002) (276, -6.50347823727249060000e-002) (277, -6.48342487828517940000e-002) (278, 2.12162057735279440000e-001) (279, -2.12484309550255660000e-001) (280, 7.43756757543807680000e-002) (281, 2.34235558241071700000e-001) (282, 1.99811764732740860000e-002) (283, -6.16571540747785430000e-002) (284, -1.00926121332414580000e-001) (285, -5.30870758673082990000e-002) (286, 4.41645287248788790000e-003) (287, 4.36742659574748530000e-002) (288, 1.12157693800555990000e-002) (289, 3.53856916152154730000e-002) (290, -6.56641145780439000000e-002) (291, -3.24670925989947730000e-002) (292, 4.24981897183229140000e-002) (293, -1.10524240492066760000e-001) (294, -1.38966623728391440000e-001) (295, -1.04448467126242380000e-001) (296, -5.98418409444099190000e-002) (297, 1.26236321817498520000e-002) (298, -6.13167747290376680000e-003) (299, -6.59838045751094390000e-002) (300, -7.55663242491501210000e-002) (301, 6.13962581451368190000e-004) (302, -1.38155570736375770000e-001) (303, -1.42769828617633630000e-001) (304, -6.66650911554596130000e-002) (305, 1.96569316152136980000e-002) (306, 1.23937479132338460000e-002) (307, -7.74175043368345410000e-003) (308, -6.10925813067977610000e-002) (309, -1.43103619687984570000e-001) (310, -1.38776227045376340000e-001) (311, -7.67339897927498820000e-002) (312, -9.15411189196432970000e-002) (313, -5.02447315855292580000e-002) (314, 2.71547428176431010000e-003) (315, -8.71240758353222370000e-002) (316, -1.05459037046034450000e-001) (317, 9.04902130089353660000e-003) (318, -1.47060600165946100000e-001) (319, -3.87292997235589160000e-002) (320, 4.89465834996336560000e-001) (0, 9.37122410261251730000e-002) (1, 1.64152915903897990000e-001) (2, 1.21336753156512450000e-001) (3, 9.84546727374179110000e-002) (4, 5.85071623765286850000e-002) (5, 9.19178074056360290000e-002) (6, -1.24095867270882090000e-002) (7, -3.37860756167588790000e-002) (8, 4.24651462225977970000e-002) (9, 9.44568699434710090000e-002) (10, -1.68895672625951170000e-002) (11, 1.52332359504469450000e-002) (12, 2.13733727606921190000e-002) (13, 5.08308931482298260000e-003) (14, 1.85779625627872610000e-002) (15, 7.12635102228630220000e-002) (16, 1.72649009780499660000e-001) (17, 1.73259361352094600000e-001) (18, 1.07811362329968450000e-001) (19, 4.29676113637213470000e-002) (20, 2.68990340905749250000e-001) (21, 1.24975590887738410000e-001) (22, 2.29534248305583080000e-001) (23, 1.93535712612913110000e-001) (24, 1.78514762563704350000e-001) (25, 2.86018315439838410000e-001) (26, 2.92045095397440720000e-001) (27, 2.84961756012051570000e-002) (28, 1.70579917952792790000e-001) (29, 1.48289878558145320000e-001) (30, 1.43040855042428780000e-001) (31, 5.58887541343863760000e-002) (32, 8.37696139248434860000e-002) (33, 2.77149255895636250000e-002) (34, 3.43635982159150940000e-002) (35, 1.92652383810055230000e-001) (36, 3.20789592750698240000e-001) (37, 2.60462421859492920000e-001) (38, 4.37487881330730410000e-001) (39, 2.01258092809745630000e-001) (40, 4.29046289592186330000e-001) (41, 1.01520731015864960000e+000) (42, 5.83442221377029170000e-001) (43, 2.95346716697139630000e-001) (44, 2.57065670478875070000e-001) (45, 1.07166343206443370000e-002) (46, 9.51099461250776020000e-002) (47, 1.01933676695509110000e-001) (48, 4.11467868279527110000e-002) (49, 1.33081861405681710000e-001) (50, 5.08089551496462010000e-002) (51, 2.16617566142419450000e-001) (52, -1.12466818888740450000e-001) (53, -5.09525104293402480000e-001) (54, -1.74981759290541130000e-001) (55, -2.75998852280487870000e-001) (56, -6.44075941697841990000e-002) (57, 1.39670217757804920000e-001) (58, 6.68667637962393610000e+000) (59, 9.84358253048727150000e-001) (60, 3.63838645904724090000e-001) (61, 2.16483394483527190000e-001) (62, -6.84928390985823680000e-003) (63, 1.60564048662919710000e-001) (64, -1.53373302590614530000e-002) (65, 2.14551023074438130000e-001) (66, 2.93040675084592640000e-001) (67, 2.64750764745516550000e-002) (68, 1.30308552594680330000e-003) (69, 9.80827229817803490000e-002) (70, -7.03873989713200000000e-002) (71, 2.63071663156232220000e-002) (72, 2.14960716816858740000e-001) (73, 6.37193081617160930000e-001) (74, 1.05961818499804280000e+000) (75, 3.95027360940666430000e-001) (76, 3.87786294367015950000e-001) (77, 1.88739278306332750000e-001) (78, 2.53348629407861900000e-001) (79, 4.89307462182039800000e-002) (80, -6.60517612195337610000e-003) (81, 2.29077390478397870000e-001) (82, -3.00880482219061220000e-001) (83, 1.00965778966902120000e-001) (84, 3.11633090571963870000e-001) (85, 5.35573263242542840000e-001) (86, -3.58062909495973010000e-002) (87, -4.16509286861911840000e-002) (88, 9.93816630551447200000e-001) (89, 3.82445479150093360000e-001) (90, 6.87604517396174790000e-001) (91, 3.52516736550715410000e-001) (92, 5.62522253151614300000e-001) (93, 2.27557248338870390000e-001) (94, 2.68741696043486410000e-001) (95, 1.75230796928346280000e-001) (96, 7.28950929307040360000e-002) (97, 1.30194173844997180000e-001) (98, -1.89012584738599420000e-001) (99, 2.73201973453929990000e-001) (100, 3.67005168473914510000e-001) (101, 1.43271874132649750000e-001) (102, 3.84295352288147600000e+000) (103, 6.56216948480407460000e-001) (104, 2.65804414183838090000e+000) (105, 1.99744659188530530000e-002) (106, -3.25657771437426400000e-002) (107, -1.31177833420837890000e-001) (108, 7.60970424045822980000e-003) (109, 1.65475321295174140000e-001) (110, 3.53165525426499480000e-001) (111, 6.36646331565060010000e-002) (112, 2.06955090546823260000e-001) (113, 2.71818169135876970000e-001) (114, -2.52724749523525690000e-001) (115, -5.74428265498703290000e-001) (116, -1.10907427451293630000e+000) (117, -9.97450776281036290000e-001) (118, 4.55712521609222380000e-001) (119, 1.16100868677426480000e+000) (120, 1.78343541989036370000e+000) (121, 9.79554940327061920000e-001) 