FANN_FLO_2.1
num_layers=3
learning_rate=0.300000
connection_rate=1.000000
network_type=0
learning_momentum=0.000000
training_algorithm=2
train_error_function=1
train_stop_function=0
cascade_output_change_fraction=0.010000
quickprop_decay=-0.000100
quickprop_mu=1.750000
rprop_increase_factor=1.200000
rprop_decrease_factor=0.500000
rprop_delta_min=0.000000
rprop_delta_max=50.000000
rprop_delta_zero=0.100000
cascade_output_stagnation_epochs=12
cascade_candidate_change_fraction=0.010000
cascade_candidate_stagnation_epochs=12
cascade_max_out_epochs=150
cascade_max_cand_epochs=150
cascade_num_candidate_groups=2
bit_fail_limit=3.49999999999999980000e-001
cascade_candidate_limit=1.00000000000000000000e+003
cascade_weight_multiplier=4.00000000000000020000e-001
cascade_activation_functions_count=10
cascade_activation_functions=3 5 7 8 10 11 14 15 16 17 
cascade_activation_steepnesses_count=4
cascade_activation_steepnesses=2.50000000000000000000e-001 5.00000000000000000000e-001 7.50000000000000000000e-001 1.00000000000000000000e+000 
layer_sizes=325 109 31 
scale_included=0
neurons (num_inputs, activation_function, activation_steepness)=(0, 0, 0.00000000000000000000e+000) (0, 0, 0.00000000000000000000e+000) (0, 0, 0.00000000000000000000e+000) (0, 0, 0.00000000000000000000e+000) (0, 0, 0.00000000000000000000e+000) (0, 0, 0.00000000000000000000e+000) (0, 0, 0.00000000000000000000e+000) (0, 0, 0.00000000000000000000e+000) (0, 0, 0.00000000000000000000e+000) (0, 0, 0.00000000000000000000e+000) (0, 0, 0.00000000000000000000e+000) (0, 0, 0.00000000000000000000e+000) (0, 0, 0.00000000000000000000e+000) (0, 0, 0.00000000000000000000e+000) (0, 0, 0.00000000000000000000e+000) (0, 0, 0.00000000000000000000e+000) (0, 0, 0.00000000000000000000e+000) (0, 0, 0.00000000000000000000e+000) (0, 0, 0.00000000000000000000e+000) (0, 0, 0.00000000000000000000e+000) (0, 0, 0.00000000000000000000e+000) (0, 0, 0.00000000000000000000e+000) (0, 0, 0.00000000000000000000e+000) (0, 0, 0.00000000000000000000e+000) (0, 0, 0.00000000000000000000e+000) (0, 0, 0.00000000000000000000e+000) (0, 0, 0.00000000000000000000e+000) (0, 0, 0.00000000000000000000e+000) (0, 0, 0.00000000000000000000e+000) (0, 0, 0.00000000000000000000e+000) (0, 0, 0.00000000000000000000e+000) (0, 0, 0.00000000000000000000e+000) (0, 0, 0.00000000000000000000e+000) (0, 0, 0.00000000000000000000e+000) (0, 0, 0.00000000000000000000e+000) (0, 0, 0.00000000000000000000e+000) (0, 0, 0.00000000000000000000e+000) (0, 0, 0.00000000000000000000e+000) (0, 0, 0.00000000000000000000e+000) (0, 0, 0.00000000000000000000e+000) (0, 0, 0.00000000000000000000e+000) (0, 0, 0.00000000000000000000e+000) (0, 0, 0.00000000000000000000e+000) (0, 0, 0.00000000000000000000e+000) (0, 0, 0.00000000000000000000e+000) (0, 0, 0.00000000000000000000e+000) (0, 0, 0.00000000000000000000e+000) (0, 0, 0.00000000000000000000e+000) (0, 0, 0.00000000000000000000e+000) (0, 0, 0.00000000000000000000e+000) (0, 0, 0.00000000000000000000e+000) (0, 0, 0.00000000000000000000e+000) (0, 0, 0.00000000000000000000e+000) (0, 0, 0.00000000000000000000e+000) (0, 0, 0.00000000000000000000e+000) (0, 0, 0.00000000000000000000e+000) (0, 0, 0.00000000000000000000e+000) (0, 0, 0.00000000000000000000e+000) (0, 0, 0.00000000000000000000e+000) (0, 0, 0.00000000000000000000e+000) (0, 0, 0.00000000000000000000e+000) (0, 0, 0.00000000000000000000e+000) (0, 0, 0.00000000000000000000e+000) (0, 0, 0.00000000000000000000e+000) (0, 0, 0.00000000000000000000e+000) (0, 0, 0.00000000000000000000e+000) (0, 0, 0.00000000000000000000e+000) (0, 0, 0.00000000000000000000e+000) (0, 0, 0.00000000000000000000e+000) (0, 0, 0.00000000000000000000e+000) (0, 0, 0.00000000000000000000e+000) (0, 0, 0.00000000000000000000e+000) (0, 0, 0.00000000000000000000e+000) (0, 0, 0.00000000000000000000e+000) (0, 0, 0.00000000000000000000e+000) (0, 0, 0.00000000000000000000e+000) (0, 0, 0.00000000000000000000e+000) (0, 0, 0.00000000000000000000e+000) (0, 0, 0.00000000000000000000e+000) (0, 0, 0.00000000000000000000e+000) (0, 0, 0.00000000000000000000e+000) (0, 0, 0.00000000000000000000e+000) (0, 0, 0.00000000000000000000e+000) (0, 0, 0.00000000000000000000e+000) (0, 0, 0.00000000000000000000e+000) (0, 0, 0.00000000000000000000e+000) (0, 0, 0.00000000000000000000e+000) (0, 0, 0.00000000000000000000e+000) (0, 0, 0.00000000000000000000e+000) (0, 0, 0.00000000000000000000e+000) (0, 0, 0.00000000000000000000e+000) (0, 0, 0.00000000000000000000e+000) (0, 0, 0.00000000000000000000e+000) (0, 0, 0.00000000000000000000e+000) (0, 0, 0.00000000000000000000e+000) (0, 0, 0.00000000000000000000e+000) (0, 0, 0.00000000000000000000e+000) (0, 0, 0.00000000000000000000e+000) (0, 0, 0.00000000000000000000e+000) (0, 0, 0.00000000000000000000e+000) (0, 0, 0.00000000000000000000e+000) (0, 0, 0.00000000000000000000e+000) (0, 0, 0.00000000000000000000e+000) (0, 0, 0.00000000000000000000e+000) (0, 0, 0.00000000000000000000e+000) (0, 0, 0.00000000000000000000e+000) (0, 0, 0.00000000000000000000e+000) (0, 0, 0.00000000000000000000e+000) (0, 0, 0.00000000000000000000e+000) (0, 0, 0.00000000000000000000e+000) (0, 0, 0.00000000000000000000e+000) (0, 0, 0.00000000000000000000e+000) (0, 0, 0.00000000000000000000e+000) (0, 0, 0.00000000000000000000e+000) (0, 0, 0.00000000000000000000e+000) (0, 0, 0.00000000000000000000e+000) (0, 0, 0.00000000000000000000e+000) (0, 0, 0.00000000000000000000e+000) (0, 0, 0.00000000000000000000e+000) (0, 0, 0.00000000000000000000e+000) (0, 0, 0.00000000000000000000e+000) (0, 0, 0.00000000000000000000e+000) (0, 0, 0.00000000000000000000e+000) (0, 0, 0.00000000000000000000e+000) (0, 0, 0.00000000000000000000e+000) (0, 0, 0.00000000000000000000e+000) (0, 0, 0.00000000000000000000e+000) (0, 0, 0.00000000000000000000e+000) (0, 0, 0.00000000000000000000e+000) (0, 0, 0.00000000000000000000e+000) (0, 0, 0.00000000000000000000e+000) (0, 0, 0.00000000000000000000e+000) (0, 0, 0.00000000000000000000e+000) (0, 0, 0.00000000000000000000e+000) (0, 0, 0.00000000000000000000e+000) (0, 0, 0.00000000000000000000e+000) (0, 0, 0.00000000000000000000e+000) (0, 0, 0.00000000000000000000e+000) (0, 0, 0.00000000000000000000e+000) (0, 0, 0.00000000000000000000e+000) (0, 0, 0.00000000000000000000e+000) (0, 0, 0.00000000000000000000e+000) (0, 0, 0.00000000000000000000e+000) (0, 0, 0.00000000000000000000e+000) (0, 0, 0.00000000000000000000e+000) (0, 0, 0.00000000000000000000e+000) (0, 0, 0.00000000000000000000e+000) (0, 0, 0.00000000000000000000e+000) (0, 0, 0.00000000000000000000e+000) (0, 0, 0.00000000000000000000e+000) (0, 0, 0.00000000000000000000e+000) (0, 0, 0.00000000000000000000e+000) (0, 0, 0.00000000000000000000e+000) (0, 0, 0.00000000000000000000e+000) (0, 0, 0.00000000000000000000e+000) (0, 0, 0.00000000000000000000e+000) (0, 0, 0.00000000000000000000e+000) (0, 0, 0.00000000000000000000e+000) (0, 0, 0.00000000000000000000e+000) (0, 0, 0.00000000000000000000e+000) (0, 0, 0.00000000000000000000e+000) (0, 0, 0.00000000000000000000e+000) (0, 0, 0.00000000000000000000e+000) (0, 0, 0.00000000000000000000e+000) (0, 0, 0.00000000000000000000e+000) (0, 0, 0.00000000000000000000e+000) (0, 0, 0.00000000000000000000e+000) (0, 0, 0.00000000000000000000e+000) (0, 0, 0.00000000000000000000e+000) (0, 0, 0.00000000000000000000e+000) (0, 0, 0.00000000000000000000e+000) (0, 0, 0.00000000000000000000e+000) (0, 0, 0.00000000000000000000e+000) (0, 0, 0.00000000000000000000e+000) (0, 0, 0.00000000000000000000e+000) (0, 0, 0.00000000000000000000e+000) (0, 0, 0.00000000000000000000e+000) (0, 0, 0.00000000000000000000e+000) (0, 0, 0.00000000000000000000e+000) (0, 0, 0.00000000000000000000e+000) (0, 0, 0.00000000000000000000e+000) (0, 0, 0.00000000000000000000e+000) (0, 0, 0.00000000000000000000e+000) (0, 0, 0.00000000000000000000e+000) (0, 0, 0.00000000000000000000e+000) (0, 0, 0.00000000000000000000e+000) (0, 0, 0.00000000000000000000e+000) (0, 0, 0.00000000000000000000e+000) (0, 0, 0.00000000000000000000e+000) (0, 0, 0.00000000000000000000e+000) (0, 0, 0.00000000000000000000e+000) (0, 0, 0.00000000000000000000e+000) (0, 0, 0.00000000000000000000e+000) (0, 0, 0.00000000000000000000e+000) (0, 0, 0.00000000000000000000e+000) (0, 0, 0.00000000000000000000e+000) (0, 0, 0.00000000000000000000e+000) (0, 0, 0.00000000000000000000e+000) (0, 0, 0.00000000000000000000e+000) (0, 0, 0.00000000000000000000e+000) (0, 0, 0.00000000000000000000e+000) (0, 0, 0.00000000000000000000e+000) (0, 0, 0.00000000000000000000e+000) (0, 0, 0.00000000000000000000e+000) (0, 0, 0.00000000000000000000e+000) (0, 0, 0.00000000000000000000e+000) (0, 0, 0.00000000000000000000e+000) (0, 0, 0.00000000000000000000e+000) (0, 0, 0.00000000000000000000e+000) (0, 0, 0.00000000000000000000e+000) (0, 0, 0.00000000000000000000e+000) (0, 0, 0.00000000000000000000e+000) (0, 0, 0.00000000000000000000e+000) (0, 0, 0.00000000000000000000e+000) (0, 0, 0.00000000000000000000e+000) (0, 0, 0.00000000000000000000e+000) (0, 0, 0.00000000000000000000e+000) (0, 0, 0.00000000000000000000e+000) (0, 0, 0.00000000000000000000e+000) (0, 0, 0.00000000000000000000e+000) (0, 0, 0.00000000000000000000e+000) (0, 0, 0.00000000000000000000e+000) (0, 0, 0.00000000000000000000e+000) (0, 0, 0.00000000000000000000e+000) (0, 0, 0.00000000000000000000e+000) (0, 0, 0.00000000000000000000e+000) (0, 0, 0.00000000000000000000e+000) (0, 0, 0.00000000000000000000e+000) (0, 0, 0.00000000000000000000e+000) (0, 0, 0.00000000000000000000e+000) (0, 0, 0.00000000000000000000e+000) (0, 0, 0.00000000000000000000e+000) (0, 0, 0.00000000000000000000e+000) (0, 0, 0.00000000000000000000e+000) (0, 0, 0.00000000000000000000e+000) (0, 0, 0.00000000000000000000e+000) (0, 0, 0.00000000000000000000e+000) (0, 0, 0.00000000000000000000e+000) (0, 0, 0.00000000000000000000e+000) (0, 0, 0.00000000000000000000e+000) (0, 0, 0.00000000000000000000e+000) (0, 0, 0.00000000000000000000e+000) (0, 0, 0.00000000000000000000e+000) (0, 0, 0.00000000000000000000e+000) (0, 0, 0.00000000000000000000e+000) (0, 0, 0.00000000000000000000e+000) (0, 0, 0.00000000000000000000e+000) (0, 0, 0.00000000000000000000e+000) (0, 0, 0.00000000000000000000e+000) (0, 0, 0.00000000000000000000e+000) (0, 0, 0.00000000000000000000e+000) (0, 0, 0.00000000000000000000e+000) (0, 0, 0.00000000000000000000e+000) (0, 0, 0.00000000000000000000e+000) (0, 0, 0.00000000000000000000e+000) (0, 0, 0.00000000000000000000e+000) (0, 0, 0.00000000000000000000e+000) (0, 0, 0.00000000000000000000e+000) (0, 0, 0.00000000000000000000e+000) (0, 0, 0.00000000000000000000e+000) (0, 0, 0.00000000000000000000e+000) (0, 0, 0.00000000000000000000e+000) (0, 0, 0.00000000000000000000e+000) (0, 0, 0.00000000000000000000e+000) (0, 0, 0.00000000000000000000e+000) (0, 0, 0.00000000000000000000e+000) (0, 0, 0.00000000000000000000e+000) (0, 0, 0.00000000000000000000e+000) (0, 0, 0.00000000000000000000e+000) (0, 0, 0.00000000000000000000e+000) (0, 0, 0.00000000000000000000e+000) (0, 0, 0.00000000000000000000e+000) (0, 0, 0.00000000000000000000e+000) (0, 0, 0.00000000000000000000e+000) (0, 0, 0.00000000000000000000e+000) (0, 0, 0.00000000000000000000e+000) (0, 0, 0.00000000000000000000e+000) (0, 0, 0.00000000000000000000e+000) (0, 0, 0.00000000000000000000e+000) (0, 0, 0.00000000000000000000e+000) (0, 0, 0.00000000000000000000e+000) (0, 0, 0.00000000000000000000e+000) (0, 0, 0.00000000000000000000e+000) (0, 0, 0.00000000000000000000e+000) (0, 0, 0.00000000000000000000e+000) (0, 0, 0.00000000000000000000e+000) (0, 0, 0.00000000000000000000e+000) (0, 0, 0.00000000000000000000e+000) (0, 0, 0.00000000000000000000e+000) (0, 0, 0.00000000000000000000e+000) (0, 0, 0.00000000000000000000e+000) (0, 0, 0.00000000000000000000e+000) (0, 0, 0.00000000000000000000e+000) (0, 0, 0.00000000000000000000e+000) (0, 0, 0.00000000000000000000e+000) (0, 0, 0.00000000000000000000e+000) (0, 0, 0.00000000000000000000e+000) (0, 0, 0.00000000000000000000e+000) (0, 0, 0.00000000000000000000e+000) (0, 0, 0.00000000000000000000e+000) (0, 0, 0.00000000000000000000e+000) (0, 0, 0.00000000000000000000e+000) (0, 0, 0.00000000000000000000e+000) (0, 0, 0.00000000000000000000e+000) (0, 0, 0.00000000000000000000e+000) (0, 0, 0.00000000000000000000e+000) (0, 0, 0.00000000000000000000e+000) (0, 0, 0.00000000000000000000e+000) (0, 0, 0.00000000000000000000e+000) (0, 0, 0.00000000000000000000e+000) (0, 0, 0.00000000000000000000e+000) (0, 0, 0.00000000000000000000e+000) (0, 0, 0.00000000000000000000e+000) (0, 0, 0.00000000000000000000e+000) (0, 0, 0.00000000000000000000e+000) (0, 0, 0.00000000000000000000e+000) (0, 0, 0.00000000000000000000e+000) (0, 0, 0.00000000000000000000e+000) (0, 0, 0.00000000000000000000e+000) (0, 0, 0.00000000000000000000e+000) (0, 0, 0.00000000000000000000e+000) (0, 0, 0.00000000000000000000e+000) (0, 0, 0.00000000000000000000e+000) (0, 0, 0.00000000000000000000e+000) (0, 0, 0.00000000000000000000e+000) (325, 6, 5.00000000000000000000e-001) (325, 6, 5.00000000000000000000e-001) (325, 6, 5.00000000000000000000e-001) (325, 6, 5.00000000000000000000e-001) (325, 6, 5.00000000000000000000e-001) (325, 6, 5.00000000000000000000e-001) (325, 6, 5.00000000000000000000e-001) (325, 6, 5.00000000000000000000e-001) (325, 6, 5.00000000000000000000e-001) (325, 6, 5.00000000000000000000e-001) (325, 6, 5.00000000000000000000e-001) (325, 6, 5.00000000000000000000e-001) (325, 6, 5.00000000000000000000e-001) (325, 6, 5.00000000000000000000e-001) (325, 6, 5.00000000000000000000e-001) (325, 6, 5.00000000000000000000e-001) (325, 6, 5.00000000000000000000e-001) (325, 6, 5.00000000000000000000e-001) (325, 6, 5.00000000000000000000e-001) (325, 6, 5.00000000000000000000e-001) (325, 6, 5.00000000000000000000e-001) (325, 6, 5.00000000000000000000e-001) (325, 6, 5.00000000000000000000e-001) (325, 6, 5.00000000000000000000e-001) (325, 6, 5.00000000000000000000e-001) (325, 6, 5.00000000000000000000e-001) (325, 6, 5.00000000000000000000e-001) (325, 6, 5.00000000000000000000e-001) (325, 6, 5.00000000000000000000e-001) (325, 6, 5.00000000000000000000e-001) (325, 6, 5.00000000000000000000e-001) (325, 6, 5.00000000000000000000e-001) (325, 6, 5.00000000000000000000e-001) (325, 6, 5.00000000000000000000e-001) (325, 6, 5.00000000000000000000e-001) (325, 6, 5.00000000000000000000e-001) (325, 6, 5.00000000000000000000e-001) (325, 6, 5.00000000000000000000e-001) (325, 6, 5.00000000000000000000e-001) (325, 6, 5.00000000000000000000e-001) (325, 6, 5.00000000000000000000e-001) (325, 6, 5.00000000000000000000e-001) (325, 6, 5.00000000000000000000e-001) (325, 6, 5.00000000000000000000e-001) (325, 6, 5.00000000000000000000e-001) (325, 6, 5.00000000000000000000e-001) (325, 6, 5.00000000000000000000e-001) (325, 6, 5.00000000000000000000e-001) (325, 6, 5.00000000000000000000e-001) (325, 6, 5.00000000000000000000e-001) (325, 6, 5.00000000000000000000e-001) (325, 6, 5.00000000000000000000e-001) (325, 6, 5.00000000000000000000e-001) (325, 6, 5.00000000000000000000e-001) (325, 6, 5.00000000000000000000e-001) (325, 6, 5.00000000000000000000e-001) (325, 6, 5.00000000000000000000e-001) (325, 6, 5.00000000000000000000e-001) (325, 6, 5.00000000000000000000e-001) (325, 6, 5.00000000000000000000e-001) (325, 6, 5.00000000000000000000e-001) (325, 6, 5.00000000000000000000e-001) (325, 6, 5.00000000000000000000e-001) (325, 6, 5.00000000000000000000e-001) (325, 6, 5.00000000000000000000e-001) (325, 6, 5.00000000000000000000e-001) (325, 6, 5.00000000000000000000e-001) (325, 6, 5.00000000000000000000e-001) (325, 6, 5.00000000000000000000e-001) (325, 6, 5.00000000000000000000e-001) (325, 6, 5.00000000000000000000e-001) (325, 6, 5.00000000000000000000e-001) (325, 6, 5.00000000000000000000e-001) (325, 6, 5.00000000000000000000e-001) (325, 6, 5.00000000000000000000e-001) (325, 6, 5.00000000000000000000e-001) (325, 6, 5.00000000000000000000e-001) (325, 6, 5.00000000000000000000e-001) (325, 6, 5.00000000000000000000e-001) (325, 6, 5.00000000000000000000e-001) (325, 6, 5.00000000000000000000e-001) (325, 6, 5.00000000000000000000e-001) (325, 6, 5.00000000000000000000e-001) (325, 6, 5.00000000000000000000e-001) (325, 6, 5.00000000000000000000e-001) (325, 6, 5.00000000000000000000e-001) (325, 6, 5.00000000000000000000e-001) (325, 6, 5.00000000000000000000e-001) (325, 6, 5.00000000000000000000e-001) (325, 6, 5.00000000000000000000e-001) (325, 6, 5.00000000000000000000e-001) (325, 6, 5.00000000000000000000e-001) (325, 6, 5.00000000000000000000e-001) (325, 6, 5.00000000000000000000e-001) (325, 6, 5.00000000000000000000e-001) (325, 6, 5.00000000000000000000e-001) (325, 6, 5.00000000000000000000e-001) (325, 6, 5.00000000000000000000e-001) (325, 6, 5.00000000000000000000e-001) (325, 6, 5.00000000000000000000e-001) (325, 6, 5.00000000000000000000e-001) (325, 6, 5.00000000000000000000e-001) (325, 6, 5.00000000000000000000e-001) (325, 6, 5.00000000000000000000e-001) (325, 6, 5.00000000000000000000e-001) (325, 6, 5.00000000000000000000e-001) (325, 6, 5.00000000000000000000e-001) (325, 6, 5.00000000000000000000e-001) (0, 6, 0.00000000000000000000e+000) (109, 6, 5.00000000000000000000e-001) (109, 6, 5.00000000000000000000e-001) (109, 6, 5.00000000000000000000e-001) (109, 6, 5.00000000000000000000e-001) (109, 6, 5.00000000000000000000e-001) (109, 6, 5.00000000000000000000e-001) (109, 6, 5.00000000000000000000e-001) (109, 6, 5.00000000000000000000e-001) (109, 6, 5.00000000000000000000e-001) (109, 6, 5.00000000000000000000e-001) (109, 6, 5.00000000000000000000e-001) (109, 6, 5.00000000000000000000e-001) (109, 6, 5.00000000000000000000e-001) (109, 6, 5.00000000000000000000e-001) (109, 6, 5.00000000000000000000e-001) (109, 6, 5.00000000000000000000e-001) (109, 6, 5.00000000000000000000e-001) (109, 6, 5.00000000000000000000e-001) (109, 6, 5.00000000000000000000e-001) (109, 6, 5.00000000000000000000e-001) (109, 6, 5.00000000000000000000e-001) (109, 6, 5.00000000000000000000e-001) (109, 6, 5.00000000000000000000e-001) (109, 6, 5.00000000000000000000e-001) (109, 6, 5.00000000000000000000e-001) (109, 6, 5.00000000000000000000e-001) (109, 6, 5.00000000000000000000e-001) (109, 6, 5.00000000000000000000e-001) (109, 6, 5.00000000000000000000e-001) (109, 6, 5.00000000000000000000e-001) (0, 6, 0.00000000000000000000e+000) 
connections (connected_to_neuron, weight)=(0, 1.52346640141869340000e+000) (1, 1.30272482328695170000e+000) (2, 1.02513414082352730000e+000) (3, 1.63872458385423590000e+000) (4, 1.51061169301332950000e+000) (5, 1.14629448897969530000e+000) (6, 1.24471090506379170000e+000) (7, 2.80835597312372490000e+000) (8, 1.28299845855598790000e+000) (9, 1.16385803727911190000e+000) (10, 1.31491020205656950000e+000) (11, 1.80177383912930030000e+000) (12, 1.24130918529500470000e+000) (13, 1.22672704185807290000e+000) (14, 1.30942967980918820000e+000) (15, 2.77772119157688650000e+000) (16, 2.78871362338131150000e+000) (17, 2.68602807497617760000e+000) (18, 7.45870954013431510000e-001) (19, -6.43869798762654710000e-001) (20, -5.22229420954179670000e-002) (21, -4.33443342759182450000e-001) (22, -1.39992161969212200000e+000) (23, -4.32325995635549810000e+000) (24, -4.40396674466749790000e+000) (25, -1.91163057848478120000e-001) (26, -5.11123671952908420000e-001) (27, -5.67328670958239020000e-001) (28, -8.90351369766060550000e-001) (29, -9.06673816192068440000e-002) (30, 5.53274263238368380000e-002) (31, 2.56042749919053900000e-001) (32, 5.56138752885635750000e-001) (33, 4.98729893957959470000e-001) (34, 5.35493996354293840000e-001) (35, 1.18521098224277100000e+000) (36, 2.97932332561195670000e-001) (37, -3.99508630604012700000e-001) (38, -1.31693172638400940000e-001) (39, -9.72380471916551080000e-001) (40, -7.32558538916109000000e-001) (41, -2.16887394979832140000e+000) (42, -2.00814256562665300000e-001) (43, -4.16921878711134950000e-001) (44, -6.74763591502755890000e-001) (45, -6.06092154819553250000e-001) (46, -8.51288091734348380000e-001) (47, -4.46848607007830800000e+000) (48, -2.67425326496927350000e-001) (49, 7.61772885791116850000e-002) (50, -1.99423264350819810000e-001) (51, 3.23619178772074970000e-001) (52, 6.24718869421941880000e-001) (53, 7.20847225700760990000e-001) (54, 5.03485612481525680000e-001) (55, 1.07252782469420940000e+000) (56, -2.85043021497608630000e-001) (57, -2.05893384491108830000e+000) (58, 5.93255404672591230000e-002) (59, -5.20147111109798390000e-001) (60, 1.04459237899923060000e+000) (61, 4.10903449806208690000e-001) (62, 7.10211517261637450000e-001) (63, 7.83589917701831010000e-002) (64, 1.17716938457126270000e-001) (65, -2.77579626181496840000e-001) (66, 6.50373131580561090000e-002) (67, 1.38589661582803920000e-001) (68, 2.29439950846329480000e-001) (69, 1.54381288142150460000e+000) (70, 4.82741794530845480000e-001) (71, 2.67085727204605620000e+000) (72, 3.55663512252230310000e-001) (73, 8.66033927174198360000e-001) (74, 2.32800717616228310000e-001) (75, -3.71076306972686010000e-001) (76, 1.12575753288689960000e+000) (77, 6.56107236961447020000e-001) (78, 5.46568320389766770000e-001) (79, 2.01361803464849580000e-001) (80, 5.05118348317644350000e-001) (81, 6.75944915053178660000e-001) (82, 6.99785683009564120000e-001) (83, 3.93327030276430120000e-001) (84, 4.13805899054893890000e+000) (85, 4.19504800135863940000e-001) (86, 5.17311565821111370000e-001) (87, 9.47348748562652830000e-001) (88, 4.24888835868751420000e-001) (89, 1.24787039446256860000e+000) (90, 4.61575973744260130000e-001) (91, 8.97724790542628210000e-001) (92, 5.07956106350746510000e-001) (93, -4.59753738453951180000e-001) (94, 5.65882987940193090000e-001) (95, 1.76510763992921760000e-001) (96, 6.16795665178397570000e-001) (97, 5.72143256410664880000e-001) (98, 5.72709183631558870000e-001) (99, 3.86896672477242350000e-001) (100, 4.23185665287203250000e-001) (101, 1.00162422732416800000e+000) (102, 8.07810848486209880000e-001) (103, 8.50489792046810300000e-001) (104, 1.68838069280070320000e+000) (105, 7.31199653489228000000e-001) (106, 4.99989558634595270000e-001) (107, 1.12463799514387990000e+000) (108, 3.72461295794448480000e-001) (109, 9.67022183239495850000e-001) (110, 4.94430383691746360000e-001) (111, 1.19409941981515900000e-001) (112, 1.47176708037598770000e-001) (113, 1.14763139694934400000e-001) (114, 4.48599055084946190000e-001) (115, 6.83710792532995160000e-001) (116, 5.88391819631928660000e-001) (117, 2.99692863172922650000e-001) (118, 4.05452634958748610000e-001) (119, 5.70363830806815740000e-001) (120, 4.63167441160408980000e-001) (121, -6.47585525979854080000e-002) (122, 2.24673451243018490000e-001) (123, 9.15642566391535740000e-001) (124, 5.55810870206087550000e-001) (125, 9.65513400186135520000e-001) (126, 3.47218937046783140000e-001) (127, 5.25092058115986800000e-001) (128, 4.47735685792369110000e-001) (129, 1.99883242055807930000e-001) (130, 6.39906383193114770000e-001) (131, -6.53961724228523060000e-001) (132, 3.23140686447788430000e-001) (133, 9.72907861046268250000e-002) (134, 6.50003158703120750000e-001) (135, 3.14183139658648800000e-001) (136, 4.56526644373292210000e-001) (137, 2.64528324621651540000e-001) (138, 3.69686457955548050000e-001) (139, 2.62840579221546080000e-001) (140, 1.02255330009808510000e+000) (141, 1.02587972616054900000e+000) (142, 3.87122420348546330000e-001) (143, 1.13068047570266980000e+000) (144, 4.44658478122859580000e-001) (145, 4.45759548310614930000e-001) (146, 3.59205169896129610000e-001) (147, 1.54325137297409710000e-001) (148, 3.33512746276682980000e-001) (149, 4.17699003182677940000e-001) (150, -5.21639885136013560000e-001) (151, 7.06519571771350500000e-001) (152, 4.50154262641659570000e-002) (153, -1.28065689707918210000e+000) (154, -2.86546848988692260000e-001) (155, -9.14475694457276390000e-001) (156, -8.59725745374070200000e-001) (157, -9.49021969557135580000e-001) (158, 4.60987337181530120000e-001) (159, 1.08080059055054360000e+000) (160, 6.40395274137951160000e-001) (161, 6.32899241275899690000e-001) (162, 1.16808279767214880000e+000) (163, 3.20558065869049610000e-001) (164, 4.76303044494867990000e-001) (165, 1.64232636363559860000e-001) (166, 2.28259149350450440000e-001) (167, 4.04948109528356140000e-001) (168, 9.04623752433330710000e-001) (169, 8.17343022697574200000e-001) (170, -3.15669723924598480000e-002) (171, -2.61401668349473540000e-001) (172, -1.16310003987116660000e-001) (173, -1.38330538801548570000e+000) (174, -1.41373581340303050000e+000) (175, -8.54821738216357540000e-001) (176, 2.05054967263550330000e-001) (177, 5.78415867779507260000e-001) (178, 4.66812894847383590000e-001) (179, 4.26869501162419510000e-001) (180, 1.31606863972105950000e+000) (181, 3.90139148947450330000e-001) (182, 4.03240014643521160000e-001) (183, 1.90399466117011390000e-001) (184, 2.31941952941940590000e-001) (185, 3.75476939265711520000e-001) (186, 4.74972441364593990000e-001) (187, 6.93336353859779100000e-001) (188, 1.45555129012659120000e+000) (189, 4.59750698133424340000e-001) (190, 1.47814808051728770000e+000) (191, -1.19136127598813730000e-001) (192, -6.91767203309281880000e+000) (193, -5.84290547862708840000e-001) (194, -2.23630226559097480000e-001) (195, 2.45347956233800850000e-001) (196, 4.56068889051645720000e-001) (197, 5.35153154975555600000e-001) (198, 1.27670096335318540000e+000) (199, 7.01787424437132930000e-001) (200, 5.39079738059626390000e-001) (201, 3.73316511745804880000e-001) (202, 1.96789830939107980000e-001) (203, 4.77068721138574740000e-001) (204, 4.36878748062397130000e-001) (205, 3.11948069139317110000e-001) (206, 5.45601909948890240000e-001) (207, 1.73696868790123250000e-001) (208, 6.04091712483396210000e-001) (209, 5.19062614226138970000e-001) (210, 4.49475707261777710000e-001) (211, 1.97150068410172320000e-001) (212, 1.64510062361796800000e-001) (213, 9.73391347161079170000e-002) (214, -1.20834474739323600000e-001) (215, 2.06315077023657890000e-001) (216, 2.00461647476223210000e+000) (217, 1.75154423732254850000e+000) (218, 4.84193336286113720000e-001) (219, 3.33994897363421360000e-001) (220, 4.65844059481674950000e-001) (221, 5.02214878610452330000e-001) (222, 5.09376404034319940000e-001) (223, 3.40543957788299210000e-001) (224, 2.59236764837186110000e-001) (225, 1.49350363894644070000e-001) (226, 4.84739886931434440000e-001) (227, 4.51894461030362350000e-001) (228, 4.06156947815012550000e-001) (229, 4.78708661607110400000e-001) (230, 2.86562205468705200000e-001) (231, 2.60945939674427860000e-001) (232, 2.68150264700785290000e-001) (233, 1.04724560606649610000e-001) (234, 1.75835953184175180000e+000) (235, 4.33528336637227900000e-001) (236, 5.50626784789887800000e-001) (237, 3.39237261356833410000e-001) (238, 6.49402144999586480000e-001) (239, 4.54355931927034770000e-001) (240, 7.78229722415632600000e-001) (241, 1.09703165374483610000e+000) (242, 2.29062971551794200000e-001) (243, 2.40794005390227270000e-001) (244, 2.63637179291455750000e-001) (245, 5.08513008359624990000e-001) (246, 4.87931585373697800000e-001) (247, 5.37891787564162000000e-001) (248, 3.02155439956787560000e-001) (249, 3.00608365980714780000e-001) (250, 4.17951333627031300000e-001) (251, -4.31051381613950720000e-002) (252, 1.49884579975389000000e+000) (253, 5.49283879857090150000e-001) (254, 1.01642824719009320000e+000) (255, 3.54526474801274420000e-001) (256, 4.24221928878597440000e-001) (257, 1.09084341639626850000e-001) (258, -9.19925224919732390000e-001) (259, 7.39061678526182320000e-001) (260, 2.65220404441643630000e-001) (261, 3.24520305402501650000e-001) (262, 6.46270938706559160000e-001) (263, 3.41017667073107320000e+000) (264, 5.42249650102172300000e-001) (265, -1.60622469983051520000e+000) (266, -1.21754178443634910000e-001) (267, -5.09750369903864270000e-002) (268, 1.30447769069794630000e-001) (269, -1.20102074997804440000e-001) (270, 6.52906413969223550000e-001) (271, 6.73628228873318860000e-001) (272, 4.87747867345086680000e-001) (273, 2.56880669696492090000e-001) (274, -2.01049573398684790000e-001) (275, -1.10509142056562260000e-001) (276, -1.48040262482676630000e+000) (277, -1.20398569063234720000e-001) (278, -5.41220327624559740000e-001) (279, -2.03083294290862660000e-001) (280, 2.42922929127308620000e-001) (281, 8.53263926045247920000e-002) (282, -4.58878949449989420000e-001) (283, -1.96221366203848020000e+000) (284, -5.61257973871815490000e-002) (285, -4.79788706987578690000e-001) (286, 1.19863887549373540000e-001) (287, 6.13053026257981080000e-001) (288, 9.84608131630262510000e-001) (289, 9.75205710661820380000e-001) (290, 4.24782810298636900000e-001) (291, -9.96490098705746670000e-001) (292, -8.54276525369591750000e-001) (293, -1.84011590825773150000e-001) (294, 6.52959932339722830000e-002) (295, 9.84327146580764030000e-002) (296, -2.01697770525096550000e-001) (297, -3.08689811051555800000e-001) (298, -2.83236349492355650000e-001) (299, -2.00175042558490200000e-001) (300, -3.43945814166166990000e-001) (301, -2.60482160003334570000e-001) (302, -1.61066032460160740000e+000) (303, -3.24766208939102490000e+000) (304, 4.88382183799102370000e-001) (305, 7.87191806460544320000e-001) (306, 1.41890199019258010000e+000) (307, 1.71352491136822000000e+000) (308, 3.64004045560599790000e-001) (309, 4.12803072127925330000e-001) (310, 4.23414247513889670000e-001) (311, -5.67156758794513660000e-002) (312, 3.83941868474217520000e-001) (313, 4.36306789333864580000e-001) (314, 1.24233546819677130000e-001) (315, -9.85732645470159680000e-002) (316, 3.78324614291410180000e-001) (317, 7.36505244554526370000e-001) (318, 3.73811985953121210000e-001) (319, 5.15383619889182910000e-001) (320, 4.47167130034114570000e-001) (321, 3.55755295632203430000e-001) (322, 1.49273738599450080000e+000) (323, 1.37562285399210670000e+000) (324, -2.29104307200781100000e+000) (0, 7.50282431507321020000e-002) (1, 4.48919451339401390000e-002) (2, 1.18478634705301930000e-001) (3, 1.18356908801151110000e-001) (4, 9.19223173018018920000e-002) (5, -5.18838450446370970000e-002) (6, -1.18299256634530390000e-001) (7, 1.25740315131999740000e-001) (8, 1.93681255858681930000e-001) (9, 2.06896251863648770000e-001) (10, 1.68735328379492760000e-001) (11, 2.52798364799464330000e-001) (12, 2.73328624871277850000e-001) (13, 2.76080603209519270000e-001) (14, 1.67319885728238860000e-001) (15, -1.97153956049245020000e-001) (16, 2.01730291438975500000e-001) (17, 6.61416819725060560000e-002) (18, 5.36780045873972020000e-002) (19, 3.48998693804795650000e-001) (20, 4.92145916579029670000e-001) (21, 4.62080232605586730000e-001) (22, 4.97015142258190820000e-001) (23, 4.56767895050740670000e-001) (24, 4.60626785261577240000e-001) (25, 4.84793203857306450000e-001) (26, 1.27439772674167260000e-001) (27, 5.57595103883696370000e-001) (28, 1.49524523159340980000e-002) (29, 1.67495648407083450000e-001) (30, 2.57248851743175690000e-001) (31, 9.07099545660517010000e-002) (32, 8.71340961274676830000e-002) (33, -1.31707048437177650000e-001) (34, -5.38444526562206410000e-002) (35, 1.36104744300590970000e-001) (36, -4.60764539548115870000e-002) (37, 4.41028292071516840000e-001) (38, 4.79253856655984250000e-001) (39, 4.41459834528900030000e-001) (40, 5.46857271712445030000e-001) (41, 5.71096979062159280000e-001) (42, 4.59441223560370820000e-001) (43, 2.42709940231652460000e-001) (44, 4.71633820042222100000e-001) (45, 6.52370015948616990000e-001) (46, 7.55211676169294940000e-002) (47, 1.65356490322950860000e-001) (48, 1.87901602395787880000e-001) (49, 2.44049504099358990000e-001) (50, 7.24426863525410160000e-002) (51, 1.40527489792761220000e-001) (52, -6.84462218169571980000e-002) (53, -2.12429761391355910000e-001) (54, -1.74969844277723800000e-001) (55, -1.86417301165662210000e-001) (56, 4.21896826094577790000e-001) (57, 5.39157993266518700000e-001) (58, 4.39149284203722400000e-001) (59, 4.08811135950002120000e-001) (60, -4.18847754297270860000e-002) (61, 3.87715610466111250000e-001) (62, 5.41775422092941270000e-001) (63, 2.16128550854463500000e-001) (64, 1.09524473123647550000e-001) (65, 4.10908699913919220000e-002) (66, 4.27281927464376650000e-001) (67, -1.13792585010880990000e+000) (68, 2.05971167709797040000e-001) (69, 6.03278829676590840000e-002) (70, -1.63781252601381650000e-001) (71, -5.60632092689288820000e-002) (72, -2.10426408788003730000e-001) (73, -1.69518363104756350000e-001) (74, -1.42095585752030210000e-001) (75, 1.92714826241171740000e-002) (76, -2.77798136352252480000e-001) (77, 1.00195227404229760000e-002) (78, -1.17353172737813150000e-001) (79, -1.32247179522541360000e-001) (80, -1.58865298776128930000e-001) (81, -1.03066793503745150000e-001) (82, -2.82798250636428720000e-001) (83, -1.56088889648055810000e-001) (84, -1.06397009919659260000e+000) (85, -1.65503876152769780000e+000) (86, -1.40107068903048860000e-001) (87, -2.12866244899452360000e-001) (88, -3.30309980709108220000e-001) (89, -1.35284767641763590000e-001) (90, -1.89031842892776750000e-001) (91, -1.64934731283927180000e-002) (92, -1.58404630756374200000e-001) (93, -1.38671365820389520000e+000) (94, 1.22904081430353030000e+000) (95, -3.46844967437840430000e-001) (96, -1.29768962248389130000e-001) (97, -8.97289568034430190000e-002) (98, -9.91648110526570370000e-002) (99, -8.52363498104919400000e-002) (100, -7.31744404859727830000e-002) (101, 1.35965148641681830000e-001) (102, -8.17026648859668640000e-002) (103, -4.39652042228600330000e-001) (104, -1.33409989525981440000e+000) (105, -9.22823898577030840000e-001) (106, -4.08359105980159730000e-001) (107, 1.18912920280425800000e-001) (108, -1.04528082629918650000e-001) (109, 1.08401241923378900000e-003) (110, 2.74654308395870290000e-001) (111, 3.58649565602148060000e-001) (112, -6.84492816352479160000e-001) (113, -7.28023136232695880000e-001) (114, -1.40017082829897300000e-001) (115, -6.92098296953072150000e-002) (116, -1.07695865694978830000e-001) (117, -1.07912331244470790000e-001) (118, 1.22729498681229150000e-001) (119, -4.57383181695382240000e-002) (120, -8.42432002256299080000e-002) (121, -8.60047004368695970000e-001) (122, -1.22489318152814190000e+000) (123, -1.45578434886096810000e-001) (124, -1.53004559257142320000e-002) (125, 1.63826411384933260000e-001) (126, -4.61583958872657800000e-002) (127, -1.70850390526574800000e-001) (128, 9.04910585508044010000e-002) (129, 2.52569688567835240000e-001) (130, 2.44740253043849300000e-001) (131, -3.94167381807676300000e-001) (132, 4.40610580554785470000e-001) (133, 5.04834271979775900000e-002) (134, 3.30396905363203530000e-002) (135, 3.38835739028783330000e-001) (136, 4.33707450352962040000e-001) (137, 3.06139880231327880000e-001) (138, 1.09544375496327160000e+000) (139, -9.35634398308915480000e-002) (140, -2.49271159054480080000e-001) (141, -1.40325239884207200000e-002) (142, 3.93017954226619480000e-002) (143, 1.18875720638477500000e-001) (144, 1.90678881442442050000e-001) (145, -2.46469861779222280000e-002) (146, 2.02260827596410310000e-001) (147, 4.21466682959586840000e-001) (148, 3.07164982661324800000e-001) (149, 2.88293851781034280000e-001) (150, -3.45164879278239020000e-001) (151, -2.02474604451380550000e-001) (152, -5.82340783498107030000e-001) (153, 1.19391504906755820000e-001) (154, 5.57560444429823220000e-001) (155, 3.73102054331611420000e-001) (156, 6.02931436279993680000e-001) (157, 2.46784262829468220000e-001) (158, 4.69773955772062160000e-001) (159, 7.70115084335755850000e-002) (160, 1.63811116187566890000e-001) (161, 2.26723490998262720000e-001) (162, 1.83625333024819480000e-001) (163, -1.89401230648669150000e-001) (164, 2.59955513515805430000e-001) (165, -2.81853020232023020000e-001) (166, -1.35477636735835570000e-001) (167, 9.38944716704590290000e-002) (168, -4.75882479959898020000e-001) (169, -1.69459940074642180000e-001) (170, 2.05588628482646000000e-001) (171, 2.59037093383982900000e-001) (172, 3.23439370024112220000e-001) (173, 1.89234275950291490000e-001) (174, 1.66967897228513910000e-001) (175, 2.53191784681599420000e-001) (176, 1.20839681051758420000e+000) (177, 2.91272693714350830000e-001) (178, 1.83035500394388100000e-001) (179, 1.24517513370543720000e-001) (180, 2.52422497025880600000e-001) (181, -6.79858124096089920000e-002) (182, -1.95668005657252150000e-001) (183, -1.16790636275501570000e-001) (184, 1.75342252191231060000e-001) (185, -2.31542295518873560000e-001) (186, -2.09020868183560220000e-001) (187, 1.48577417679690930000e-001) (188, -1.26834801041484480000e-001) (189, -6.75090528625574840000e-002) (190, -1.49226289072693170000e-002) (191, 3.77992383968543460000e-001) (192, -1.61199558208535880000e-001) (193, -1.91198807719041300000e-001) (194, -1.69314648212987860000e-001) (195, -5.10331917982815300000e-002) (196, 2.68131736857008030000e-001) (197, 2.31354265163600610000e-001) (198, 1.07329721426329750000e-001) (199, 2.41501409073726030000e-001) (200, -6.55668722820734320000e-002) (201, 3.52507949477757760000e-001) (202, 2.37424448454195270000e-001) (203, -9.20684153317769950000e-002) (204, -6.29299367518062060000e-002) (205, -2.10472046847890450000e-001) (206, -1.33456385996410630000e-001) (207, -1.32349980681989220000e-001) (208, -2.46076690269553950000e-001) (209, -5.12951279674786040000e-001) (210, -1.86993247950235800000e+000) (211, -3.97526067866616930000e-001) (212, -5.32356903328485620000e-001) (213, -4.29635612034855670000e-001) (214, 1.50411537713524890000e-002) (215, -2.19552453394924190000e-001) (216, 2.41546096580352370000e-001) (217, 2.10138351280690830000e-001) (218, -1.60399158857395170000e-001) (219, -4.24486459455649460000e-002) (220, -6.42451494928037300000e-002) (221, -1.35792175415286400000e-001) (222, -5.96400417402436350000e-002) (223, -2.34071090436185490000e-001) (224, -7.73621228012531660000e-002) (225, -2.07396979768332460000e-001) (226, -1.35595431141227600000e-001) (227, -2.85272893645281970000e-001) (228, -4.57230944958387510000e-001) (229, -4.25372216372781830000e-001) (230, -2.26504023943536200000e-003) (231, -7.86879829687319180000e-002) (232, 1.55245602070032990000e-001) (233, -2.78260180572014900000e-001) (234, 8.29735642354983840000e-002) (235, 1.26823006247151450000e-001) (236, 1.36617703274155090000e-001) (237, -2.11356061414048420000e-001) (238, -1.10337535228152280000e-001) (239, 1.02028287477482160000e-001) (240, -1.06249348583578500000e-001) (241, 1.58784075777259230000e-002) (242, -3.02009559161809560000e-002) (243, -1.20104672731918220000e-001) (244, -2.40808067478040090000e-001) (245, -3.90893665771323730000e-001) (246, -1.88541835489792380000e+000) (247, -8.75431170975183530000e-001) (248, -3.30984337208062200000e-001) (249, 2.44599521360225810000e-001) (250, 4.59067133548084930000e-001) (251, -6.39564176917134800000e-002) (252, 9.56298084878629410000e-002) (253, 2.41252512755438100000e-001) (254, 8.70519297382150730000e-002) (255, -1.10050306504439250000e-001) (256, 4.40773507458601000000e-001) (257, 2.06600085795663360000e-002) (258, 1.30757373380476440000e-001) (259, 4.48789933756929270000e-002) (260, -1.40873133266983220000e-001) (261, -1.34467129558427770000e-001) (262, -2.28521661164918230000e-002) (263, 1.93811940040105960000e+000) (264, -1.42146194969015080000e+000) (265, -2.82399000386409680000e+000) (266, 2.31334536020637750000e-001) (267, 1.64489007618522940000e+000) (268, 1.03187943407894840000e-002) (269, -1.28033078416078530000e-001) (270, 1.38796066575868630000e-001) (271, 1.37138419377740960000e-001) (272, -2.96735035754127460000e-002) (273, -1.90209779472273240000e-001) (274, 7.99395400660516290000e-001) (275, 5.09392064628602760000e-001) (276, -2.17235197423224560000e-001) (277, 1.61695137935655150000e-001) (278, -1.50736403607816280000e+000) (279, -3.34257004449484970000e-001) (280, -1.04372336881484170000e+000) (281, 2.17323628893547230000e-001) (282, -1.35102065298306260000e-001) (283, -1.41611255626285490000e+000) (284, -3.29193609271693330000e-001) (285, 2.70728634234678240000e-001) (286, 3.07048894260034790000e-001) (287, -2.38147988832772580000e-001) (288, 7.70493395478179240000e-002) (289, 2.65152179329564750000e-001) (290, -7.13812271997820660000e-003) (291, -2.61705698043915020000e-001) (292, -1.13347492837696050000e-001) (293, 4.50968487899815420000e-001) (294, -4.01969204122925580000e-002) (295, 2.96066341086397400000e-001) (296, 2.17631841144522750000e-001) (297, 4.81476377717454720000e-001) (298, 8.83507236748845020000e-002) (299, -1.65077254056046230000e+000) (300, 2.03375789723636680000e-001) (301, 3.81910125403454090000e-001) (302, -2.45462426674292220000e-001) (303, 2.87964949011046360000e-001) (304, -1.27020732833098130000e-002) (305, 2.14130663908454260000e-001) (306, 2.67837474965763100000e-001) (307, 2.87144636104310010000e-001) (308, -1.10208494361369340000e-001) (309, -1.42846305698619200000e-001) (310, -8.29552952664218970000e-002) (311, -7.51643122114051270000e-001) (312, -6.41432408766448800000e-001) (313, 2.20218250951441540000e-001) (314, 1.64544591069035520000e-001) (315, 5.77055477122858100000e-001) (316, 3.77310794479009810000e-002) (317, -2.85372728318756890000e-002) (318, -1.75131115321748020000e-001) (319, 1.09596897318597010000e-002) (320, -1.64512159630303520000e-001) (321, -2.25668782982928670000e-001) (322, 7.74981143540191260000e-002) (323, 8.08250221882078480000e-002) (324, 1.38326120424153040000e-001) (0, 2.71783445010427020000e+000) (1, 1.64578299035288290000e+000) (2, 1.05935837337605630000e+000) (3, 1.22958480439864040000e+000) (4, 1.19203210156751150000e+000) (5, 1.32701738365704960000e+000) (6, 1.14083267177771290000e+000) (7, 1.08886077482017110000e+000) (8, 8.83041124433663670000e-001) (9, 1.13528853937633030000e+000) (10, 1.10293423743162330000e+000) (11, 1.09462735254221610000e+000) (12, 1.74921646529925920000e+000) (13, 1.38331884106647270000e+000) (14, 1.45916120343543690000e+000) (15, 9.09466011761228210000e-001) (16, 1.14207608371800730000e+000) (17, 1.11374966728028580000e+000) (18, 5.35489949916194700000e+000) (19, -4.84930091278039600000e-001) (20, -8.48991725826141460000e-002) (21, -7.72973037278346930000e-002) (22, -4.44949513403687020000e+000) (23, -1.53223471962101950000e+000) (24, -1.48957997537121620000e+000) (25, -5.16374419495254870000e-001) (26, 1.23912850985469140000e-001) (27, 6.69518966992748430000e-002) (28, -2.36446757606986950000e-002) (29, -2.42788063828862020000e-002) (30, -3.20919351304305710000e-002) (31, 4.94849851110325480000e-001) (32, 3.17605015791799340000e-001) (33, 4.79846969962342940000e-001) (34, 1.28387959166626730000e+000) (35, 1.07199551626747550000e+000) (36, 1.56663411596241490000e+000) (37, 1.55629306894731280000e-001) (38, -3.85449308308869810000e-001) (39, -2.14324073172801240000e+000) (40, -1.72024724548416730000e+000) (41, -4.85811349305396780000e+000) (42, -2.22059373434630280000e-001) (43, -1.65557081391660280000e-002) (44, 1.56438556936878110000e-001) (45, 9.47488830413414050000e-003) (46, 1.60032488993948930000e-002) (47, -2.15439345405025010000e+000) (48, -1.78264594576672600000e-001) (49, 1.45326746758572070000e-001) (50, 2.01347460403463220000e-002) (51, 1.46089487417825430000e-001) (52, 2.04530100401198700000e+000) (53, 1.00570243118042080000e+000) (54, 1.16504497425223330000e+000) (55, 1.56868073084537340000e+000) (56, -4.20637740752015270000e-001) (57, -8.40978662125231420000e-001) (58, -6.04250517387089130000e-001) (59, 5.99854325297005180000e-002) (60, 3.93881867500268320000e-001) (61, 8.00004714315143310000e-001) (62, 9.31495806650069700000e-001) (63, 6.69743321591602100000e-001) (64, -1.89303048611569880000e-001) (65, -7.69726102253528580000e-002) (66, 5.13055335821673910000e-002) (67, -3.70480440272032750000e-001) (68, 5.24757662862934680000e-002) (69, 1.68170933180714080000e+000) (70, 4.69444102216883650000e-001) (71, 7.34037884079444810000e-001) (72, 8.90816657420460790000e-001) (73, 9.12566578731354490000e-001) (74, -3.31860866772133060000e-001) (75, -2.06632101020531340000e-001) (76, 1.64758853098451090000e-001) (77, 2.92355541130790760000e+000) (78, 1.91079149516373680000e+000) (79, 1.72748925172289480000e+000) (80, 8.21255037839992990000e-001) (81, 1.21868699234590780000e+000) (82, 8.90948249340767990000e-001) (83, 8.05864812716441060000e-001) (84, 1.07160116870441650000e+000) (85, 1.29038772513976770000e+000) (86, 5.99756644076570030000e-001) (87, 3.30554305899310210000e+000) (88, 4.15159767502576050000e-001) (89, 1.17421824347087990000e+000) (90, 7.72314700671235870000e-001) (91, 8.56391216586874230000e-001) (92, 1.57662652019321040000e+000) (93, 8.00941376920085300000e-002) (94, 8.07089570387006520000e-002) (95, 4.24615661576358880000e-001) (96, 1.53166687307239550000e+000) (97, 1.14178662509191860000e+000) (98, 1.16971050198160900000e+000) (99, 9.54345618489493620000e-001) (100, 8.17138520525756860000e-001) (101, 8.80355646215416620000e-001) (102, 1.48921807051926810000e+000) (103, 5.80576928549477730000e-001) (104, 1.60902749378706830000e+000) (105, 1.43516160076769620000e+000) (106, 4.21507569155451570000e-001) (107, 1.57430814952848990000e+000) (108, 8.19233339752377780000e-001) (109, 9.44363737168861680000e-001) (110, 1.53002958181836270000e+000) (111, 3.14074744634005420000e-001) (112, 2.10293632284919350000e-001) (113, 2.02412829723673860000e-001) (114, 8.23460305358266640000e-001) (115, 1.71216881391318170000e+000) (116, 6.04362584266716630000e-001) (117, 9.82010910559696250000e-001) (118, 8.44312680893529950000e-001) (119, 8.60952020195292820000e-001) (120, 1.17869586757925960000e+000) (121, 4.61528505739173030000e-001) (122, 1.94228298331493710000e+000) (123, 6.47038174134457410000e-001) (124, 9.16535089788452440000e-001) (125, 2.49755116572437520000e+000) (126, 7.85410975718921820000e-001) (127, 9.47758276729321000000e-001) (128, 7.66092040573560950000e-001) (129, 4.31640662630376480000e-001) (130, 1.23782263856360280000e-001) (131, -4.70116379008347420000e-002) (132, 1.50729003914566890000e-001) (133, 3.71769115239047930000e-001) (134, 6.63893796824930330000e-001) (135, 4.44581237696348770000e-001) (136, 6.51011162217563500000e-001) (137, -2.49351057131906140000e-001) (138, -1.14766983434287910000e+000) (139, 1.34749247369390230000e-001) (140, 1.88188647582289790000e+000) (141, 3.30356847225281300000e-001) (142, 9.50829911354026170000e-001) (143, 2.42331410407128180000e+000) (144, 9.40907067429935570000e-001) (145, 9.03423508261631420000e-001) (146, 7.47947164903510760000e-001) (147, 3.95049237003214810000e-001) (148, 1.56944709021869360000e-001) (149, 1.85456669207980620000e-001) (150, -1.27484440026214260000e+000) (151, -2.93087037290011950000e-001) (152, 1.02297268547315870000e-002) (153, -8.73536859961400180000e-002) (154, 4.16692311072551500000e-002) (155, 1.58620594676195490000e-001) (156, 1.90359297558301110000e-001) (157, -3.39338901902066590000e+000) (158, 1.73030462233895320000e-001) (159, 7.19675931786619820000e-001) (160, 9.44667979590283810000e-001) (161, 1.11517840163311030000e+000) (162, 8.78230064542850460000e-001) (163, 8.52478614137255900000e-001) (164, 8.58317274498186400000e-001) (165, 4.47298295818462200000e-001) (166, 1.49744413468771680000e-001) (167, 8.00025380960897370000e-001) (168, -2.67231640138355120000e+000) (169, -2.48326325011026000000e-001) (170, 3.54559404199850050000e-001) (171, 2.90736531077096130000e-001) (172, 2.48845479324848160000e-001) (173, -5.40310728647572120000e-001) (174, -3.11015035332114720000e-001) (175, -1.08266431933035840000e-002) (176, 8.00844187571992050000e-001) (177, 3.41099821517239170000e-001) (178, 4.68327031512763670000e-001) (179, 1.20410816157831870000e+000) (180, 9.56867761027143440000e-001) (181, 8.68659317034700450000e-001) (182, 2.85110948558295110000e-001) (183, 4.59714326503540330000e-001) (184, 8.99076851152646040000e-002) (185, 1.39501087893693670000e-001) (186, 6.94141979441080140000e-001) (187, 6.02153431163353310000e+000) (188, 1.97534570788330410000e+000) (189, 3.39330060155825840000e-001) (190, 7.30054734679919660000e-001) (191, 2.70120958630030110000e-001) (192, -2.78876299367549820000e-001) (193, -3.90419775561118730000e-001) (194, 1.33971051451509170000e-001) (195, 4.37937932423472120000e-001) (196, 6.77636549547754760000e-001) (197, 8.63970296513540510000e-001) (198, 1.05051472803241340000e+000) (199, 8.73182022180219010000e-001) (200, 9.76533076382137270000e-002) (201, 2.68543891925872360000e-001) (202, 1.24083648489743330000e-001) (203, 3.03724510189303800000e-001) (204, 3.12849962103767810000e-001) (205, 1.75489375948579780000e+000) (206, 1.59094928335571060000e+000) (207, 1.49404486111869810000e+000) (208, 1.79976081342934790000e+000) (209, 7.41904440315752870000e-001) (210, 6.04345550883308210000e-001) (211, -3.89597211804792010000e-001) (212, 1.11895227208464940000e-001) (213, -8.84947476650882610000e-002) (214, 4.88909621098204570000e-001) (215, 1.34887946649545040000e+000) (216, 1.21664763999404600000e+000) (217, 8.75715568559656930000e-001) (218, 8.06754436227108960000e-001) (219, 1.38606145849024060000e-001) (220, 3.06658439515109130000e-001) (221, 2.23367762559838450000e-001) (222, 5.54752444917168240000e-001) (223, 1.40838685483847680000e+000) (224, 4.11776699359813040000e-001) (225, 1.81094363219333340000e-001) (226, 2.97104021373920950000e-001) (227, 1.50187695120163610000e+000) (228, 1.28643455725503110000e+000) (229, 4.82045740436239990000e-001) (230, 3.48024059878003500000e-002) (231, 3.92624268171519960000e-001) (232, 1.07942087121908390000e-001) (233, 4.20089107356383160000e-001) (234, 1.10077885836278800000e+000) (235, 1.03148396603008300000e+000) (236, 9.40304768413083640000e-001) (237, 1.51858457421419150000e+000) (238, 2.99679852265010980000e-001) (239, 2.82858730243197800000e-001) (240, 5.80530852466526580000e-001) (241, 1.55964751330478360000e+000) (242, 9.74586875279986440000e-001) (243, 7.21232266323717400000e-001) (244, 9.07436957183452850000e-001) (245, 1.43142670418637840000e+000) (246, 1.24075492072089340000e+000) (247, 1.58926679844825890000e+000) (248, 2.21521350830114650000e-001) (249, 5.25478659603164230000e-002) (250, 4.03577578643459210000e-003) (251, 8.02875215151355960000e-001) (252, 1.11993169067943740000e+000) (253, 1.18537980702571470000e+000) (254, 8.90108587257240290000e-001) (255, 1.60946957793572600000e+000) (256, 7.48934149007199790000e-001) (257, 1.89374772755289240000e-001) (258, -1.22343344197948790000e+000) (259, 1.00835408058122370000e+000) (260, 4.38249993419646600000e-001) (261, 4.27913235028828050000e-001) (262, 3.07982592857583180000e+000) (263, 1.46785048615250440000e+001) (264, 2.36374466829450340000e+000) (265, -4.78838474729050940000e-001) (266, -7.37789547432675210000e-003) (267, -4.23148126187628880000e-002) (268, 1.16381826345664460000e-001) (269, 9.20541488760533770000e-001) (270, 2.34593411789971730000e+000) (271, 1.48849580666454000000e+000) (272, 4.88870099669905970000e-001) (273, -1.01191293571980260000e-001) (274, 1.47196970958944990000e-001) (275, 1.73563795487613250000e-001) (276, -3.47697258632215230000e-001) (277, 1.18495038734535790000e-001) (278, 1.36039750714713360000e-001) (279, -4.37345180766217760000e-001) (280, 1.52003358793221000000e-002) (281, 6.08579206975956510000e-002) (282, -3.95853329721939820000e-001) (283, -1.51134248316677740000e+000) (284, -4.70569287525642750000e-001) (285, -1.42967635351040400000e-001) (286, 3.72313438614923550000e-001) (287, 1.95218425149954670000e+000) (288, 2.74526661848313400000e+000) (289, 1.58478698977627940000e+000) (290, 4.74704025262227710000e-001) (291, -3.98506930175499150000e-001) (292, -1.30340917905003490000e-001) (293, -9.70200082688942590000e-002) (294, 1.64941981293062120000e-001) (295, 2.08847039045802490000e-001) (296, 3.28309669217977320000e-002) (297, -2.25021140432010880000e-001) (298, -4.36882578962130620000e-001) (299, -4.82813249025558940000e-001) (300, -5.15860630860026650000e-001) (301, -4.34834464959830020000e-001) (302, -8.30264103734018820000e-001) (303, -2.10569324115139710000e+000) (304, 1.06143894224111810000e+000) (305, 8.44745828009011430000e-001) (306, 2.44345475120163510000e+000) (307, 1.51163251252121160000e+000) (308, 1.12256569262414580000e+000) (309, 3.60068208972372630000e-001) (310, 6.13821320461225840000e-001) (311, -2.01415045024217590000e-001) (312, 2.51116874874221850000e-001) (313, 1.71410583545330180000e-001) (314, 2.05059106596632710000e-001) (315, 8.92212606848595550000e-002) (316, 1.00443826026395910000e-001) (317, 3.83535453429681540000e-001) (318, 4.25502766851372450000e-001) (319, 2.95755867720063350000e-001) (320, 2.87599357842832300000e-001) (321, 6.10581723331232510000e-001) (322, 7.66194057332612480000e-001) (323, 8.64447127543081400000e-001) (324, -5.74442249965314340000e-001) (0, 9.86317379227800490000e-001) (1, 1.15329666295757470000e+000) (2, 8.00817821976655190000e-001) (3, 1.09877285514500090000e+000) (4, 2.15178901601263920000e+000) (5, 1.05355024315220640000e+000) (6, 1.24357567309488170000e+000) (7, 1.31233987500600420000e+000) (8, 1.04653488811683440000e+000) (9, 1.26709780092758550000e+000) (10, 1.31823705298730330000e+000) (11, 1.37059301079871810000e+000) (12, 1.73475815067185550000e+000) (13, 1.71125351164973430000e+000) (14, 1.70647445884414580000e+000) (15, 1.22033565980478210000e+000) (16, 1.77100693050887940000e+000) (17, 1.67108627472307040000e+000) (18, 2.93641446195363720000e+000) (19, -4.83925480087488760000e-001) (20, -8.50629655947459100000e-002) (21, 1.02378605061954760000e-002) (22, -3.81981852255143690000e-001) (23, -8.38721864614714980000e-001) (24, -8.59901064149059650000e-001) (25, -9.26882247649041370000e-001) (26, -2.64290663939507290000e-001) (27, -2.18689316234508630000e-001) (28, -5.90253211356708160000e-001) (29, -2.84611173203367480000e-001) (30, -4.15481241926340060000e-001) (31, 1.37803970886929570000e+000) (32, 5.28351462196322450000e-001) (33, 1.30298150186324800000e+000) (34, 1.46558386924297660000e+000) (35, 1.16763289222800970000e+000) (36, 5.43343092236621250000e-001) (37, 1.32885341716152390000e-002) (38, -6.80148387766605910000e-001) (39, -4.63551328287930830000e-001) (40, -2.46682532454184140000e-001) (41, -1.01917499333560180000e+000) (42, -3.91399577004853730000e-001) (43, -5.57556245929150100000e-001) (44, -6.35162448257448050000e-001) (45, -7.17739120594090560000e-002) (46, -6.18506873481790010000e-001) (47, -9.54323051359688310000e-001) (48, -4.35402010390973510000e-002) (49, -3.95406260594285020000e-001) (50, -5.05499973272919080000e-002) (51, 3.62823119837741400000e-001) (52, 2.71389148628857150000e+000) (53, 1.68856367446770040000e+000) (54, 9.44402196869704170000e-001) (55, 7.91644754908922010000e+000) (56, -2.21223001415964990000e-001) (57, -3.32127614650736920000e-001) (58, -2.75961766731693040000e-001) (59, -9.34160876625785730000e-001) (60, -5.54580867521786480000e-001) (61, 1.53322487886074690000e-001) (62, 4.04206525069098710000e-001) (63, 4.69352475164765140000e-001) (64, -1.83012419907086500000e-001) (65, -1.08956254949328770000e-001) (66, 5.03088150875204980000e-002) (67, -2.19550463548956240000e-001) (68, 1.43000837299422530000e-001) (69, 4.66973931009500080000e-001) (70, 4.70494836218256270000e-001) (71, 3.31484167966039370000e+000) (72, 7.90907066893441480000e-001) (73, 5.33891699974858520000e-001) (74, -9.07320128601932010000e-001) (75, -6.64862969767942900000e-001) (76, 5.83585646911995220000e-001) (77, 7.10494199417459620000e-002) (78, 5.17739720815870830000e-001) (79, 4.62586375279814550000e-001) (80, 4.64158145623185410000e-001) (81, 4.84806983038021170000e-001) (82, 4.61116148598195500000e-001) (83, 5.84934278943418980000e-001) (84, 9.23406361748318690000e-001) (85, -6.23325701912412210000e-002) (86, 6.55153938776530500000e-001) (87, 4.13915137079980950000e-001) (88, 5.85443718831192170000e-001) (89, 5.86732529734606210000e-001) (90, 7.21314780700185620000e-001) (91, 7.95443982038384180000e-001) (92, 1.71143234355375350000e-001) (93, 3.59706524137071490000e-001) (94, 4.51141306044206880000e-001) (95, 4.50360662504363130000e-001) (96, 4.10446483860082980000e-001) (97, 3.43330870324675350000e-001) (98, 5.01962981997196910000e-001) (99, 5.21045584959277000000e-001) (100, 4.84786761754499030000e-001) (101, 8.28049117199518680000e-001) (102, 7.73120290505242000000e-001) (103, 3.93837540572616000000e-001) (104, 2.00292497408342160000e+000) (105, 3.02501412623952800000e-001) (106, 6.41202231280401660000e-001) (107, 6.32210088546294790000e-001) (108, 7.18112245541154160000e-001) (109, 9.11412694424997280000e-001) (110, 4.41450398518209330000e-001) (111, 3.31865043256062810000e-001) (112, 3.17822894197443420000e-001) (113, 4.79247060777733660000e-001) (114, 5.01541174806793170000e-001) (115, 8.35294283851503510000e-001) (116, 5.27479529946927930000e-001) (117, 5.16923123204428350000e-001) (118, 4.55188647330353470000e-001) (119, 4.33466516487141020000e-001) (120, 3.72873963499986640000e-001) (121, -8.49086965616706270000e-001) (122, 4.07207595182680460000e-001) (123, 3.80748567348353000000e-001) (124, 5.58634429606914010000e-001) (125, 4.52382205007275270000e-001) (126, 7.48471116969014140000e-001) (127, 4.04166492043415200000e-001) (128, 2.84150319931961990000e-001) (129, 9.31283398021586490000e-002) (130, 4.99889031217913840000e-001) (131, -1.74610724372498970000e-001) (132, 5.03208901422053990000e-001) (133, 4.67198469257579910000e-001) (134, 3.65168452948682000000e-001) (135, 3.35482931695101570000e-001) (136, 3.83899486850071860000e-001) (137, -8.40369485955847260000e-001) (138, 1.14620387818984080000e-001) (139, 1.36982843066317920000e-001) (140, 4.92011173826950090000e-001) (141, 4.61564039569383020000e-001) (142, 2.79612344565485730000e-001) (143, 5.19315022432890630000e-001) (144, 5.82108889391122600000e-001) (145, 4.09443470148088020000e-001) (146, 4.44454621591201030000e-001) (147, 7.27795865823966830000e-001) (148, 4.44107788050846160000e-001) (149, 3.42262177253736700000e-001) (150, 2.37711413375198880000e-001) (151, -2.48612641121469520000e-001) (152, 4.83297234644506860000e-001) (153, -1.16440861509756330000e-001) (154, -1.62601152754198240000e-002) (155, -9.16365548941555920000e-002) (156, -3.16711332222866460000e-001) (157, -1.86589102864187350000e+000) (158, -4.55723951845700190000e-001) (159, 4.88320592517094250000e-001) (160, 4.26421049733392010000e-001) (161, 5.36130503100950120000e-001) (162, 5.53428469041876040000e-001) (163, 3.77329333440385380000e-001) (164, 2.62789307161550130000e-001) (165, 2.13884165037064480000e-001) (166, 2.87967203712943540000e-001) (167, 4.25148449838115280000e-001) (168, -3.86620607234746190000e-002) (169, 4.01957644790697070000e-001) (170, 7.88120130717379190000e-001) (171, 9.83451617358982460000e-002) (172, -5.43392167622631300000e-002) (173, -2.11650227708474750000e-001) (174, -1.20506927643365770000e+000) (175, -2.48228442950046140000e+000) (176, -2.25428451989714670000e-001) (177, 2.33465369546747600000e-001) (178, 4.51279964934196030000e-001) (179, 3.29943609944791940000e-001) (180, 6.53648197097766560000e-001) (181, 4.50969699661540210000e-001) (182, 2.60945848176495740000e-001) (183, 1.08671898267744080000e-001) (184, 6.63645883499694330000e-001) (185, 4.15082808974757970000e-001) (186, 5.87464027029988340000e-001) (187, 8.02548227388121480000e-001) (188, 2.60411897490752050000e-001) (189, 8.23396045974974070000e-001) (190, 1.11439478722963250000e+000) (191, 3.86852362868788880000e-001) (192, -2.57559998294364510000e+000) (193, -5.24801092552196310000e-001) (194, 2.39846956320776500000e-003) (195, 2.24909484234853520000e-001) (196, 3.78701509121155740000e-001) (197, 4.13612313432080990000e-001) (198, 8.43939184983454100000e-001) (199, 1.20924857729601490000e+000) (200, 1.16798207754322660000e-001) (201, 1.66841526798532840000e-001) (202, 6.97144092267781730000e-001) (203, 3.68336589631710900000e-001) (204, 4.60617524254908650000e-001) (205, 4.39449915401442570000e-001) (206, 4.52828518200128700000e-001) (207, 5.02793637341033440000e-001) (208, 4.80229617552838160000e-001) (209, 4.62410530811271480000e-001) (210, 2.89977114952109870000e-001) (211, -5.95934352813142780000e-001) (212, 3.73053806424588740000e-001) (213, -7.62485361290610870000e-002) (214, 4.32295476599351580000e-001) (215, 3.62718326213179120000e-001) (216, 1.86351539844091210000e+000) (217, 1.96497414018714010000e+000) (218, 5.63299173276701310000e-001) (219, 4.02595742621719880000e-001) (220, 7.10774977756966850000e-001) (221, 4.81371456076193690000e-001) (222, 4.28076100033608520000e-001) (223, 4.35129363837496450000e-001) (224, 1.22038784595532290000e-001) (225, 4.59936599581178380000e-001) (226, 4.32687048776330020000e-001) (227, 3.78873718660759580000e-001) (228, 3.32737365203730710000e-001) (229, 5.36561109501927920000e-001) (230, -2.06250304922121990000e-001) (231, -1.65847389333418920000e-001) (232, -3.55038834745846700000e-002) (233, 7.11408915709529580000e-001) (234, 1.67523575130623530000e+000) (235, 8.71713706709436150000e-001) (236, 1.47384051525127370000e+000) (237, 4.11059159758206170000e-001) (238, 5.99099540567696430000e-001) (239, 3.92542710547511000000e-001) (240, 6.10595317823928170000e-001) (241, 5.45967367956579410000e-001) (242, 2.45792989883721970000e-001) (243, 8.00463351294420810000e-001) (244, 4.40987806196749320000e-001) (245, 5.30287064137179850000e-001) (246, 8.01014966110235480000e-001) (247, 3.87973722023874530000e-001) (248, 7.30361001428576040000e-003) (249, 1.10221578059580490000e-001) (250, 4.67271297969952810000e-001) (251, 3.40677082572161450000e-001) (252, 2.78582666044766740000e+000) (253, 8.91147300749019380000e-001) (254, 1.04686069053838730000e+000) (255, 5.26685352403661100000e-001) (256, 4.24189917975256070000e-001) (257, 1.38157707890605110000e-001) (258, -2.06741256083641330000e+000) (259, 4.99572722491211780000e+000) (260, 8.24360274223130630000e-001) (261, 4.12725490880526510000e-001) (262, 5.74033047046475510000e-001) (263, 4.87689714202801030000e+000) (264, 2.27769439768932520000e-001) (265, -1.36074096182605330000e+000) (266, -3.03421023522996660000e-001) (267, 2.37770741803086110000e-001) (268, -6.45962767590790300000e-002) (269, 2.50620172434763480000e-001) (270, 1.32554031882240420000e+000) (271, 1.22924460963708750000e+000) (272, 4.88388947305057440000e-001) (273, 1.56064471673409280000e-001) (274, 1.74550934636848010000e-001) (275, -1.38058234128538970000e-003) (276, -4.50049589800330220000e-001) (277, -1.23595567960607780000e-001) (278, -1.29014392621647070000e-001) (279, -4.32539659979885690000e-001) (280, -8.58710234541256310000e-002) (281, -3.73337790528217690000e-001) (282, -1.73354464291753050000e-001) (283, -7.46449142833833790000e-001) (284, -4.56203669198130660000e-001) (285, 6.42751035190069490000e-002) (286, 7.01577705680102440000e-002) (287, 4.92098116921814380000e-001) (288, 1.97246489331709900000e+000) (289, 7.93301484668309630000e-001) (290, 5.09553761034694520000e-001) (291, -8.00181201049827430000e-002) (292, -2.81240324573975080000e-001) (293, -1.08616801703395150000e-001) (294, -3.85220500783782340000e-001) (295, -1.11914913453772910000e-001) (296, -2.04456648016423350000e-001) (297, -5.66662360078358910000e-001) (298, -2.87480594114128460000e-001) (299, -1.31557141173361200000e-001) (300, -1.24257440704383840000e-001) (301, -2.39387122655789320000e-001) (302, -1.29863332633601720000e+000) (303, -2.66504071455005990000e+000) (304, 4.50816224371359820000e-001) (305, 5.14686865330125980000e-001) (306, 1.83539262723981670000e+000) (307, 4.72722629673184120000e-001) (308, 4.65138224679905450000e-001) (309, 2.98088454453229510000e-001) (310, 3.54603373825111150000e-001) (311, -7.93153305974008020000e-001) (312, -2.15569552622728730000e-001) (313, -6.22356422374555210000e-002) (314, -2.91279356912873040000e-001) (315, -2.60047749074400920000e-001) (316, 4.11121611911313130000e-001) (317, 3.91738171591628210000e-001) (318, 9.50931897175577020000e-001) (319, 9.51454930469070260000e-001) (320, 3.95776882271795920000e-001) (321, 6.55421284432488150000e-001) (322, 4.27048778109362200000e-001) (323, 1.07786704051756230000e+000) (324, -1.17505131306966650000e+000) (0, 1.17081503079441610000e+000) (1, 1.02875574697894170000e+000) (2, 7.77600877082899710000e-001) (3, 1.25607572669037460000e+000) (4, 1.36709404134185910000e+000) (5, 8.76172704565250090000e-001) (6, 7.28229125346576910000e-001) (7, 9.12944086927993890000e-001) (8, 1.11460095912147120000e+000) (9, 1.20019880471741640000e+000) (10, 1.34251640363980920000e+000) (11, 1.32078832255657020000e+000) (12, 1.11602424717765780000e+000) (13, 1.31027806849370520000e+000) (14, 1.18496850569864650000e+000) (15, 1.26597651582602430000e+000) (16, 1.44158476388110010000e+000) (17, 1.81343857176616030000e+000) (18, 1.65398241882557160000e+000) (19, -1.54752676974285130000e-001) (20, 1.08056070996000770000e-001) (21, -2.70304229944126840000e-001) (22, -1.04651128076746700000e+000) (23, -1.16086512270136200000e+000) (24, -4.35588494623744180000e+000) (25, -4.42949278841014590000e-001) (26, -3.55935045038699940000e-001) (27, -2.82473296841515230000e-001) (28, -3.02590421986083660000e-001) (29, -1.71704736176646610000e-001) (30, -1.13578100285080340000e-001) (31, 7.61353047392497650000e-001) (32, 3.86241358440289560000e-001) (33, 4.62304747074723850000e-001) (34, 6.15700296377585830000e-001) (35, 1.02685526699246150000e+000) (36, 2.82619125904102540000e-001) (37, -1.50062697820120940000e-001) (38, -1.72644599957803150000e-002) (39, -5.15534971640672520000e-001) (40, -4.19951378866689150000e-001) (41, -8.89857756981827230000e-001) (42, -5.29960672736375930000e-001) (43, -5.27956447177950540000e-001) (44, -5.10801761789459020000e-001) (45, -1.12348076001599860000e-001) (46, -7.66494073491208460000e-001) (47, -2.09660318316089580000e+000) (48, -5.09945506443924210000e-002) (49, -4.98228722206522710000e-002) (50, -3.25782716573523150000e-001) (51, 4.03739395333830520000e-001) (52, 8.03260909064248960000e-001) (53, 5.67270563256040190000e-001) (54, 4.16862706129220050000e-001) (55, 9.07794109330439140000e-001) (56, -6.90454022638884310000e-002) (57, -1.59587308506420780000e+000) (58, -1.97098133645249420000e-001) (59, -1.73662304724336520000e-001) (60, 6.64766091292612330000e-001) (61, 9.12409296246176750000e-002) (62, 5.14207297803488950000e-001) (63, 5.68571659069188610000e-001) (64, 3.80867876207778180000e-001) (65, 2.38150412516073380000e-002) (66, 2.48001232378933710000e-001) (67, -2.82533251764339220000e-002) (68, 1.44003627357446070000e-001) (69, 1.13290139667850600000e+000) (70, 4.56372724244197450000e-001) (71, 1.34553959266524180000e+000) (72, 8.38083676106863070000e-001) (73, 9.24450676091550740000e-001) (74, 1.11603101375680590000e-001) (75, -2.66748796502006450000e-001) (76, -2.07529973555948960000e-001) (77, 1.89178845912069300000e+000) (78, 5.82488826480937140000e-001) (79, 4.97598084597019100000e-001) (80, 3.96276708835925640000e-001) (81, 5.31586764993051460000e-001) (82, 4.29878538765592900000e-001) (83, 5.08579083422188380000e-001) (84, 1.47931075480062150000e+000) (85, 5.69879819395021860000e-001) (86, 1.47411634547664880000e+000) (87, 1.05413783475534940000e+000) (88, 4.25998896396008130000e-001) (89, 4.10487139628112900000e-001) (90, 8.55360786206026510000e-001) (91, 8.57223175902616430000e-001) (92, 3.75940986201558410000e-001) (93, -5.22340321386593250000e-001) (94, 2.54328443482926050000e-001) (95, 3.35591701456392890000e-001) (96, 4.74235126774589950000e-001) (97, 4.70180945819407610000e-001) (98, 3.91822434282922460000e-001) (99, 4.62694621213186550000e-001) (100, 3.39526297336374240000e-001) (101, 3.37503602816451310000e-001) (102, 5.54731310496875960000e-001) (103, 2.99564962198366370000e-001) (104, 1.83665406189345100000e+000) (105, 3.04428118090143970000e-001) (106, 5.35857442535157990000e-001) (107, 5.56791839009033730000e-001) (108, 7.31512016895550450000e-001) (109, 9.27862102638249090000e-001) (110, 3.41213765075175200000e-001) (111, 6.70424085967277980000e-001) (112, -6.74298401633713630000e-002) (113, -9.82968686624737910000e-001) (114, 3.81329557835538400000e-001) (115, 4.69279841208505970000e-001) (116, 3.62969945571745720000e-001) (117, 3.53927965299236200000e-001) (118, 3.56567988353731380000e-001) (119, 3.39021656509349010000e-001) (120, 3.58203153262682590000e-001) (121, 5.67421983408438300000e-001) (122, 4.32524539487423590000e-001) (123, 3.46948468944316470000e-001) (124, 5.36815111750736930000e-001) (125, 4.97085040132452580000e-001) (126, 4.42033215311069150000e-001) (127, 4.05428299301285430000e-001) (128, 4.62325827426760540000e-001) (129, 8.40247602221341620000e-002) (130, 3.62668876646688790000e-001) (131, -1.47560657715989470000e+000) (132, -4.94297350836901240000e-001) (133, -4.56413456912244110000e-001) (134, 3.19087960501760530000e-001) (135, 4.04805850723006680000e-001) (136, 5.17608656344289990000e-001) (137, 2.97440272509706170000e-001) (138, 4.07597621880158860000e-001) (139, 3.82548494353835310000e-001) (140, 3.94387324592570480000e-001) (141, 4.17071630452739480000e-001) (142, 3.69657318316177490000e-001) (143, 6.92686589869909500000e-001) (144, 4.17773728907109450000e-001) (145, 3.79770348106438500000e-001) (146, 3.98661138898639080000e-001) (147, 2.66781544374234620000e-001) (148, 3.20014625060529410000e-001) (149, 4.25676723409212590000e-001) (150, -7.61223943058445870000e-001) (151, 6.07260806382888820000e-002) (152, 4.04670403358395490000e-001) (153, -8.14281424449129900000e-002) (154, -2.40426245163826180000e-003) (155, -1.88980827730654780000e-001) (156, -6.93830788675280090000e-002) (157, -1.17486095628956210000e-001) (158, 1.25720625929737980000e-001) (159, 3.88840615065610410000e-001) (160, 4.75259460954325860000e-001) (161, 3.68843377250887890000e-001) (162, 1.04159970613040250000e+000) (163, 4.28614708104219030000e-001) (164, 4.23721114339420390000e-001) (165, 1.27279575850151870000e-001) (166, 3.13226075690471620000e-001) (167, 3.98041353934995510000e-001) (168, -3.03767963125847200000e-001) (169, 2.07502206240480960000e-001) (170, 4.43683625133782790000e-001) (171, -3.27294431180653160000e-001) (172, -2.23053559042007880000e-001) (173, -2.37776171212865840000e-001) (174, -2.76982250957725270000e-001) (175, -9.54375071579264490000e-001) (176, -1.56007952305275120000e-001) (177, 1.73963637404823430000e-001) (178, 3.95048131189688230000e-001) (179, 4.39223814222834800000e-001) (180, 1.16030087977418780000e+000) (181, 4.85065310541933300000e-001) (182, 3.75527648054069020000e-001) (183, 1.99985113218913960000e-001) (184, 4.20877363953636730000e-001) (185, 5.17280225656941100000e-001) (186, 4.94218190482802300000e-001) (187, 4.13217989291944640000e-001) (188, 5.67800466418171500000e-001) (189, 1.26881545297897730000e-002) (190, 6.68988534027739060000e-001) (191, -2.01120956807459620000e-001) (192, -6.09466068409883640000e+000) (193, -9.92181322531371370000e-001) (194, 3.52268110587545310000e-001) (195, 4.40164388178489530000e-003) (196, 2.10005259420082580000e-001) (197, 4.68230384618695370000e-001) (198, 1.17960230659188390000e+000) (199, 8.17730731145276720000e-001) (200, 4.92860486911642800000e-001) (201, 1.77217981268181560000e-001) (202, 4.13377858414993360000e-001) (203, 5.49010167912337700000e-001) (204, 4.11434377066977330000e-001) (205, 2.42859626467945620000e-001) (206, 4.95066371162775190000e-001) (207, 4.93885048929588620000e-001) (208, 3.63710169541993640000e-001) (209, 3.06276096185254590000e-001) (210, 4.50197167709991190000e-001) (211, 4.10577295113491720000e-001) (212, 6.29030793460414790000e-001) (213, -1.22467517513872970000e-001) (214, 2.01092449730102650000e-001) (215, 5.01096134051621790000e-001) (216, 1.11549867095374560000e+000) (217, 1.19750513491416610000e+000) (218, 6.57492071176539290000e-001) (219, 2.14645882990200210000e-001) (220, 4.47747288079962840000e-001) (221, 4.44402619797250540000e-001) (222, 3.50534650482549230000e-001) (223, 1.99902728582896480000e-001) (224, 1.58142441969524230000e-001) (225, 5.59322624714491900000e-001) (226, 6.53993133480123330000e-001) (227, 5.83731365783218830000e-001) (228, 4.39796726073707840000e-001) (229, 4.26207699172600040000e-001) (230, 6.91238914156481310000e-001) (231, 4.36101644353169060000e-001) (232, 5.20482404456628190000e-001) (233, 1.21554357547900680000e-001) (234, 1.30707251532767230000e+000) (235, 4.04045220653704070000e-001) (236, 5.35376437352181320000e-001) (237, 9.57437118026765180000e-002) (238, 4.76277378059242360000e-001) (239, 4.58596573587793930000e-001) (240, 3.99134434071336750000e-001) (241, 6.66863170073331290000e-001) (242, 3.03763068189655820000e-001) (243, 4.79768452586532110000e-001) (244, 2.39254884013255540000e-001) (245, 5.29931777424329400000e-001) (246, 4.43231521959806750000e-001) (247, 3.75662124604316690000e-001) (248, 3.66730898520715500000e-001) (249, 2.61336582908836430000e-001) (250, 8.00272110666145790000e-001) (251, -8.27576558531289000000e-002) (252, 1.79072308146542560000e+000) (253, 4.65617487196202330000e-001) (254, 9.74931677830154110000e-001) (255, 1.65936617103591920000e-001) (256, 4.53711249286157640000e-001) (257, 8.65062460055836400000e-002) (258, -2.71673168461920690000e+000) (259, 4.38598724386440320000e-001) (260, 2.89019308475008340000e-001) (261, 1.40107322120013590000e-001) (262, 7.70911223458388580000e-001) (263, 3.50235445437686680000e+000) (264, 5.02102652957906570000e-001) (265, -7.95906278676934640000e-001) (266, -1.48099480706536580000e-001) (267, -2.71662715119712840000e-002) (268, 1.96180501360816550000e-001) (269, 5.04579318053763400000e-002) (270, 1.56499409741241700000e+000) (271, 4.67738269552425090000e-001) (272, 5.45948458880789470000e-001) (273, -5.27999760625596280000e-001) (274, 8.35573974321348610000e-002) (275, 7.05068004083240000000e-001) (276, -3.69720737222201720000e-001) (277, 8.49480760076717910000e-002) (278, -3.10886925347629850000e-001) (279, -3.22290563444998460000e-001) (280, -2.20962802339284360000e-001) (281, 2.36815923815829250000e-001) (282, -9.71758423735320840000e-001) (283, -2.46996733766996990000e-001) (284, -1.67001932638937890000e-001) (285, -3.87312937615472200000e-001) (286, 1.15152396176206070000e-001) (287, 3.47520937235825940000e-001) (288, 1.99752369962878770000e+000) (289, 4.68807950861929000000e-001) (290, 3.73063873295346180000e-001) (291, 2.41417343972165270000e-001) (292, -6.10419919142465630000e-001) (293, 1.60466534550729510000e-001) (294, 7.69319923699340320000e-002) (295, 1.71733550100600730000e-001) (296, -1.38369379721396570000e-001) (297, -1.90887204932868350000e+000) (298, -1.92812247456976850000e+000) (299, -1.25566942865558560000e-001) (300, -2.93444717133393100000e-001) (301, -1.50626658896843290000e-001) (302, -7.01733319512711450000e-001) (303, -9.89032991287601960000e+000) (304, 4.74163652053533280000e-001) (305, 4.79196444684161670000e-001) (306, 1.34686203577799190000e+000) (307, 1.08120945563011730000e+000) (308, 1.05589866812958770000e+000) (309, 5.38368949177453370000e-001) (310, 4.36257905250077740000e-001) (311, 1.37444403577055950000e-001) (312, 5.22805624079024420000e-001) (313, 4.99246706234656890000e-001) (314, 5.30774974202417590000e-001) (315, 4.43706772669674400000e-001) (316, 6.04592391685880080000e-001) (317, 6.34016332179174520000e-001) (318, 8.50517761405093160000e-001) (319, 6.28412018987396510000e-001) (320, 4.25390480395429870000e-001) (321, 3.37979299440819000000e-001) (322, 9.70045869854659350000e-001) (323, 9.40804666912305910000e-001) (324, -2.29853818930699690000e+000) (0, 5.14670997947029200000e-001) (1, -1.73539100939364700000e-001) (2, 7.34116209924235430000e-002) (3, 2.66188996708709880000e-001) (4, 5.81593017528238890000e-001) (5, 1.62128445844453680000e-001) (6, 2.86730717608103050000e-002) (7, 2.18014455380028590000e-001) (8, 2.68219410224539770000e-001) (9, 6.44877437702175430000e-001) (10, 1.64452700719202480000e+000) (11, 4.15656457191354410000e-001) (12, 2.87730727549852900000e-001) (13, 4.66463839778886950000e-001) (14, 3.65330745519045650000e-001) (15, 3.08585006583063540000e-001) (16, 2.95803102917271240000e-001) (17, 2.54243131497694950000e-001) (18, 7.08798249109090060000e-001) (19, -4.40691430326472840000e-001) (20, 1.86366394057963240000e-001) (21, 1.23718775548469970000e-001) (22, 1.98259615498692500000e-001) (23, 6.62213746530336380000e-001) (24, 8.96097210068798940000e-001) (25, 1.01565151912169750000e+000) (26, 1.11661164269171940000e+000) (27, 1.46950881722875470000e+000) (28, 9.62987558479978080000e-001) (29, 8.66843754792607220000e-001) (30, 1.18302917381265750000e+000) (31, 2.03501210902067870000e+000) (32, 4.03005049315391160000e-001) (33, 2.26884270503850180000e-001) (34, 1.86470382546843620000e-001) (35, 1.92839336161380600000e-001) (36, -4.14021010392137900000e-001) (37, 4.07018960826305900000e-001) (38, 7.53541432575104840000e-002) (39, 7.47954862381295380000e-002) (40, 2.94165813982372460000e-001) (41, 3.90182775332201870000e-002) (42, 6.91244772368313050000e-001) (43, 1.61446662304959280000e+000) (44, 7.07986687993506950000e-001) (45, 1.64916548470760250000e+000) (46, 1.00991729666374530000e+000) (47, 8.60031051774171610000e-001) (48, 7.27411755720174250000e-001) (49, 8.32145931307822330000e-001) (50, -4.46443446273626640000e-001) (51, 2.90040057901331470000e-001) (52, 1.84184081216365520000e-002) (53, -1.42598585061314760000e-002) (54, 3.26815290531256690000e-001) (55, 1.27393453476610930000e-001) (56, 3.11969338842250810000e-001) (57, 1.05848517757459870000e+000) (58, 5.67685861972375690000e-001) (59, 3.93246669583538160000e-001) (60, 2.12540507845621330000e+000) (61, 7.87953893994607470000e-001) (62, 6.86854342867874500000e-001) (63, 6.63739893939605090000e-001) (64, 7.90528655051205060000e-001) (65, 6.77193159217930000000e-001) (66, 3.25144682530469960000e-001) (67, 1.25083551877283040000e+000) (68, -2.65722380970032590000e-001) (69, -1.73003358285171440000e-001) (70, -3.39831313996906410000e-001) (71, -3.61821871773859660000e-001) (72, 2.32361895386126420000e-001) (73, 3.04301541587921440000e-001) (74, 7.36902309162816180000e-001) (75, 8.95395213314870430000e-002) (76, 1.53502959470737290000e+000) (77, 5.65852642711264340000e-001) (78, -3.22561083527597330000e-001) (79, -5.14099445832921780000e-001) (80, 1.72917943857181930000e-001) (81, -5.55805240945753610000e-002) (82, 3.33195966911861210000e-001) (83, 2.50551612043458550000e-001) (84, -1.11253346386629250000e+000) (85, 1.17530281621900820000e+000) (86, -3.25733836630902610000e-002) (87, -1.14495920028894750000e-001) (88, 6.53983365880050020000e-001) (89, 8.88587171350371380000e-002) (90, 3.52656428261355010000e-001) (91, 1.38054007589949120000e-001) (92, 2.12178108797679540000e-001) (93, -3.52563736944387360000e-001) (94, 1.19905103140421930000e+000) (95, 1.00147505057519970000e+000) (96, 5.00589673602989120000e-001) (97, 3.95883483985724260000e-001) (98, 2.66901980303868250000e-001) (99, 3.22404996949596320000e-003) (100, 2.16143628838991630000e-001) (101, 3.73226381586852900000e-001) (102, 9.51040910476315250000e-002) (103, 6.14008928546737610000e-001) (104, 3.89182989391194670000e-001) (105, -8.42105190354882070000e-002) (106, 1.93819116378546150000e-001) (107, 4.46163850453695220000e-001) (108, 2.59002064706302160000e-001) (109, 8.72698918300363470000e-002) (110, 2.51310194752351830000e-001) (111, -6.21658380059779690000e-001) (112, -5.98551123094653300000e-001) (113, 1.48933211156423380000e-001) (114, 1.39993127072236740000e+000) (115, 8.93850266934790310000e-001) (116, 5.18797511355587380000e-001) (117, 3.07457069429614930000e-001) (118, 1.88494780951104830000e-001) (119, 5.72412871174025830000e-002) (120, 1.07013756091535490000e-001) (121, 4.19938621778118410000e-001) (122, -6.26913165913521310000e-002) (123, -2.33786041715376760000e-001) (124, 3.72262917910860410000e-001) (125, 4.17777809878827120000e-001) (126, 1.35523517460800740000e-001) (127, 1.36017495961077260000e-001) (128, 3.06450486704433310000e-001) (129, 4.51310854635074810000e-001) (130, -3.74527783303519880000e-001) (131, 6.42058063161389870000e-003) (132, -4.03304397243115180000e-001) (133, 6.23539501655935860000e-001) (134, 2.66244425472118220000e+000) (135, 7.72596089047124620000e-001) (136, -1.17967575199899330000e+000) (137, 3.60319805260661490000e-001) (138, 4.51595696943636160000e-001) (139, 2.64884152670226910000e-001) (140, 4.99888432254400770000e-001) (141, -1.01010775944921010000e+000) (142, 1.64744923108829210000e-001) (143, 4.63006611799940520000e-001) (144, 1.92651655723993450000e-001) (145, 2.05959595040358930000e-001) (146, 1.27093414842257570000e-002) (147, 5.88420553983016110000e-002) (148, -1.54235204389816250000e-002) (149, 1.39417502011943000000e-002) (150, -7.14167205468535180000e-001) (151, 6.77256435154229560000e-002) (152, 6.22090134075992120000e-001) (153, -4.02748762861399880000e-001) (154, 2.51758936655555040000e-001) (155, 3.42776666182336930000e-001) (156, 4.56463653983426480000e-001) (157, 6.86767085943107980000e-001) (158, 2.87621403200784940000e-001) (159, 2.89115942733285670000e-001) (160, 3.01505454081991250000e-001) (161, 4.04255701243210140000e-001) (162, 2.08288061273871890000e-001) (163, 1.70661565976693850000e-001) (164, -2.90784387099421830000e-002) (165, -1.41967884206171080000e+000) (166, -1.00371081022841970000e-001) (167, -1.10354605985868170000e+000) (168, -6.00576828634489360000e-001) (169, -4.88140704519568040000e-001) (170, -5.30234968826236330000e-001) (171, -1.03371531947994530000e+000) (172, -5.58815009368845320000e-001) (173, 1.14392679668137040000e-001) (174, 4.95719019157972280000e-001) (175, 8.28279166698660090000e-001) (176, 1.00329184554676410000e+000) (177, 2.68922871042853760000e-002) (178, 4.25533871636053080000e-002) (179, 2.27720361649004000000e-001) (180, 2.88893755813082690000e-001) (181, 1.84917621938638590000e-001) (182, 9.10558535018269060000e-002) (183, -1.16406228236266740000e+000) (184, -2.68219100257426390000e+000) (185, -2.88487180451242510000e+000) (186, -2.56473884578275110000e+000) (187, -9.52793422693311460000e-001) (188, -7.10363590918404730000e-001) (189, -1.43041448837094990000e-001) (190, -1.27738288551110930000e+000) (191, -1.17677397180460150000e-001) (192, 4.88004703842556120000e-001) (193, 7.49468469726775890000e-002) (194, -2.80815006483118910000e-001) (195, 5.34574485209927010000e-001) (196, -5.88536927559488230000e-002) (197, 3.90068089823577440000e-001) (198, 1.78299621592556440000e-001) (199, 2.65945820080009000000e-001) (200, 2.38663929262675210000e-001) (201, -2.51620445019229700000e-001) (202, -3.93825795805064600000e+000) (203, -2.25310360993308390000e+000) (204, -9.03157833483855370000e-001) (205, -1.61166609246264720000e-001) (206, -6.33896060661925280000e-001) (207, -3.15100420883780320000e-001) (208, -1.05986861254350310000e-001) (209, -7.60263441209846460000e-001) (210, 9.69034595023044180000e-002) (211, -3.43878811231662530000e-001) (212, -8.24089554065440600000e-001) (213, -8.17460089331037980000e-001) (214, 3.88899732311395190000e-001) (215, 2.69296854609454460000e-001) (216, 3.05247619713782390000e-001) (217, 2.73021517270760790000e-001) (218, 1.46975813249959150000e-001) (219, 1.61640659346300840000e-001) (220, -5.16935703792713810000e-001) (221, 2.77177401617074380000e-001) (222, -7.54971995744813110000e-001) (223, -1.08078702939947550000e-001) (224, 1.11853261508353470000e-001) (225, -1.92556634756349740000e-001) (226, -2.67694929976399380000e-001) (227, -5.38052650123411080000e-001) (228, -9.86945334894729350000e-001) (229, -3.10248729671933010000e-001) (230, -9.02713146104122790000e-001) (231, -2.49178018473945070000e+000) (232, -2.42905231674923060000e-001) (233, 7.68794999770083810000e-001) (234, 3.49565707864483040000e-001) (235, 3.47181961791027170000e-001) (236, 2.51987904070592910000e-001) (237, 4.40064590910356980000e-002) (238, 2.89506239422038570000e-001) (239, -1.32469235610859710000e-001) (240, 7.97001495585161090000e-001) (241, -4.58524823518164040000e-001) (242, -6.78831394016473490000e-002) (243, 3.42351077657366890000e-001) (244, -9.86619960513133030000e-002) (245, -4.20068874783368520000e-001) (246, -7.26534094220614320000e-001) (247, -2.04705986466033270000e-001) (248, 4.47247008838540130000e-001) (249, -2.66085401686100340000e-001) (250, 1.21784068458640810000e-002) (251, 1.25313907605978250000e+000) (252, 2.58870562006327240000e-001) (253, 2.48238237629143040000e-001) (254, 1.50313477037335270000e-001) (255, 6.16923587007114250000e-001) (256, 4.54106701522671910000e-001) (257, 9.55339229168750580000e-001) (258, 3.07247155379074850000e+000) (259, -8.77696458171556000000e-002) (260, 5.42605623228483600000e-001) (261, 5.22614601791738240000e-001) (262, 6.68748168315480560000e-002) (263, 5.34803427826712400000e-002) (264, -1.92092998818400380000e+000) (265, 9.45768617000055320000e-001) (266, 1.65822219131224920000e+000) (267, 3.37283455776663300000e-001) (268, 9.25131896176395680000e-001) (269, 5.07355862295171380000e-001) (270, 2.48432664993953140000e-001) (271, 3.37747289352630540000e-001) (272, 2.43635977055421640000e-001) (273, 8.88667730259723450000e-001) (274, 3.13350302409050800000e+000) (275, 1.32248122921698470000e+000) (276, 2.08982453398650620000e+000) (277, 1.21244211315433950000e+000) (278, 9.09738391191879600000e-001) (279, 6.02169412807294520000e-001) (280, -1.32304890750420020000e+000) (281, 2.04447926146748230000e+000) (282, 4.44982423414239040000e+000) (283, 2.35411682452341960000e+000) (284, 3.55921065310745130000e-001) (285, 1.08048240779762760000e+000) (286, 1.94978271450901160000e+000) (287, 1.81548447491047200000e-001) (288, 1.72800526894979770000e-001) (289, 5.62196941800117140000e-001) (290, 4.36535730213565730000e-001) (291, 1.49326128613194520000e+000) (292, 1.16196525419619420000e+000) (293, 3.67950472439309450000e-001) (294, 8.14094737622478640000e-001) (295, 1.00161138639670490000e+000) (296, 8.41641592014363060000e-001) (297, 5.60506184401703970000e-001) (298, 9.71454050031547170000e-001) (299, 7.84396334750785740000e-001) (300, 1.47343297778259140000e+000) (301, 9.10845555998849870000e-001) (302, 3.48345536288057420000e-001) (303, 1.74558991372329350000e+000) (304, -3.15512435416802630000e-002) (305, -4.08448261165429430000e-002) (306, 2.92139430581199570000e-001) (307, 3.12959593010274430000e-001) (308, 2.33234077098633390000e-001) (309, 2.53684295363100220000e-001) (310, 2.42967093549768180000e+000) (311, 6.50482886932247100000e-001) (312, 9.25148654782479540000e-001) (313, 2.77590034680163230000e+000) (314, -3.06988833116067840000e-001) (315, 1.12656106947264670000e+000) (316, 1.93191851895340120000e+000) (317, 1.22250259229361570000e+000) (318, 6.51114343614342620000e-001) (319, 3.90441093093893300000e-001) (320, -5.72710043655654500000e-003) (321, -1.28524279029391620000e-001) (322, -3.84485319784371840000e-001) (323, -1.48573947842237840000e-002) (324, 1.86639163271778620000e-001) (0, 2.00459038057101550000e+000) (1, 1.44364130234915010000e+000) (2, 3.22818907446833780000e-001) (3, -3.23002241913044940000e-001) (4, -1.51191136071141810000e-003) (5, 6.26936751651016140000e-001) (6, 2.16945792104200220000e+000) (7, -1.42290099049344700000e-001) (8, -8.45645417196696090000e-002) (9, -1.51526936277507550000e-001) (10, -1.65079169999880450000e-001) (11, -1.16970343863459170000e-001) (12, -6.98390563075140520000e-002) (13, -2.10856405486977760000e-001) (14, -1.84230445377357530000e-001) (15, -7.66366359280615770000e-003) (16, -2.63140193825314010000e-001) (17, -4.39349965707712680000e-001) (18, 6.45448766146854490000e-003) (19, 1.29451269891557490000e+000) (20, 3.91539002141946920000e-001) (21, 6.95637148752931700000e-001) (22, 5.71679433600708280000e-001) (23, 5.37272125826027350000e-001) (24, 6.10540897102804460000e-001) (25, 1.90985667913124930000e-001) (26, 2.51287350469854950000e-002) (27, 8.05366409032869490000e-001) (28, 4.03587661587257340000e-001) (29, 4.31664762908138880000e-001) (30, -4.71403067065303580000e-003) (31, -1.60261338083766640000e-001) (32, 6.44741515103747660000e-001) (33, 4.23446160903285380000e-002) (34, -3.76881493135588150000e-002) (35, 8.04776626017072590000e-002) (36, 1.88057782811199800000e-002) (37, -3.22441777964179280000e-001) (38, 5.33285410139356710000e-001) (39, 3.47021380971941350000e-001) (40, 7.88533225106005380000e-002) (41, 5.43877709347930780000e-001) (42, 3.94254290627286010000e-001) (43, 2.12229035081428290000e-001) (44, -1.85873658415219100000e+000) (45, 7.30092714870412720000e-001) (46, 7.52305332641694750000e-001) (47, 7.72879019402604840000e-001) (48, 1.46770141658967260000e-001) (49, 1.01845678405160010000e-001) (50, -1.30924056770870710000e-001) (51, -3.47883027862068710000e-001) (52, -5.63150547693701680000e-002) (53, 4.03280450225679750000e-002) (54, 1.14419990836587370000e-001) (55, -1.00125619376851690000e+000) (56, 5.40369116680458730000e-001) (57, 6.28714017452867700000e-001) (58, 1.64360035811352890000e-001) (59, 5.30467839804446890000e-001) (60, 5.70509049664183190000e+000) (61, 2.36272684775421680000e-001) (62, 2.35844466519434440000e-001) (63, -3.26870609296892050000e-003) (64, -1.05217285796023740000e-001) (65, 7.42944582008679630000e-001) (66, 2.58506155353314560000e-001) (67, 1.38803388638101070000e+000) (68, 5.15602538715427160000e-001) (69, -1.00440741072990810000e+000) (70, -3.90708819900079040000e+000) (71, -1.39978053136619040000e-002) (72, -4.59095247801083180000e-002) (73, 3.99232616983416780000e-001) (74, 4.82556016755964820000e-001) (75, 5.82120395695759240000e-001) (76, 7.18752347238990400000e-001) (77, 4.19288948016043110000e-001) (78, 1.12628521178848880000e-001) (79, 2.12823892215211590000e-001) (80, -1.02562632131072850000e-001) (81, -8.68232792933158250000e-001) (82, 3.75578822306358860000e-001) (83, -3.00576392153267600000e-002) (84, -1.46057545172948330000e-001) (85, -2.24106169466201570000e+000) (86, 2.22317694139697420000e+000) (87, 1.26217831501715560000e-001) (88, -4.25996660813004860000e-001) (89, 9.87181522118335540000e-002) (90, 5.56337942684655490000e-002) (91, 1.57139568111182320000e-001) (92, 4.40990271241192000000e-002) (93, 1.15245285972099240000e+000) (94, 1.61163002596972970000e-001) (95, 4.91488276668012260000e-001) (96, 6.40034017271718800000e-002) (97, 5.87354737706621940000e-001) (98, -5.27933840372521030000e-002) (99, 3.44767232498895330000e-002) (100, 8.45217978638360790000e-001) (101, -6.92548887685659750000e-002) (102, -2.19429591556393570000e-002) (103, 6.80523780799941470000e-001) (104, 3.04969383774356650000e+000) (105, -7.42103447027650520000e-001) (106, -3.12288048985351410000e+000) (107, 6.51587048369283940000e-001) (108, -1.91681862171650600000e-002) (109, 1.35063752515955120000e-001) (110, 1.18310310513963410000e+000) (111, -4.73615761155251410000e-002) (112, 7.03613520280906730000e-001) (113, 3.60142675153051470000e+000) (114, 1.81842941394686060000e+000) (115, 5.05513429486825210000e-001) (116, 1.33905215724561430000e-001) (117, 2.49555286394759050000e-001) (118, -2.32317766159227500000e-001) (119, 2.74006220098410650000e-002) (120, -9.45146434959711900000e-002) (121, 9.95508489649555850000e-001) (122, 2.80737929976347990000e+000) (123, 9.77085870257594360000e-002) (124, 4.80628359761516470000e-001) (125, 5.86777004340863220000e-001) (126, -1.66123348702596730000e-002) (127, 5.41688291962844400000e-001) (128, 1.67857144243709140000e+000) (129, 1.82641112875553710000e-001) (130, 1.11608750623397370000e+000) (131, 3.60422643895185810000e+000) (132, 5.48760227825553120000e-001) (133, 8.65993661696987550000e-001) (134, 7.44385463749575590000e-001) (135, -1.34699660599473390000e-001) (136, -1.35667793574283220000e-002) (137, -1.28905142236227200000e-001) (138, -2.38630732294257130000e-001) (139, 7.03290437557601290000e-002) (140, 5.40164193064113510000e-002) (141, -1.27734088108016340000e-001) (142, -1.76703087014804080000e-001) (143, 1.88501312540515810000e+000) (144, -1.05454247609203850000e-001) (145, 1.15259352617681900000e-001) (146, -7.35315452165733050000e-002) (147, 3.20050638583504520000e-001) (148, 1.36186464282020940000e-001) (149, -1.10832737729238210000e-001) (150, 8.94571994825826830000e-001) (151, -4.62529758700396600000e-002) (152, 5.25387601918830720000e-001) (153, -9.67955685403825260000e-001) (154, -1.68439912856543780000e-001) (155, -1.22494946897836380000e+000) (156, -1.82297076363162370000e+000) (157, -5.09272944090363610000e-001) (158, 2.74444266600928020000e-001) (159, -3.93652640122127690000e-001) (160, 1.04879720217284690000e+000) (161, 1.33893827721341840000e+000) (162, -4.01418035057290230000e-001) (163, -1.19924455683723660000e-001) (164, 2.49772834678984510000e-001) (165, 5.36273516041807510000e-001) (166, -2.64495940619326330000e-002) (167, -2.51045883464551480000e-001) (168, 6.06562905745994920000e-001) (169, 2.33400474492846700000e-001) (170, -9.24724087169902230000e-002) (171, -9.72944133437159960000e-002) (172, -1.16808873448325400000e+000) (173, -2.54646391304143130000e-001) (174, -1.78190004514410800000e-001) (175, -1.08521393506781520000e+000) (176, -1.65790034174063740000e-001) (177, -2.71780321512631980000e-001) (178, 8.77311282731828570000e-001) (179, 3.08019466087164630000e-001) (180, -2.54009232941696690000e-001) (181, -2.95805682899202140000e-002) (182, 6.23049314971869730000e-002) (183, 4.67553800627946550000e-001) (184, -2.06946698845168320000e-003) (185, 3.66057097440644740000e-001) (186, 9.23639547435491230000e-002) (187, -7.69219330496172250000e-002) (188, -4.40297977339576540000e-003) (189, -1.93211553532285710000e-002) (190, 1.78599921052236680000e+000) (191, -1.05249515302536870000e-001) (192, -1.28470080805061670000e-001) (193, -1.03990209210523110000e+000) (194, -6.44411872047521590000e-001) (195, -1.72137690894560600000e-001) (196, 1.95508043112574410000e-001) (197, 2.06939564196392980000e-001) (198, -3.20115871122252260000e-001) (199, -1.13227775582141770000e-001) (200, 2.11379822238819570000e-001) (201, 3.56356762634336190000e-001) (202, -2.40670758025700180000e-001) (203, -1.51126285450504170000e-002) (204, 1.24427848868236660000e-001) (205, 3.45595695762503260000e-001) (206, 1.56914422246522130000e-001) (207, 3.15867189607640100000e-001) (208, 4.47603286288279060000e-001) (209, 1.84129476787917780000e+000) (210, 1.76376316245902280000e-001) (211, -6.28193028371784660000e+000) (212, -1.90095329609474000000e+000) (213, -4.49668365854783700000e-001) (214, 1.86993254331511480000e-001) (215, -1.69289030497388170000e-001) (216, -3.53842960931865120000e-001) (217, 7.18027250499473500000e-002) (218, -1.44912843949823680000e-001) (219, 4.27024433600928290000e-001) (220, -4.72179244372543830000e-001) (221, -1.01726412101138220000e+000) (222, 2.24022107090229270000e-001) (223, 1.55093496041595280000e-001) (224, 1.40805512935487740000e-001) (225, 5.02431861814350430000e-002) (226, -1.14947444709497410000e-001) (227, -2.34420636010657660000e-001) (228, 1.27926497139995210000e-001) (229, -3.99207278105852050000e-001) (230, -4.21439705604088920000e+000) (231, -5.80660530627069570000e-001) (232, -1.27273873772482920000e+000) (233, -2.82738386462138450000e-001) (234, -1.89363150347200890000e-001) (235, -5.67573852510249860000e-002) (236, -1.37352941273991300000e-002) (237, 2.12225031978680170000e-001) (238, -4.18729060163464620000e-001) (239, -2.24770367958663540000e-001) (240, 2.20866749564702470000e-002) (241, 2.67629016824184050000e-001) (242, 2.54386530516174270000e-001) (243, 3.27021214732188370000e-001) (244, 6.68141639422282000000e-001) (245, 1.60333346112799950000e-002) (246, 7.08191378652975320000e-002) (247, 1.78010076520201510000e-001) (248, -6.90981153719129890000e+000) (249, 1.40025441743636380000e-001) (250, 5.63168675222258330000e-001) (251, -1.70067353799903550000e-003) (252, 9.14607699666203260000e-001) (253, 3.11472196781285680000e-001) (254, -1.28262779694520880000e-001) (255, 5.45189535486029570000e-002) (256, -4.28069353623898470000e-001) (257, -1.47808185625301180000e-001) (258, -2.38076826372180670000e-002) (259, -1.45050315827641360000e-001) (260, 5.13542639011108860000e-001) (261, 5.03304792595235200000e-001) (262, 5.68834854123565980000e-002) (263, 1.57565201578781950000e+000) (264, 2.30799909837579530000e-001) (265, 1.59731112778092310000e+000) (266, 1.45720979077434530000e+000) (267, 8.30720157617279350000e-001) (268, 9.44462759624327570000e-001) (269, -1.97782038726971620000e-003) (270, 2.19209209393168600000e-001) (271, -4.20057269151840660000e-001) (272, -1.40281645716953400000e-001) (273, -1.78057004438762320000e-001) (274, -3.49661541731642820000e-001) (275, -4.65159584062385280000e-001) (276, -6.02355562410433860000e-001) (277, -2.66913682930414900000e-001) (278, 4.36355667188071890000e-001) (279, -1.67181747503483670000e+000) (280, 1.24425678773086610000e+000) (281, 5.36932592188486880000e-001) (282, 3.01453752950184620000e-001) (283, 7.33379545647208200000e-001) (284, 8.94369949739912020000e-001) (285, 9.47867190275508920000e-001) (286, 7.98917900601522120000e-001) (287, 1.71778856675277940000e-002) (288, 1.08512034348806560000e-002) (289, 1.97706955043659140000e+000) (290, 1.72461427980718630000e-003) (291, 1.48405485126350290000e-001) (292, 9.58660742268843350000e-001) (293, 1.54010804012227830000e-001) (294, 9.99915076886119940000e-002) (295, -2.12148627519578940000e-001) (296, 4.77191964096523090000e-001) (297, 6.46852674791266070000e-001) (298, 4.49091824020158900000e-001) (299, 6.22994330257211180000e+000) (300, 1.32147282427554470000e+000) (301, 4.44187035046326230000e-001) (302, 3.51766689206266040000e+000) (303, 1.12421314947532850000e+000) (304, 4.86365548423641820000e-001) (305, 1.70433864641138660000e-001) (306, -5.52221860716585810000e-002) (307, 2.09300062059987580000e-001) (308, 7.55673623607099050000e-002) (309, 1.62895289623838230000e-001) (310, -1.66878569322490710000e-001) (311, 4.56311865836941320000e-002) (312, 3.66863305007274530000e+000) (313, 2.01932714879984950000e-002) (314, 2.34015575829272650000e-001) (315, -2.20830279006646760000e-001) (316, 5.06569851768308500000e-002) (317, 4.78625066014112310000e-001) (318, -3.82491252319670650000e-002) (319, 2.28311523786132630000e-002) (320, 3.31332036937023010000e-001) (321, 6.85049560564500590000e-002) (322, -2.49093551245324170000e-002) (323, -3.13584770010583880000e-001) (324, 8.30684236445310980000e-001) (0, 4.95588429376952190000e-001) (1, 1.06752655315021870000e+000) (2, 6.31893031221419820000e-001) (3, 6.56804271378654490000e-001) (4, 6.93655060432867840000e-001) (5, 2.64845658059072840000e-001) (6, -1.42165442329486110000e-002) (7, -1.84933399639874040000e-001) (8, 1.54467377732178720000e-001) (9, 1.03763947961302410000e-001) (10, 2.82688815475770410000e-001) (11, 3.11058700082337600000e-001) (12, 5.46487421195896440000e-001) (13, 4.03899805012836570000e-001) (14, 2.71717990796085380000e-001) (15, 2.95437620181280780000e-001) (16, 3.32186173451121340000e-001) (17, 6.35794576231927140000e-001) (18, 4.46664619515809490000e+000) (19, 6.29249523558079170000e-001) (20, 5.89725218336548780000e-001) (21, -1.02032814068284320000e-002) (22, 4.45692387292627510000e-002) (23, 3.74688596729499530000e-002) (24, -2.77983193518835180000e+000) (25, -7.12800926343847330000e+000) (26, -3.73416999803066260000e+000) (27, -1.59451590533670970000e+000) (28, -8.17420156088079160000e-001) (29, -5.79409850446637620000e-001) (30, 1.05068450584899120000e-001) (31, 1.15579295992149780000e+000) (32, 9.02465603320581680000e-001) (33, 7.36166500490365250000e-001) (34, 1.41262517734394750000e+000) (35, 3.72690771765786740000e-001) (36, 2.52733620294926720000e+000) (37, 6.67242008052560290000e-001) (38, 1.32121774536787140000e-001) (39, 3.41178111649853910000e-002) (40, 3.48671056657867270000e-002) (41, -2.49153211329003340000e-002) (42, -2.57123017245087460000e-001) (43, -2.47368292993053630000e+000) (44, -2.63966967149266020000e+000) (45, -2.67745105834257170000e+000) (46, -1.07016991588017470000e+000) (47, -4.02318127891517550000e-001) (48, 5.89883544053724920000e-002) (49, 3.15643805250615690000e-001) (50, 1.14842342903749080000e-001) (51, 5.69301172990856250000e-001) (52, 3.45883975479922110000e-001) (53, 3.21975915678110460000e-001) (54, 8.19364026132256450000e-001) (55, 2.92728693079649100000e-001) (56, -5.08790968268349390000e-002) (57, -1.17407885110953280000e-001) (58, -7.17726195856686790000e-004) (59, 8.68383815953823190000e-002) (60, 1.90129201755519710000e+000) (61, -1.00997182426056060000e-002) (62, 2.94482365972850440000e-001) (63, 3.40078728204077920000e-001) (64, 2.51756565474583920000e-001) (65, 